<neuralNetwork>
    <neuron name = "0" type = "sensor" linkName = "rootLink" />
    <neuron name = "1" type = "sensor" linkName = "link2NPP" />
    <neuron name = "2" type = "sensor" linkName = "link4NPP" />
    <neuron name = "3" type = "sensor" linkName = "link2NNP" />
    <neuron name = "4" type = "sensor" linkName = "link4NNP" />
    <neuron name = "5" type = "motor"  jointName = "rootLink_link1NPP" />
    <neuron name = "6" type = "motor"  jointName = "rootLink_link1NNP" />
    <neuron name = "7" type = "motor"  jointName = "link1NPP_link2NPP" />
    <neuron name = "8" type = "motor"  jointName = "link2NPP_link3NPP" />
    <neuron name = "9" type = "motor"  jointName = "link3NPP_link4NPP" />
    <neuron name = "10" type = "motor"  jointName = "link1NNP_link2NNP" />
    <neuron name = "11" type = "motor"  jointName = "link2NNP_link3NNP" />
    <neuron name = "12" type = "motor"  jointName = "link3NNP_link4NNP" />
    <synapse sourceNeuronName = "0" targetNeuronName = "5" weight = "-0.40533723698545554" />
    <synapse sourceNeuronName = "0" targetNeuronName = "6" weight = "-0.9447879760909927" />
    <synapse sourceNeuronName = "0" targetNeuronName = "7" weight = "0.18686489892924207" />
    <synapse sourceNeuronName = "0" targetNeuronName = "8" weight = "0.6876808578623776" />
    <synapse sourceNeuronName = "0" targetNeuronName = "9" weight = "-0.23796775187557162" />
    <synapse sourceNeuronName = "0" targetNeuronName = "10" weight = "0.4997166214522868" />
    <synapse sourceNeuronName = "0" targetNeuronName = "11" weight = "0.022282956594256387" />
    <synapse sourceNeuronName = "0" targetNeuronName = "12" weight = "0.08190360992437729" />
    <synapse sourceNeuronName = "1" targetNeuronName = "5" weight = "0.9188686421235048" />
    <synapse sourceNeuronName = "1" targetNeuronName = "6" weight = "0.6079217829972936" />
    <synapse sourceNeuronName = "1" targetNeuronName = "7" weight = "-0.935353866752852" />
    <synapse sourceNeuronName = "1" targetNeuronName = "8" weight = "0.4187745024625902" />
    <synapse sourceNeuronName = "1" targetNeuronName = "9" weight = "-0.06999703687298786" />
    <synapse sourceNeuronName = "1" targetNeuronName = "10" weight = "0.8950978827901996" />
    <synapse sourceNeuronName = "1" targetNeuronName = "11" weight = "-0.5571345313530234" />
    <synapse sourceNeuronName = "1" targetNeuronName = "12" weight = "-0.46585596063126844" />
    <synapse sourceNeuronName = "2" targetNeuronName = "5" weight = "-0.837052070245476" />
    <synapse sourceNeuronName = "2" targetNeuronName = "6" weight = "-0.14276234267242693" />
    <synapse sourceNeuronName = "2" targetNeuronName = "7" weight = "-0.7819624719618634" />
    <synapse sourceNeuronName = "2" targetNeuronName = "8" weight = "0.2675735212238357" />
    <synapse sourceNeuronName = "2" targetNeuronName = "9" weight = "0.6059264747474757" />
    <synapse sourceNeuronName = "2" targetNeuronName = "10" weight = "0.39360099224035694" />
    <synapse sourceNeuronName = "2" targetNeuronName = "11" weight = "0.5324227621515409" />
    <synapse sourceNeuronName = "2" targetNeuronName = "12" weight = "-0.3150917603129604" />
    <synapse sourceNeuronName = "3" targetNeuronName = "5" weight = "0.6917029660553553" />
    <synapse sourceNeuronName = "3" targetNeuronName = "6" weight = "-0.1424624500011149" />
    <synapse sourceNeuronName = "3" targetNeuronName = "7" weight = "0.6480197408246375" />
    <synapse sourceNeuronName = "3" targetNeuronName = "8" weight = "0.2529923172485875" />
    <synapse sourceNeuronName = "3" targetNeuronName = "9" weight = "-0.7131539026595102" />
    <synapse sourceNeuronName = "3" targetNeuronName = "10" weight = "-0.8432262002901041" />
    <synapse sourceNeuronName = "3" targetNeuronName = "11" weight = "-0.9633347141739854" />
    <synapse sourceNeuronName = "3" targetNeuronName = "12" weight = "-0.8665500047212871" />
    <synapse sourceNeuronName = "4" targetNeuronName = "5" weight = "-0.08283237258313636" />
    <synapse sourceNeuronName = "4" targetNeuronName = "6" weight = "-0.773316154464819" />
    <synapse sourceNeuronName = "4" targetNeuronName = "7" weight = "-0.9444333023026601" />
    <synapse sourceNeuronName = "4" targetNeuronName = "8" weight = "0.5097229627809348" />
    <synapse sourceNeuronName = "4" targetNeuronName = "9" weight = "-0.21029903907872116" />
    <synapse sourceNeuronName = "4" targetNeuronName = "10" weight = "0.49387699121505024" />
    <synapse sourceNeuronName = "4" targetNeuronName = "11" weight = "-0.0951903465070969" />
    <synapse sourceNeuronName = "4" targetNeuronName = "12" weight = "-0.09982650599847775" />
</neuralNetwork>