<neuralNetwork>
    <neuron name = "0" type = "sensor" linkName = "rootLink" />
    <neuron name = "1" type = "sensor" linkName = "link1NPP" />
    <neuron name = "2" type = "sensor" linkName = "link2NPP" />
    <neuron name = "3" type = "sensor" linkName = "link3NPP" />
    <neuron name = "4" type = "sensor" linkName = "link1NNP" />
    <neuron name = "5" type = "sensor" linkName = "link2NNP" />
    <neuron name = "6" type = "sensor" linkName = "link3NNP" />
    <neuron name = "7" type = "motor"  jointName = "rootLink_link1NPP" />
    <neuron name = "8" type = "motor"  jointName = "rootLink_link1NNP" />
    <neuron name = "9" type = "motor"  jointName = "link1NPP_link2NPP" />
    <neuron name = "10" type = "motor"  jointName = "link2NPP_link3NPP" />
    <neuron name = "11" type = "motor"  jointName = "link3NPP_link4NPP" />
    <neuron name = "12" type = "motor"  jointName = "link1NNP_link2NNP" />
    <neuron name = "13" type = "motor"  jointName = "link2NNP_link3NNP" />
    <neuron name = "14" type = "motor"  jointName = "link3NNP_link4NNP" />
    <synapse sourceNeuronName = "0" targetNeuronName = "7" weight = "-0.3627896640122221" />
    <synapse sourceNeuronName = "0" targetNeuronName = "8" weight = "0.6252735177344484" />
    <synapse sourceNeuronName = "0" targetNeuronName = "9" weight = "0.07854285356723123" />
    <synapse sourceNeuronName = "0" targetNeuronName = "10" weight = "0.46231207315750833" />
    <synapse sourceNeuronName = "0" targetNeuronName = "11" weight = "0.9460313204289574" />
    <synapse sourceNeuronName = "0" targetNeuronName = "12" weight = "0.1031296772647936" />
    <synapse sourceNeuronName = "0" targetNeuronName = "13" weight = "-0.1315822044255397" />
    <synapse sourceNeuronName = "0" targetNeuronName = "14" weight = "0.47603767475291203" />
    <synapse sourceNeuronName = "1" targetNeuronName = "7" weight = "-0.11103691646027469" />
    <synapse sourceNeuronName = "1" targetNeuronName = "8" weight = "0.32409602797340176" />
    <synapse sourceNeuronName = "1" targetNeuronName = "9" weight = "0.056631015549035935" />
    <synapse sourceNeuronName = "1" targetNeuronName = "10" weight = "-0.8293467541231259" />
    <synapse sourceNeuronName = "1" targetNeuronName = "11" weight = "0.09025806249432455" />
    <synapse sourceNeuronName = "1" targetNeuronName = "12" weight = "-0.7652589878199529" />
    <synapse sourceNeuronName = "1" targetNeuronName = "13" weight = "-0.9843163429040345" />
    <synapse sourceNeuronName = "1" targetNeuronName = "14" weight = "0.25609775565637727" />
    <synapse sourceNeuronName = "2" targetNeuronName = "7" weight = "0.6493725012415299" />
    <synapse sourceNeuronName = "2" targetNeuronName = "8" weight = "0.5440160849946214" />
    <synapse sourceNeuronName = "2" targetNeuronName = "9" weight = "0.29850619923175037" />
    <synapse sourceNeuronName = "2" targetNeuronName = "10" weight = "-0.18953338554238508" />
    <synapse sourceNeuronName = "2" targetNeuronName = "11" weight = "-0.33899827631264534" />
    <synapse sourceNeuronName = "2" targetNeuronName = "12" weight = "-0.9981899474911504" />
    <synapse sourceNeuronName = "2" targetNeuronName = "13" weight = "0.46100090119701753" />
    <synapse sourceNeuronName = "2" targetNeuronName = "14" weight = "0.7395981262996476" />
    <synapse sourceNeuronName = "3" targetNeuronName = "7" weight = "0.6013489989559011" />
    <synapse sourceNeuronName = "3" targetNeuronName = "8" weight = "-0.0395718130880629" />
    <synapse sourceNeuronName = "3" targetNeuronName = "9" weight = "-0.9667939565357395" />
    <synapse sourceNeuronName = "3" targetNeuronName = "10" weight = "-0.06744759666732536" />
    <synapse sourceNeuronName = "3" targetNeuronName = "11" weight = "-0.4875962889576524" />
    <synapse sourceNeuronName = "3" targetNeuronName = "12" weight = "-0.42784617311202644" />
    <synapse sourceNeuronName = "3" targetNeuronName = "13" weight = "-0.6741218178721016" />
    <synapse sourceNeuronName = "3" targetNeuronName = "14" weight = "0.5479386341256538" />
    <synapse sourceNeuronName = "4" targetNeuronName = "7" weight = "0.15489117213607106" />
    <synapse sourceNeuronName = "4" targetNeuronName = "8" weight = "0.4380651112971934" />
    <synapse sourceNeuronName = "4" targetNeuronName = "9" weight = "0.8053554924555244" />
    <synapse sourceNeuronName = "4" targetNeuronName = "10" weight = "-0.8606369976288213" />
    <synapse sourceNeuronName = "4" targetNeuronName = "11" weight = "-0.5244357844310747" />
    <synapse sourceNeuronName = "4" targetNeuronName = "12" weight = "-0.6201403349007946" />
    <synapse sourceNeuronName = "4" targetNeuronName = "13" weight = "0.5872245799764144" />
    <synapse sourceNeuronName = "4" targetNeuronName = "14" weight = "0.5293240002725248" />
    <synapse sourceNeuronName = "5" targetNeuronName = "7" weight = "0.8921914404956184" />
    <synapse sourceNeuronName = "5" targetNeuronName = "8" weight = "0.00033071409203899726" />
    <synapse sourceNeuronName = "5" targetNeuronName = "9" weight = "-0.06832091914628746" />
    <synapse sourceNeuronName = "5" targetNeuronName = "10" weight = "-0.7660516749936561" />
    <synapse sourceNeuronName = "5" targetNeuronName = "11" weight = "0.27948604522612075" />
    <synapse sourceNeuronName = "5" targetNeuronName = "12" weight = "-0.3786808011413296" />
    <synapse sourceNeuronName = "5" targetNeuronName = "13" weight = "0.5854146411017467" />
    <synapse sourceNeuronName = "5" targetNeuronName = "14" weight = "-0.1304330208297373" />
    <synapse sourceNeuronName = "6" targetNeuronName = "7" weight = "-0.9774385417016451" />
    <synapse sourceNeuronName = "6" targetNeuronName = "8" weight = "-0.23652969939789759" />
    <synapse sourceNeuronName = "6" targetNeuronName = "9" weight = "-0.5717870441479951" />
    <synapse sourceNeuronName = "6" targetNeuronName = "10" weight = "-0.2988401783652992" />
    <synapse sourceNeuronName = "6" targetNeuronName = "11" weight = "-0.5405807049550768" />
    <synapse sourceNeuronName = "6" targetNeuronName = "12" weight = "0.7646356469884781" />
    <synapse sourceNeuronName = "6" targetNeuronName = "13" weight = "0.4367704863488342" />
    <synapse sourceNeuronName = "6" targetNeuronName = "14" weight = "0.3252231517169255" />
</neuralNetwork>