<neuralNetwork>
    <neuron name = "0" type = "sensor" linkName = "rootLink" />
    <neuron name = "1" type = "sensor" linkName = "link1NPP" />
    <neuron name = "2" type = "sensor" linkName = "link2NPP" />
    <neuron name = "3" type = "sensor" linkName = "link3NPP" />
    <neuron name = "4" type = "sensor" linkName = "link6NPP" />
    <neuron name = "5" type = "sensor" linkName = "link1NNP" />
    <neuron name = "6" type = "sensor" linkName = "link2NNP" />
    <neuron name = "7" type = "sensor" linkName = "link3NNP" />
    <neuron name = "8" type = "sensor" linkName = "link6NNP" />
    <neuron name = "9" type = "motor"  jointName = "rootLink_link1NPP" />
    <neuron name = "10" type = "motor"  jointName = "rootLink_link1NNP" />
    <neuron name = "11" type = "motor"  jointName = "link1NPP_link2NPP" />
    <neuron name = "12" type = "motor"  jointName = "link2NPP_link3NPP" />
    <neuron name = "13" type = "motor"  jointName = "link3NPP_link4NPP" />
    <neuron name = "14" type = "motor"  jointName = "link4NPP_link5NPP" />
    <neuron name = "15" type = "motor"  jointName = "link5NPP_link6NPP" />
    <neuron name = "16" type = "motor"  jointName = "link1NNP_link2NNP" />
    <neuron name = "17" type = "motor"  jointName = "link2NNP_link3NNP" />
    <neuron name = "18" type = "motor"  jointName = "link3NNP_link4NNP" />
    <neuron name = "19" type = "motor"  jointName = "link4NNP_link5NNP" />
    <neuron name = "20" type = "motor"  jointName = "link5NNP_link6NNP" />
    <synapse sourceNeuronName = "0" targetNeuronName = "9" weight = "-0.06878422857119326" />
    <synapse sourceNeuronName = "0" targetNeuronName = "10" weight = "-0.8232804107437413" />
    <synapse sourceNeuronName = "0" targetNeuronName = "11" weight = "-0.1682671539367453" />
    <synapse sourceNeuronName = "0" targetNeuronName = "12" weight = "-0.10842322321367615" />
    <synapse sourceNeuronName = "0" targetNeuronName = "13" weight = "0.8792730279769134" />
    <synapse sourceNeuronName = "0" targetNeuronName = "14" weight = "0.6256790882003624" />
    <synapse sourceNeuronName = "0" targetNeuronName = "15" weight = "0.46003458035464395" />
    <synapse sourceNeuronName = "0" targetNeuronName = "16" weight = "0.4795965067378889" />
    <synapse sourceNeuronName = "0" targetNeuronName = "17" weight = "-0.9716200516890379" />
    <synapse sourceNeuronName = "0" targetNeuronName = "18" weight = "-0.04225989636402061" />
    <synapse sourceNeuronName = "0" targetNeuronName = "19" weight = "0.3521915429557989" />
    <synapse sourceNeuronName = "0" targetNeuronName = "20" weight = "0.2619487673744805" />
    <synapse sourceNeuronName = "1" targetNeuronName = "9" weight = "0.3775566397671395" />
    <synapse sourceNeuronName = "1" targetNeuronName = "10" weight = "0.22920326604687147" />
    <synapse sourceNeuronName = "1" targetNeuronName = "11" weight = "0.6750681467946806" />
    <synapse sourceNeuronName = "1" targetNeuronName = "12" weight = "-0.599445745500607" />
    <synapse sourceNeuronName = "1" targetNeuronName = "13" weight = "-0.2511626798006126" />
    <synapse sourceNeuronName = "1" targetNeuronName = "14" weight = "-0.12090711763375994" />
    <synapse sourceNeuronName = "1" targetNeuronName = "15" weight = "0.516598304395973" />
    <synapse sourceNeuronName = "1" targetNeuronName = "16" weight = "0.9278028157243725" />
    <synapse sourceNeuronName = "1" targetNeuronName = "17" weight = "0.3649744304737308" />
    <synapse sourceNeuronName = "1" targetNeuronName = "18" weight = "-0.7936966509563179" />
    <synapse sourceNeuronName = "1" targetNeuronName = "19" weight = "0.29389311882588687" />
    <synapse sourceNeuronName = "1" targetNeuronName = "20" weight = "0.8527678610108125" />
    <synapse sourceNeuronName = "2" targetNeuronName = "9" weight = "-0.7972490649111137" />
    <synapse sourceNeuronName = "2" targetNeuronName = "10" weight = "0.14877087039738934" />
    <synapse sourceNeuronName = "2" targetNeuronName = "11" weight = "-0.058260587875497594" />
    <synapse sourceNeuronName = "2" targetNeuronName = "12" weight = "-0.1471389277129198" />
    <synapse sourceNeuronName = "2" targetNeuronName = "13" weight = "0.41537575545390903" />
    <synapse sourceNeuronName = "2" targetNeuronName = "14" weight = "0.39228654980940325" />
    <synapse sourceNeuronName = "2" targetNeuronName = "15" weight = "0.41522559409161186" />
    <synapse sourceNeuronName = "2" targetNeuronName = "16" weight = "-0.3381930585116" />
    <synapse sourceNeuronName = "2" targetNeuronName = "17" weight = "0.7112517125054874" />
    <synapse sourceNeuronName = "2" targetNeuronName = "18" weight = "-0.23732083476030974" />
    <synapse sourceNeuronName = "2" targetNeuronName = "19" weight = "0.5723169302330706" />
    <synapse sourceNeuronName = "2" targetNeuronName = "20" weight = "-0.12089025577537904" />
    <synapse sourceNeuronName = "3" targetNeuronName = "9" weight = "0.5123241059125758" />
    <synapse sourceNeuronName = "3" targetNeuronName = "10" weight = "0.5742951946672432" />
    <synapse sourceNeuronName = "3" targetNeuronName = "11" weight = "-0.07675662408794759" />
    <synapse sourceNeuronName = "3" targetNeuronName = "12" weight = "0.6818717311958105" />
    <synapse sourceNeuronName = "3" targetNeuronName = "13" weight = "0.5913743444215755" />
    <synapse sourceNeuronName = "3" targetNeuronName = "14" weight = "0.43712648505586116" />
    <synapse sourceNeuronName = "3" targetNeuronName = "15" weight = "0.7481957227187681" />
    <synapse sourceNeuronName = "3" targetNeuronName = "16" weight = "-0.30102184778859664" />
    <synapse sourceNeuronName = "3" targetNeuronName = "17" weight = "0.5746985866202905" />
    <synapse sourceNeuronName = "3" targetNeuronName = "18" weight = "0.7143526617513152" />
    <synapse sourceNeuronName = "3" targetNeuronName = "19" weight = "0.8395923189001304" />
    <synapse sourceNeuronName = "3" targetNeuronName = "20" weight = "-0.35764995837670077" />
    <synapse sourceNeuronName = "4" targetNeuronName = "9" weight = "-0.9570795622876782" />
    <synapse sourceNeuronName = "4" targetNeuronName = "10" weight = "0.46174603920750457" />
    <synapse sourceNeuronName = "4" targetNeuronName = "11" weight = "-0.46262884055178843" />
    <synapse sourceNeuronName = "4" targetNeuronName = "12" weight = "0.6940331224341856" />
    <synapse sourceNeuronName = "4" targetNeuronName = "13" weight = "-0.38040774080508566" />
    <synapse sourceNeuronName = "4" targetNeuronName = "14" weight = "0.42948842585983127" />
    <synapse sourceNeuronName = "4" targetNeuronName = "15" weight = "0.3759552961502659" />
    <synapse sourceNeuronName = "4" targetNeuronName = "16" weight = "-0.691812807999157" />
    <synapse sourceNeuronName = "4" targetNeuronName = "17" weight = "-0.3464755821444667" />
    <synapse sourceNeuronName = "4" targetNeuronName = "18" weight = "-0.7320623204228747" />
    <synapse sourceNeuronName = "4" targetNeuronName = "19" weight = "-0.8985166650214886" />
    <synapse sourceNeuronName = "4" targetNeuronName = "20" weight = "0.8333109092462574" />
    <synapse sourceNeuronName = "5" targetNeuronName = "9" weight = "0.47789230358458923" />
    <synapse sourceNeuronName = "5" targetNeuronName = "10" weight = "-0.19139091766036853" />
    <synapse sourceNeuronName = "5" targetNeuronName = "11" weight = "-0.5905862699196511" />
    <synapse sourceNeuronName = "5" targetNeuronName = "12" weight = "-0.47234126631016427" />
    <synapse sourceNeuronName = "5" targetNeuronName = "13" weight = "-0.5254253915200455" />
    <synapse sourceNeuronName = "5" targetNeuronName = "14" weight = "0.8586474681895397" />
    <synapse sourceNeuronName = "5" targetNeuronName = "15" weight = "0.34422123901084967" />
    <synapse sourceNeuronName = "5" targetNeuronName = "16" weight = "-0.15702282142564084" />
    <synapse sourceNeuronName = "5" targetNeuronName = "17" weight = "0.5477720651848599" />
    <synapse sourceNeuronName = "5" targetNeuronName = "18" weight = "0.6645240354810154" />
    <synapse sourceNeuronName = "5" targetNeuronName = "19" weight = "0.07433676643420029" />
    <synapse sourceNeuronName = "5" targetNeuronName = "20" weight = "0.49392831724318875" />
    <synapse sourceNeuronName = "6" targetNeuronName = "9" weight = "0.07288723359817317" />
    <synapse sourceNeuronName = "6" targetNeuronName = "10" weight = "-0.5451807208699275" />
    <synapse sourceNeuronName = "6" targetNeuronName = "11" weight = "0.2605731819460082" />
    <synapse sourceNeuronName = "6" targetNeuronName = "12" weight = "-0.002866659063602617" />
    <synapse sourceNeuronName = "6" targetNeuronName = "13" weight = "-0.5165212238852519" />
    <synapse sourceNeuronName = "6" targetNeuronName = "14" weight = "0.7931922165847853" />
    <synapse sourceNeuronName = "6" targetNeuronName = "15" weight = "-0.5583734980406516" />
    <synapse sourceNeuronName = "6" targetNeuronName = "16" weight = "-0.7512657419216335" />
    <synapse sourceNeuronName = "6" targetNeuronName = "17" weight = "0.6447403527501185" />
    <synapse sourceNeuronName = "6" targetNeuronName = "18" weight = "-0.9335465835999235" />
    <synapse sourceNeuronName = "6" targetNeuronName = "19" weight = "-0.6644064592294061" />
    <synapse sourceNeuronName = "6" targetNeuronName = "20" weight = "-0.850412189042344" />
    <synapse sourceNeuronName = "7" targetNeuronName = "9" weight = "-0.07860149043724918" />
    <synapse sourceNeuronName = "7" targetNeuronName = "10" weight = "-0.39429739133729336" />
    <synapse sourceNeuronName = "7" targetNeuronName = "11" weight = "-0.9448530521984118" />
    <synapse sourceNeuronName = "7" targetNeuronName = "12" weight = "0.6229078410545701" />
    <synapse sourceNeuronName = "7" targetNeuronName = "13" weight = "-0.39812439755544227" />
    <synapse sourceNeuronName = "7" targetNeuronName = "14" weight = "-0.11218751182626474" />
    <synapse sourceNeuronName = "7" targetNeuronName = "15" weight = "0.9680039932996034" />
    <synapse sourceNeuronName = "7" targetNeuronName = "16" weight = "0.14501645394213036" />
    <synapse sourceNeuronName = "7" targetNeuronName = "17" weight = "0.39607027952692864" />
    <synapse sourceNeuronName = "7" targetNeuronName = "18" weight = "-0.734812400933524" />
    <synapse sourceNeuronName = "7" targetNeuronName = "19" weight = "-0.8089913164261726" />
    <synapse sourceNeuronName = "7" targetNeuronName = "20" weight = "0.4608490483524865" />
    <synapse sourceNeuronName = "8" targetNeuronName = "9" weight = "-0.2372620940456862" />
    <synapse sourceNeuronName = "8" targetNeuronName = "10" weight = "0.06728027402456571" />
    <synapse sourceNeuronName = "8" targetNeuronName = "11" weight = "0.05454099373043819" />
    <synapse sourceNeuronName = "8" targetNeuronName = "12" weight = "0.38262510008898176" />
    <synapse sourceNeuronName = "8" targetNeuronName = "13" weight = "-0.8136026234570359" />
    <synapse sourceNeuronName = "8" targetNeuronName = "14" weight = "0.6199086463867667" />
    <synapse sourceNeuronName = "8" targetNeuronName = "15" weight = "0.26440302065403554" />
    <synapse sourceNeuronName = "8" targetNeuronName = "16" weight = "0.2383206359003236" />
    <synapse sourceNeuronName = "8" targetNeuronName = "17" weight = "0.06784208687258086" />
    <synapse sourceNeuronName = "8" targetNeuronName = "18" weight = "-0.19014193634132281" />
    <synapse sourceNeuronName = "8" targetNeuronName = "19" weight = "-0.8730386351737058" />
    <synapse sourceNeuronName = "8" targetNeuronName = "20" weight = "0.3947830360289388" />
</neuralNetwork>