<neuralNetwork>
    <neuron name = "0" type = "sensor" linkName = "rootLink" />
    <neuron name = "1" type = "sensor" linkName = "link1NPP" />
    <neuron name = "2" type = "sensor" linkName = "link3NPP" />
    <neuron name = "3" type = "sensor" linkName = "link4NPP" />
    <neuron name = "4" type = "sensor" linkName = "link1NNP" />
    <neuron name = "5" type = "sensor" linkName = "link3NNP" />
    <neuron name = "6" type = "sensor" linkName = "link4NNP" />
    <neuron name = "7" type = "motor"  jointName = "rootLink_link1NPP" />
    <neuron name = "8" type = "motor"  jointName = "rootLink_link1NNP" />
    <neuron name = "9" type = "motor"  jointName = "link1NPP_link2NPP" />
    <neuron name = "10" type = "motor"  jointName = "link2NPP_link3NPP" />
    <neuron name = "11" type = "motor"  jointName = "link3NPP_link4NPP" />
    <neuron name = "12" type = "motor"  jointName = "link1NNP_link2NNP" />
    <neuron name = "13" type = "motor"  jointName = "link2NNP_link3NNP" />
    <neuron name = "14" type = "motor"  jointName = "link3NNP_link4NNP" />
    <synapse sourceNeuronName = "0" targetNeuronName = "7" weight = "0.9018126150088268" />
    <synapse sourceNeuronName = "0" targetNeuronName = "8" weight = "-0.2104800556963613" />
    <synapse sourceNeuronName = "0" targetNeuronName = "9" weight = "-0.19451558735397523" />
    <synapse sourceNeuronName = "0" targetNeuronName = "10" weight = "-0.8099850096830084" />
    <synapse sourceNeuronName = "0" targetNeuronName = "11" weight = "0.6449293916544874" />
    <synapse sourceNeuronName = "0" targetNeuronName = "12" weight = "-0.39799436680824574" />
    <synapse sourceNeuronName = "0" targetNeuronName = "13" weight = "0.19939809128100316" />
    <synapse sourceNeuronName = "0" targetNeuronName = "14" weight = "0.1920292926528111" />
    <synapse sourceNeuronName = "1" targetNeuronName = "7" weight = "-0.03289815028540022" />
    <synapse sourceNeuronName = "1" targetNeuronName = "8" weight = "-0.9442967170593277" />
    <synapse sourceNeuronName = "1" targetNeuronName = "9" weight = "-0.407469973195568" />
    <synapse sourceNeuronName = "1" targetNeuronName = "10" weight = "0.8161782944518645" />
    <synapse sourceNeuronName = "1" targetNeuronName = "11" weight = "0.07788607207176867" />
    <synapse sourceNeuronName = "1" targetNeuronName = "12" weight = "-0.7079062058524312" />
    <synapse sourceNeuronName = "1" targetNeuronName = "13" weight = "-0.6967963435655631" />
    <synapse sourceNeuronName = "1" targetNeuronName = "14" weight = "-0.18937918523621833" />
    <synapse sourceNeuronName = "2" targetNeuronName = "7" weight = "-0.7364446149334425" />
    <synapse sourceNeuronName = "2" targetNeuronName = "8" weight = "0.6141098596871373" />
    <synapse sourceNeuronName = "2" targetNeuronName = "9" weight = "-0.12271169495628365" />
    <synapse sourceNeuronName = "2" targetNeuronName = "10" weight = "-0.5960868048215358" />
    <synapse sourceNeuronName = "2" targetNeuronName = "11" weight = "-0.5820351531208674" />
    <synapse sourceNeuronName = "2" targetNeuronName = "12" weight = "-0.9359770163429919" />
    <synapse sourceNeuronName = "2" targetNeuronName = "13" weight = "0.4030490082214302" />
    <synapse sourceNeuronName = "2" targetNeuronName = "14" weight = "0.4055269529190204" />
    <synapse sourceNeuronName = "3" targetNeuronName = "7" weight = "0.5450961184079526" />
    <synapse sourceNeuronName = "3" targetNeuronName = "8" weight = "0.892076448575368" />
    <synapse sourceNeuronName = "3" targetNeuronName = "9" weight = "-0.023999222930634945" />
    <synapse sourceNeuronName = "3" targetNeuronName = "10" weight = "0.9025573259937105" />
    <synapse sourceNeuronName = "3" targetNeuronName = "11" weight = "-0.5572249134996152" />
    <synapse sourceNeuronName = "3" targetNeuronName = "12" weight = "0.7954503330540139" />
    <synapse sourceNeuronName = "3" targetNeuronName = "13" weight = "-0.8395761313235259" />
    <synapse sourceNeuronName = "3" targetNeuronName = "14" weight = "-0.9954669335961079" />
    <synapse sourceNeuronName = "4" targetNeuronName = "7" weight = "-0.8255878928602587" />
    <synapse sourceNeuronName = "4" targetNeuronName = "8" weight = "0.06253542600450279" />
    <synapse sourceNeuronName = "4" targetNeuronName = "9" weight = "-0.37580711759784746" />
    <synapse sourceNeuronName = "4" targetNeuronName = "10" weight = "0.5390379499583349" />
    <synapse sourceNeuronName = "4" targetNeuronName = "11" weight = "-0.16239241198192822" />
    <synapse sourceNeuronName = "4" targetNeuronName = "12" weight = "0.10613165792785462" />
    <synapse sourceNeuronName = "4" targetNeuronName = "13" weight = "-0.10285987220326942" />
    <synapse sourceNeuronName = "4" targetNeuronName = "14" weight = "-0.9216776520544534" />
    <synapse sourceNeuronName = "5" targetNeuronName = "7" weight = "-0.4786097276397443" />
    <synapse sourceNeuronName = "5" targetNeuronName = "8" weight = "-0.8980850653497192" />
    <synapse sourceNeuronName = "5" targetNeuronName = "9" weight = "-0.7944629164167443" />
    <synapse sourceNeuronName = "5" targetNeuronName = "10" weight = "0.670212687252997" />
    <synapse sourceNeuronName = "5" targetNeuronName = "11" weight = "0.5594470725312262" />
    <synapse sourceNeuronName = "5" targetNeuronName = "12" weight = "0.5106968902951554" />
    <synapse sourceNeuronName = "5" targetNeuronName = "13" weight = "0.7033431018596057" />
    <synapse sourceNeuronName = "5" targetNeuronName = "14" weight = "-0.45084471935593373" />
    <synapse sourceNeuronName = "6" targetNeuronName = "7" weight = "-0.2610443252804162" />
    <synapse sourceNeuronName = "6" targetNeuronName = "8" weight = "0.8179890611770289" />
    <synapse sourceNeuronName = "6" targetNeuronName = "9" weight = "-0.9825586532457471" />
    <synapse sourceNeuronName = "6" targetNeuronName = "10" weight = "-0.38540624045213234" />
    <synapse sourceNeuronName = "6" targetNeuronName = "11" weight = "-0.44889626395939586" />
    <synapse sourceNeuronName = "6" targetNeuronName = "12" weight = "0.20770477518066688" />
    <synapse sourceNeuronName = "6" targetNeuronName = "13" weight = "0.6296937157075335" />
    <synapse sourceNeuronName = "6" targetNeuronName = "14" weight = "-0.5199304764873014" />
</neuralNetwork>