<neuralNetwork>
    <neuron name = "0" type = "sensor" linkName = "rootLink" />
    <neuron name = "1" type = "sensor" linkName = "link1NPP" />
    <neuron name = "2" type = "sensor" linkName = "link2NPP" />
    <neuron name = "3" type = "sensor" linkName = "link3NPP" />
    <neuron name = "4" type = "sensor" linkName = "link1NNP" />
    <neuron name = "5" type = "sensor" linkName = "link2NNP" />
    <neuron name = "6" type = "sensor" linkName = "link3NNP" />
    <neuron name = "7" type = "motor"  jointName = "rootLink_link1NPP" />
    <neuron name = "8" type = "motor"  jointName = "rootLink_link1NNP" />
    <neuron name = "9" type = "motor"  jointName = "link1NPP_link2NPP" />
    <neuron name = "10" type = "motor"  jointName = "link2NPP_link3NPP" />
    <neuron name = "11" type = "motor"  jointName = "link3NPP_link4NPP" />
    <neuron name = "12" type = "motor"  jointName = "link1NNP_link2NNP" />
    <neuron name = "13" type = "motor"  jointName = "link2NNP_link3NNP" />
    <neuron name = "14" type = "motor"  jointName = "link3NNP_link4NNP" />
    <neuron name = "15" type = "hidden" />
    <neuron name = "16" type = "hidden" />
    <neuron name = "17" type = "hidden" />
    <neuron name = "18" type = "hidden" />
    <neuron name = "19" type = "hidden" />
    <neuron name = "20" type = "hidden" />
    <neuron name = "21" type = "hidden" />
    <neuron name = "22" type = "hidden" />
    <neuron name = "23" type = "hidden" />
    <neuron name = "24" type = "hidden" />
    <neuron name = "25" type = "hidden" />
    <neuron name = "26" type = "hidden" />
    <neuron name = "27" type = "hidden" />
    <neuron name = "28" type = "hidden" />
    <neuron name = "29" type = "hidden" />
    <neuron name = "30" type = "hidden" />
    <neuron name = "31" type = "hidden" />
    <neuron name = "32" type = "hidden" />
    <neuron name = "33" type = "hidden" />
    <neuron name = "34" type = "hidden" />
    <neuron name = "35" type = "hidden" />
    <synapse sourceNeuronName = "0" targetNeuronName = "15" weight = "-0.5504918328595514" />
    <synapse sourceNeuronName = "0" targetNeuronName = "16" weight = "0.4811862885891267" />
    <synapse sourceNeuronName = "0" targetNeuronName = "17" weight = "-0.5791126854653903" />
    <synapse sourceNeuronName = "0" targetNeuronName = "18" weight = "-0.6290292746674104" />
    <synapse sourceNeuronName = "0" targetNeuronName = "19" weight = "-0.4254973804491624" />
    <synapse sourceNeuronName = "0" targetNeuronName = "20" weight = "0.9780968623548827" />
    <synapse sourceNeuronName = "0" targetNeuronName = "21" weight = "0.9828757980177838" />
    <synapse sourceNeuronName = "1" targetNeuronName = "15" weight = "-0.040359580227530056" />
    <synapse sourceNeuronName = "1" targetNeuronName = "16" weight = "-0.5639772182824387" />
    <synapse sourceNeuronName = "1" targetNeuronName = "17" weight = "-0.11318940513774867" />
    <synapse sourceNeuronName = "1" targetNeuronName = "18" weight = "0.765865365927469" />
    <synapse sourceNeuronName = "1" targetNeuronName = "19" weight = "0.15931335593440799" />
    <synapse sourceNeuronName = "1" targetNeuronName = "20" weight = "0.8011872118915495" />
    <synapse sourceNeuronName = "1" targetNeuronName = "21" weight = "0.7606667047032662" />
    <synapse sourceNeuronName = "2" targetNeuronName = "15" weight = "0.6283330176352289" />
    <synapse sourceNeuronName = "2" targetNeuronName = "16" weight = "0.7678709282369658" />
    <synapse sourceNeuronName = "2" targetNeuronName = "17" weight = "0.025771225920069085" />
    <synapse sourceNeuronName = "2" targetNeuronName = "18" weight = "-0.6623769057551625" />
    <synapse sourceNeuronName = "2" targetNeuronName = "19" weight = "0.5589630278142037" />
    <synapse sourceNeuronName = "2" targetNeuronName = "20" weight = "0.9847292938479426" />
    <synapse sourceNeuronName = "2" targetNeuronName = "21" weight = "0.32458374756300934" />
    <synapse sourceNeuronName = "3" targetNeuronName = "15" weight = "-0.5057111917486317" />
    <synapse sourceNeuronName = "3" targetNeuronName = "16" weight = "0.8562484023591199" />
    <synapse sourceNeuronName = "3" targetNeuronName = "17" weight = "0.8474327716138816" />
    <synapse sourceNeuronName = "3" targetNeuronName = "18" weight = "0.848177106950021" />
    <synapse sourceNeuronName = "3" targetNeuronName = "19" weight = "0.32596518160645194" />
    <synapse sourceNeuronName = "3" targetNeuronName = "20" weight = "0.8766297507885841" />
    <synapse sourceNeuronName = "3" targetNeuronName = "21" weight = "-0.5344638792893952" />
    <synapse sourceNeuronName = "4" targetNeuronName = "15" weight = "0.1499855526240732" />
    <synapse sourceNeuronName = "4" targetNeuronName = "16" weight = "0.9868032315088169" />
    <synapse sourceNeuronName = "4" targetNeuronName = "17" weight = "0.989750850080481" />
    <synapse sourceNeuronName = "4" targetNeuronName = "18" weight = "0.6019891779002182" />
    <synapse sourceNeuronName = "4" targetNeuronName = "19" weight = "0.1739552945871503" />
    <synapse sourceNeuronName = "4" targetNeuronName = "20" weight = "0.2553485792199357" />
    <synapse sourceNeuronName = "4" targetNeuronName = "21" weight = "-0.2153557982692198" />
    <synapse sourceNeuronName = "5" targetNeuronName = "15" weight = "-0.5545658792549297" />
    <synapse sourceNeuronName = "5" targetNeuronName = "16" weight = "0.7930088153174273" />
    <synapse sourceNeuronName = "5" targetNeuronName = "17" weight = "0.17016102230524477" />
    <synapse sourceNeuronName = "5" targetNeuronName = "18" weight = "-0.2823229031785659" />
    <synapse sourceNeuronName = "5" targetNeuronName = "19" weight = "-0.34539459291175856" />
    <synapse sourceNeuronName = "5" targetNeuronName = "20" weight = "-0.6550923572862122" />
    <synapse sourceNeuronName = "5" targetNeuronName = "21" weight = "-0.6299052419325746" />
    <synapse sourceNeuronName = "6" targetNeuronName = "15" weight = "0.33529125380104907" />
    <synapse sourceNeuronName = "6" targetNeuronName = "16" weight = "-0.42730961906325104" />
    <synapse sourceNeuronName = "6" targetNeuronName = "17" weight = "-0.36627343942743007" />
    <synapse sourceNeuronName = "6" targetNeuronName = "18" weight = "0.6901777281499999" />
    <synapse sourceNeuronName = "6" targetNeuronName = "19" weight = "-0.8128421790253557" />
    <synapse sourceNeuronName = "6" targetNeuronName = "20" weight = "0.8982720639636417" />
    <synapse sourceNeuronName = "6" targetNeuronName = "21" weight = "-0.1699669527535077" />
    <synapse sourceNeuronName = "15" targetNeuronName = "22" weight = "0.6548982729246893" />
    <synapse sourceNeuronName = "15" targetNeuronName = "23" weight = "0.6478305253507364" />
    <synapse sourceNeuronName = "15" targetNeuronName = "24" weight = "0.3650369557320188" />
    <synapse sourceNeuronName = "15" targetNeuronName = "25" weight = "-0.8944189441677028" />
    <synapse sourceNeuronName = "15" targetNeuronName = "26" weight = "0.3094141104460697" />
    <synapse sourceNeuronName = "15" targetNeuronName = "27" weight = "-0.10687840160533835" />
    <synapse sourceNeuronName = "15" targetNeuronName = "28" weight = "-0.37911799661042167" />
    <synapse sourceNeuronName = "16" targetNeuronName = "22" weight = "0.03776221039215022" />
    <synapse sourceNeuronName = "16" targetNeuronName = "23" weight = "0.32914038239018195" />
    <synapse sourceNeuronName = "16" targetNeuronName = "24" weight = "-0.2197912690189212" />
    <synapse sourceNeuronName = "16" targetNeuronName = "25" weight = "-0.18231364696259766" />
    <synapse sourceNeuronName = "16" targetNeuronName = "26" weight = "-0.569184934707019" />
    <synapse sourceNeuronName = "16" targetNeuronName = "27" weight = "-0.6670451546019571" />
    <synapse sourceNeuronName = "16" targetNeuronName = "28" weight = "0.24551410109929916" />
    <synapse sourceNeuronName = "17" targetNeuronName = "22" weight = "0.9494493607284165" />
    <synapse sourceNeuronName = "17" targetNeuronName = "23" weight = "-0.8038009407990023" />
    <synapse sourceNeuronName = "17" targetNeuronName = "24" weight = "0.31388376671304474" />
    <synapse sourceNeuronName = "17" targetNeuronName = "25" weight = "0.19938847830972706" />
    <synapse sourceNeuronName = "17" targetNeuronName = "26" weight = "0.49529311329752845" />
    <synapse sourceNeuronName = "17" targetNeuronName = "27" weight = "-0.3617189449187901" />
    <synapse sourceNeuronName = "17" targetNeuronName = "28" weight = "-0.4767530709446153" />
    <synapse sourceNeuronName = "18" targetNeuronName = "22" weight = "-0.42576616681372115" />
    <synapse sourceNeuronName = "18" targetNeuronName = "23" weight = "0.6756311571450835" />
    <synapse sourceNeuronName = "18" targetNeuronName = "24" weight = "0.697648733076369" />
    <synapse sourceNeuronName = "18" targetNeuronName = "25" weight = "0.6255315493609841" />
    <synapse sourceNeuronName = "18" targetNeuronName = "26" weight = "-0.4427888524938359" />
    <synapse sourceNeuronName = "18" targetNeuronName = "27" weight = "-0.24431859222319496" />
    <synapse sourceNeuronName = "18" targetNeuronName = "28" weight = "-0.4194959439336232" />
    <synapse sourceNeuronName = "19" targetNeuronName = "22" weight = "0.3727386385198288" />
    <synapse sourceNeuronName = "19" targetNeuronName = "23" weight = "-0.5297769203716662" />
    <synapse sourceNeuronName = "19" targetNeuronName = "24" weight = "0.48607115237491816" />
    <synapse sourceNeuronName = "19" targetNeuronName = "25" weight = "0.5858898998375306" />
    <synapse sourceNeuronName = "19" targetNeuronName = "26" weight = "0.06670998741605993" />
    <synapse sourceNeuronName = "19" targetNeuronName = "27" weight = "-0.6509806955851594" />
    <synapse sourceNeuronName = "19" targetNeuronName = "28" weight = "-0.4749492715524988" />
    <synapse sourceNeuronName = "20" targetNeuronName = "22" weight = "0.13442479550972153" />
    <synapse sourceNeuronName = "20" targetNeuronName = "23" weight = "0.47029307517693675" />
    <synapse sourceNeuronName = "20" targetNeuronName = "24" weight = "-0.5983265330913525" />
    <synapse sourceNeuronName = "20" targetNeuronName = "25" weight = "0.2964208035165703" />
    <synapse sourceNeuronName = "20" targetNeuronName = "26" weight = "0.8171994381890872" />
    <synapse sourceNeuronName = "20" targetNeuronName = "27" weight = "0.4644532094744567" />
    <synapse sourceNeuronName = "20" targetNeuronName = "28" weight = "0.7768338492263736" />
    <synapse sourceNeuronName = "21" targetNeuronName = "22" weight = "0.9175514657133035" />
    <synapse sourceNeuronName = "21" targetNeuronName = "23" weight = "-0.4510351249904705" />
    <synapse sourceNeuronName = "21" targetNeuronName = "24" weight = "-0.5839197101844054" />
    <synapse sourceNeuronName = "21" targetNeuronName = "25" weight = "0.8012356795672322" />
    <synapse sourceNeuronName = "21" targetNeuronName = "26" weight = "-0.22096126383309111" />
    <synapse sourceNeuronName = "21" targetNeuronName = "27" weight = "-0.7841746436666064" />
    <synapse sourceNeuronName = "21" targetNeuronName = "28" weight = "0.2469693954312837" />
    <synapse sourceNeuronName = "22" targetNeuronName = "29" weight = "-0.04293241269815251" />
    <synapse sourceNeuronName = "22" targetNeuronName = "30" weight = "-0.6159290680601881" />
    <synapse sourceNeuronName = "22" targetNeuronName = "31" weight = "0.832359451460547" />
    <synapse sourceNeuronName = "22" targetNeuronName = "32" weight = "-0.04037186971850759" />
    <synapse sourceNeuronName = "22" targetNeuronName = "33" weight = "0.9823538714523143" />
    <synapse sourceNeuronName = "22" targetNeuronName = "34" weight = "-0.4373938266086259" />
    <synapse sourceNeuronName = "22" targetNeuronName = "35" weight = "-0.8807383726801905" />
    <synapse sourceNeuronName = "23" targetNeuronName = "29" weight = "0.8152853273031848" />
    <synapse sourceNeuronName = "23" targetNeuronName = "30" weight = "-0.4075145540469898" />
    <synapse sourceNeuronName = "23" targetNeuronName = "31" weight = "0.8476072928003695" />
    <synapse sourceNeuronName = "23" targetNeuronName = "32" weight = "-0.030770895366174056" />
    <synapse sourceNeuronName = "23" targetNeuronName = "33" weight = "0.386685505077341" />
    <synapse sourceNeuronName = "23" targetNeuronName = "34" weight = "-0.7675270455647194" />
    <synapse sourceNeuronName = "23" targetNeuronName = "35" weight = "-0.47078775814917484" />
    <synapse sourceNeuronName = "24" targetNeuronName = "29" weight = "0.35776581152645837" />
    <synapse sourceNeuronName = "24" targetNeuronName = "30" weight = "0.9045534924749354" />
    <synapse sourceNeuronName = "24" targetNeuronName = "31" weight = "0.6400046757608415" />
    <synapse sourceNeuronName = "24" targetNeuronName = "32" weight = "0.809051308529146" />
    <synapse sourceNeuronName = "24" targetNeuronName = "33" weight = "0.5493825183665095" />
    <synapse sourceNeuronName = "24" targetNeuronName = "34" weight = "0.9440446376481484" />
    <synapse sourceNeuronName = "24" targetNeuronName = "35" weight = "-0.5238619774920861" />
    <synapse sourceNeuronName = "25" targetNeuronName = "29" weight = "-0.7552467877389852" />
    <synapse sourceNeuronName = "25" targetNeuronName = "30" weight = "-0.5189594689543764" />
    <synapse sourceNeuronName = "25" targetNeuronName = "31" weight = "0.16016376395032728" />
    <synapse sourceNeuronName = "25" targetNeuronName = "32" weight = "-0.2586036611436926" />
    <synapse sourceNeuronName = "25" targetNeuronName = "33" weight = "-0.9296692185302569" />
    <synapse sourceNeuronName = "25" targetNeuronName = "34" weight = "-0.7506124804387195" />
    <synapse sourceNeuronName = "25" targetNeuronName = "35" weight = "-0.43762875033644066" />
    <synapse sourceNeuronName = "26" targetNeuronName = "29" weight = "-0.32915508594553367" />
    <synapse sourceNeuronName = "26" targetNeuronName = "30" weight = "-0.36489135539246975" />
    <synapse sourceNeuronName = "26" targetNeuronName = "31" weight = "0.13102125998939163" />
    <synapse sourceNeuronName = "26" targetNeuronName = "32" weight = "0.310868040698004" />
    <synapse sourceNeuronName = "26" targetNeuronName = "33" weight = "0.6896292448298971" />
    <synapse sourceNeuronName = "26" targetNeuronName = "34" weight = "-0.24020330947575363" />
    <synapse sourceNeuronName = "26" targetNeuronName = "35" weight = "0.8759900709408046" />
    <synapse sourceNeuronName = "27" targetNeuronName = "29" weight = "-0.2378659398590639" />
    <synapse sourceNeuronName = "27" targetNeuronName = "30" weight = "-0.15330948883692308" />
    <synapse sourceNeuronName = "27" targetNeuronName = "31" weight = "-0.17147671522045949" />
    <synapse sourceNeuronName = "27" targetNeuronName = "32" weight = "0.5293233022228334" />
    <synapse sourceNeuronName = "27" targetNeuronName = "33" weight = "0.4755818267568077" />
    <synapse sourceNeuronName = "27" targetNeuronName = "34" weight = "-0.15530903148318287" />
    <synapse sourceNeuronName = "27" targetNeuronName = "35" weight = "-0.31472016095651645" />
    <synapse sourceNeuronName = "28" targetNeuronName = "29" weight = "-0.8350788004643153" />
    <synapse sourceNeuronName = "28" targetNeuronName = "30" weight = "-0.4923924516782938" />
    <synapse sourceNeuronName = "28" targetNeuronName = "31" weight = "-0.8489484898668158" />
    <synapse sourceNeuronName = "28" targetNeuronName = "32" weight = "-0.33480892313616506" />
    <synapse sourceNeuronName = "28" targetNeuronName = "33" weight = "-0.6212172385970589" />
    <synapse sourceNeuronName = "28" targetNeuronName = "34" weight = "0.2916130235379779" />
    <synapse sourceNeuronName = "28" targetNeuronName = "35" weight = "0.4925354476392583" />
    <synapse sourceNeuronName = "29" targetNeuronName = "7" weight = "-0.02297492904050369" />
    <synapse sourceNeuronName = "29" targetNeuronName = "8" weight = "-0.03492373644641389" />
    <synapse sourceNeuronName = "29" targetNeuronName = "9" weight = "-0.3108812817044726" />
    <synapse sourceNeuronName = "29" targetNeuronName = "10" weight = "0.9182602035892999" />
    <synapse sourceNeuronName = "29" targetNeuronName = "11" weight = "0.9867335182360055" />
    <synapse sourceNeuronName = "29" targetNeuronName = "12" weight = "0.2846163439448912" />
    <synapse sourceNeuronName = "29" targetNeuronName = "13" weight = "0.6924196382121202" />
    <synapse sourceNeuronName = "29" targetNeuronName = "14" weight = "-0.2487001873713135" />
    <synapse sourceNeuronName = "30" targetNeuronName = "7" weight = "0.17567000993122095" />
    <synapse sourceNeuronName = "30" targetNeuronName = "8" weight = "-0.26128953930696297" />
    <synapse sourceNeuronName = "30" targetNeuronName = "9" weight = "0.8980707178319813" />
    <synapse sourceNeuronName = "30" targetNeuronName = "10" weight = "0.21549352260092625" />
    <synapse sourceNeuronName = "30" targetNeuronName = "11" weight = "0.7882240287782636" />
    <synapse sourceNeuronName = "30" targetNeuronName = "12" weight = "0.2360272301709958" />
    <synapse sourceNeuronName = "30" targetNeuronName = "13" weight = "-0.830460945260671" />
    <synapse sourceNeuronName = "30" targetNeuronName = "14" weight = "-0.3833798017526666" />
    <synapse sourceNeuronName = "31" targetNeuronName = "7" weight = "0.18622507558671342" />
    <synapse sourceNeuronName = "31" targetNeuronName = "8" weight = "0.8312156785891447" />
    <synapse sourceNeuronName = "31" targetNeuronName = "9" weight = "0.31349773005944925" />
    <synapse sourceNeuronName = "31" targetNeuronName = "10" weight = "-0.2913548193185673" />
    <synapse sourceNeuronName = "31" targetNeuronName = "11" weight = "0.3157302282048169" />
    <synapse sourceNeuronName = "31" targetNeuronName = "12" weight = "0.26520390390893134" />
    <synapse sourceNeuronName = "31" targetNeuronName = "13" weight = "0.9441157158451601" />
    <synapse sourceNeuronName = "31" targetNeuronName = "14" weight = "0.21465379147715913" />
    <synapse sourceNeuronName = "32" targetNeuronName = "7" weight = "-0.9838521496157677" />
    <synapse sourceNeuronName = "32" targetNeuronName = "8" weight = "0.9741963264858582" />
    <synapse sourceNeuronName = "32" targetNeuronName = "9" weight = "-0.7085519690290327" />
    <synapse sourceNeuronName = "32" targetNeuronName = "10" weight = "-0.27789315383516966" />
    <synapse sourceNeuronName = "32" targetNeuronName = "11" weight = "0.9293074950603262" />
    <synapse sourceNeuronName = "32" targetNeuronName = "12" weight = "0.3447067612671797" />
    <synapse sourceNeuronName = "32" targetNeuronName = "13" weight = "0.3648016253171542" />
    <synapse sourceNeuronName = "32" targetNeuronName = "14" weight = "-0.1321403114457571" />
    <synapse sourceNeuronName = "33" targetNeuronName = "7" weight = "-0.19860391748012174" />
    <synapse sourceNeuronName = "33" targetNeuronName = "8" weight = "-0.3936089853200553" />
    <synapse sourceNeuronName = "33" targetNeuronName = "9" weight = "0.5224970438593313" />
    <synapse sourceNeuronName = "33" targetNeuronName = "10" weight = "-0.2716759670184683" />
    <synapse sourceNeuronName = "33" targetNeuronName = "11" weight = "-0.7518886766040287" />
    <synapse sourceNeuronName = "33" targetNeuronName = "12" weight = "-0.5937357608620895" />
    <synapse sourceNeuronName = "33" targetNeuronName = "13" weight = "-0.712187259282349" />
    <synapse sourceNeuronName = "33" targetNeuronName = "14" weight = "0.7953246794338036" />
    <synapse sourceNeuronName = "34" targetNeuronName = "7" weight = "-0.4641481542865664" />
    <synapse sourceNeuronName = "34" targetNeuronName = "8" weight = "-0.5376084558658887" />
    <synapse sourceNeuronName = "34" targetNeuronName = "9" weight = "0.31015496093294925" />
    <synapse sourceNeuronName = "34" targetNeuronName = "10" weight = "-0.3984436219577092" />
    <synapse sourceNeuronName = "34" targetNeuronName = "11" weight = "0.6076623882922305" />
    <synapse sourceNeuronName = "34" targetNeuronName = "12" weight = "0.37372443292835555" />
    <synapse sourceNeuronName = "34" targetNeuronName = "13" weight = "0.17893694792099724" />
    <synapse sourceNeuronName = "34" targetNeuronName = "14" weight = "-0.04718334808910196" />
    <synapse sourceNeuronName = "35" targetNeuronName = "7" weight = "-0.24706751770455382" />
    <synapse sourceNeuronName = "35" targetNeuronName = "8" weight = "-0.11804885085181582" />
    <synapse sourceNeuronName = "35" targetNeuronName = "9" weight = "0.41400478101025495" />
    <synapse sourceNeuronName = "35" targetNeuronName = "10" weight = "-0.8819678316230628" />
    <synapse sourceNeuronName = "35" targetNeuronName = "11" weight = "-0.5369901987590073" />
    <synapse sourceNeuronName = "35" targetNeuronName = "12" weight = "0.39918936253341264" />
    <synapse sourceNeuronName = "35" targetNeuronName = "13" weight = "0.41769916740845936" />
    <synapse sourceNeuronName = "35" targetNeuronName = "14" weight = "0.14450882068453197" />
</neuralNetwork>