<neuralNetwork>
    <neuron name = "0" type = "sensor" linkName = "rootLink" />
    <neuron name = "1" type = "sensor" linkName = "link2NPP" />
    <neuron name = "2" type = "sensor" linkName = "link2NNP" />
    <neuron name = "3" type = "motor"  jointName = "rootLink_link1NPP" />
    <neuron name = "4" type = "motor"  jointName = "rootLink_link1NNP" />
    <neuron name = "5" type = "motor"  jointName = "link1NPP_link2NPP" />
    <neuron name = "6" type = "motor"  jointName = "link1NNP_link2NNP" />
    <neuron name = "7" type = "hidden" />
    <neuron name = "8" type = "hidden" />
    <neuron name = "9" type = "hidden" />
    <neuron name = "10" type = "hidden" />
    <neuron name = "11" type = "hidden" />
    <neuron name = "12" type = "hidden" />
    <neuron name = "13" type = "hidden" />
    <neuron name = "14" type = "hidden" />
    <neuron name = "15" type = "hidden" />
    <synapse sourceNeuronName = "0" targetNeuronName = "7" weight = "-0.5917131447730692" />
    <synapse sourceNeuronName = "0" targetNeuronName = "8" weight = "-0.05258143966560658" />
    <synapse sourceNeuronName = "0" targetNeuronName = "9" weight = "-0.3780531128471458" />
    <synapse sourceNeuronName = "1" targetNeuronName = "7" weight = "0.4487449049585668" />
    <synapse sourceNeuronName = "1" targetNeuronName = "8" weight = "0.35593610918814544" />
    <synapse sourceNeuronName = "1" targetNeuronName = "9" weight = "-0.28478588769189095" />
    <synapse sourceNeuronName = "2" targetNeuronName = "7" weight = "0.5136328734145377" />
    <synapse sourceNeuronName = "2" targetNeuronName = "8" weight = "-0.5286207446251572" />
    <synapse sourceNeuronName = "2" targetNeuronName = "9" weight = "0.05086681908007007" />
    <synapse sourceNeuronName = "7" targetNeuronName = "10" weight = "0.02299642492185594" />
    <synapse sourceNeuronName = "7" targetNeuronName = "11" weight = "0.8806496588030401" />
    <synapse sourceNeuronName = "7" targetNeuronName = "12" weight = "-0.5953137136097195" />
    <synapse sourceNeuronName = "8" targetNeuronName = "10" weight = "-0.9768088908571215" />
    <synapse sourceNeuronName = "8" targetNeuronName = "11" weight = "-0.440028959080228" />
    <synapse sourceNeuronName = "8" targetNeuronName = "12" weight = "0.30261063752987605" />
    <synapse sourceNeuronName = "9" targetNeuronName = "10" weight = "-0.9347166428104781" />
    <synapse sourceNeuronName = "9" targetNeuronName = "11" weight = "0.5451448154252774" />
    <synapse sourceNeuronName = "9" targetNeuronName = "12" weight = "0.03127441697401623" />
    <synapse sourceNeuronName = "10" targetNeuronName = "13" weight = "0.633130596433064" />
    <synapse sourceNeuronName = "10" targetNeuronName = "14" weight = "0.27290180326586566" />
    <synapse sourceNeuronName = "10" targetNeuronName = "15" weight = "-0.4782010385417794" />
    <synapse sourceNeuronName = "11" targetNeuronName = "13" weight = "0.0391311593418473" />
    <synapse sourceNeuronName = "11" targetNeuronName = "14" weight = "0.2949767509430683" />
    <synapse sourceNeuronName = "11" targetNeuronName = "15" weight = "-0.5094753797468934" />
    <synapse sourceNeuronName = "12" targetNeuronName = "13" weight = "0.08706130534443246" />
    <synapse sourceNeuronName = "12" targetNeuronName = "14" weight = "0.7545766926616981" />
    <synapse sourceNeuronName = "12" targetNeuronName = "15" weight = "-0.1605581301452772" />
    <synapse sourceNeuronName = "13" targetNeuronName = "3" weight = "-0.48129081001519447" />
    <synapse sourceNeuronName = "13" targetNeuronName = "4" weight = "0.8486439882929004" />
    <synapse sourceNeuronName = "13" targetNeuronName = "5" weight = "0.32646558441764384" />
    <synapse sourceNeuronName = "13" targetNeuronName = "6" weight = "-0.11993151556130432" />
    <synapse sourceNeuronName = "14" targetNeuronName = "3" weight = "0.7367823236026319" />
    <synapse sourceNeuronName = "14" targetNeuronName = "4" weight = "-0.6834595221949182" />
    <synapse sourceNeuronName = "14" targetNeuronName = "5" weight = "-0.9761664862781854" />
    <synapse sourceNeuronName = "14" targetNeuronName = "6" weight = "0.4708707007734205" />
    <synapse sourceNeuronName = "15" targetNeuronName = "3" weight = "-0.4406211053845912" />
    <synapse sourceNeuronName = "15" targetNeuronName = "4" weight = "-0.1450616252029724" />
    <synapse sourceNeuronName = "15" targetNeuronName = "5" weight = "-0.7787902466356178" />
    <synapse sourceNeuronName = "15" targetNeuronName = "6" weight = "0.5663924717764182" />
</neuralNetwork>