<neuralNetwork>
    <neuron name = "0" type = "sensor" linkName = "rootLink" />
    <neuron name = "1" type = "sensor" linkName = "link1NPP" />
    <neuron name = "2" type = "sensor" linkName = "link2NPP" />
    <neuron name = "3" type = "sensor" linkName = "link3NPP" />
    <neuron name = "4" type = "sensor" linkName = "link1NNP" />
    <neuron name = "5" type = "sensor" linkName = "link2NNP" />
    <neuron name = "6" type = "sensor" linkName = "link3NNP" />
    <neuron name = "7" type = "motor"  jointName = "rootLink_link1NPP" />
    <neuron name = "8" type = "motor"  jointName = "rootLink_link1NNP" />
    <neuron name = "9" type = "motor"  jointName = "link1NPP_link2NPP" />
    <neuron name = "10" type = "motor"  jointName = "link2NPP_link3NPP" />
    <neuron name = "11" type = "motor"  jointName = "link3NPP_link4NPP" />
    <neuron name = "12" type = "motor"  jointName = "link1NNP_link2NNP" />
    <neuron name = "13" type = "motor"  jointName = "link2NNP_link3NNP" />
    <neuron name = "14" type = "motor"  jointName = "link3NNP_link4NNP" />
    <synapse sourceNeuronName = "0" targetNeuronName = "7" weight = "-0.36863847690203366" />
    <synapse sourceNeuronName = "0" targetNeuronName = "8" weight = "0.171052667335718" />
    <synapse sourceNeuronName = "0" targetNeuronName = "9" weight = "0.1636545796836788" />
    <synapse sourceNeuronName = "0" targetNeuronName = "10" weight = "0.6624990057062088" />
    <synapse sourceNeuronName = "0" targetNeuronName = "11" weight = "-0.21610123282170401" />
    <synapse sourceNeuronName = "0" targetNeuronName = "12" weight = "-0.7007545223261058" />
    <synapse sourceNeuronName = "0" targetNeuronName = "13" weight = "-0.920518397307452" />
    <synapse sourceNeuronName = "0" targetNeuronName = "14" weight = "-0.603973023652514" />
    <synapse sourceNeuronName = "1" targetNeuronName = "7" weight = "0.8684364608858754" />
    <synapse sourceNeuronName = "1" targetNeuronName = "8" weight = "-0.9255617719791356" />
    <synapse sourceNeuronName = "1" targetNeuronName = "9" weight = "0.27652403852349394" />
    <synapse sourceNeuronName = "1" targetNeuronName = "10" weight = "-0.127071964399321" />
    <synapse sourceNeuronName = "1" targetNeuronName = "11" weight = "-0.6259023141173181" />
    <synapse sourceNeuronName = "1" targetNeuronName = "12" weight = "0.3473867487576694" />
    <synapse sourceNeuronName = "1" targetNeuronName = "13" weight = "0.189647779385679" />
    <synapse sourceNeuronName = "1" targetNeuronName = "14" weight = "-0.8663081686838798" />
    <synapse sourceNeuronName = "2" targetNeuronName = "7" weight = "0.32782193767381496" />
    <synapse sourceNeuronName = "2" targetNeuronName = "8" weight = "-0.8471995327807971" />
    <synapse sourceNeuronName = "2" targetNeuronName = "9" weight = "-0.5525248683073296" />
    <synapse sourceNeuronName = "2" targetNeuronName = "10" weight = "0.13926260178094507" />
    <synapse sourceNeuronName = "2" targetNeuronName = "11" weight = "0.4326436156602247" />
    <synapse sourceNeuronName = "2" targetNeuronName = "12" weight = "0.15663312539546648" />
    <synapse sourceNeuronName = "2" targetNeuronName = "13" weight = "0.7953363412677823" />
    <synapse sourceNeuronName = "2" targetNeuronName = "14" weight = "0.4007550253738412" />
    <synapse sourceNeuronName = "3" targetNeuronName = "7" weight = "0.9400466746014113" />
    <synapse sourceNeuronName = "3" targetNeuronName = "8" weight = "-0.4513435138991855" />
    <synapse sourceNeuronName = "3" targetNeuronName = "9" weight = "0.9696596837794278" />
    <synapse sourceNeuronName = "3" targetNeuronName = "10" weight = "-0.610881167395662" />
    <synapse sourceNeuronName = "3" targetNeuronName = "11" weight = "-0.6147073163475234" />
    <synapse sourceNeuronName = "3" targetNeuronName = "12" weight = "-0.6204393875954279" />
    <synapse sourceNeuronName = "3" targetNeuronName = "13" weight = "-0.7638876069376717" />
    <synapse sourceNeuronName = "3" targetNeuronName = "14" weight = "0.25108276342094826" />
    <synapse sourceNeuronName = "4" targetNeuronName = "7" weight = "-0.9909437493013711" />
    <synapse sourceNeuronName = "4" targetNeuronName = "8" weight = "0.6151428380595896" />
    <synapse sourceNeuronName = "4" targetNeuronName = "9" weight = "0.1980807290046933" />
    <synapse sourceNeuronName = "4" targetNeuronName = "10" weight = "-0.39426582785181985" />
    <synapse sourceNeuronName = "4" targetNeuronName = "11" weight = "0.7817231246356127" />
    <synapse sourceNeuronName = "4" targetNeuronName = "12" weight = "0.6856506748720452" />
    <synapse sourceNeuronName = "4" targetNeuronName = "13" weight = "0.2634403244419665" />
    <synapse sourceNeuronName = "4" targetNeuronName = "14" weight = "-0.8486985869540125" />
    <synapse sourceNeuronName = "5" targetNeuronName = "7" weight = "0.9296730654152594" />
    <synapse sourceNeuronName = "5" targetNeuronName = "8" weight = "0.23727028201432465" />
    <synapse sourceNeuronName = "5" targetNeuronName = "9" weight = "0.7879656101938177" />
    <synapse sourceNeuronName = "5" targetNeuronName = "10" weight = "-0.6740307791301128" />
    <synapse sourceNeuronName = "5" targetNeuronName = "11" weight = "-0.9456581444253915" />
    <synapse sourceNeuronName = "5" targetNeuronName = "12" weight = "-0.40158256855834007" />
    <synapse sourceNeuronName = "5" targetNeuronName = "13" weight = "0.5674028290530122" />
    <synapse sourceNeuronName = "5" targetNeuronName = "14" weight = "0.6467421956051418" />
    <synapse sourceNeuronName = "6" targetNeuronName = "7" weight = "0.7788907213466958" />
    <synapse sourceNeuronName = "6" targetNeuronName = "8" weight = "-0.29486711024454637" />
    <synapse sourceNeuronName = "6" targetNeuronName = "9" weight = "0.6362188434993017" />
    <synapse sourceNeuronName = "6" targetNeuronName = "10" weight = "-0.6899583998085856" />
    <synapse sourceNeuronName = "6" targetNeuronName = "11" weight = "0.09914553940795123" />
    <synapse sourceNeuronName = "6" targetNeuronName = "12" weight = "-0.8987158406040636" />
    <synapse sourceNeuronName = "6" targetNeuronName = "13" weight = "0.44001840394221814" />
    <synapse sourceNeuronName = "6" targetNeuronName = "14" weight = "-0.2759807915813681" />
</neuralNetwork>