<neuralNetwork>
    <neuron name = "0" type = "sensor" linkName = "rootLink" />
    <neuron name = "1" type = "sensor" linkName = "link1NPP" />
    <neuron name = "2" type = "sensor" linkName = "link2NPP" />
    <neuron name = "3" type = "sensor" linkName = "link1NNP" />
    <neuron name = "4" type = "sensor" linkName = "link2NNP" />
    <neuron name = "5" type = "motor"  jointName = "rootLink_link1NPP" />
    <neuron name = "6" type = "motor"  jointName = "rootLink_link1NNP" />
    <neuron name = "7" type = "motor"  jointName = "link1NPP_link2NPP" />
    <neuron name = "8" type = "motor"  jointName = "link2NPP_link3NPP" />
    <neuron name = "9" type = "motor"  jointName = "link1NNP_link2NNP" />
    <neuron name = "10" type = "motor"  jointName = "link2NNP_link3NNP" />
    <synapse sourceNeuronName = "0" targetNeuronName = "5" weight = "-0.5983153124491092" />
    <synapse sourceNeuronName = "0" targetNeuronName = "6" weight = "-0.22333163577048176" />
    <synapse sourceNeuronName = "0" targetNeuronName = "7" weight = "0.8518031930169985" />
    <synapse sourceNeuronName = "0" targetNeuronName = "8" weight = "0.14054841950143815" />
    <synapse sourceNeuronName = "0" targetNeuronName = "9" weight = "0.833429223915765" />
    <synapse sourceNeuronName = "0" targetNeuronName = "10" weight = "0.4045284816394499" />
    <synapse sourceNeuronName = "1" targetNeuronName = "5" weight = "0.0024329033741739003" />
    <synapse sourceNeuronName = "1" targetNeuronName = "6" weight = "0.012173667025277668" />
    <synapse sourceNeuronName = "1" targetNeuronName = "7" weight = "-0.5623584273412545" />
    <synapse sourceNeuronName = "1" targetNeuronName = "8" weight = "-0.9906729545299002" />
    <synapse sourceNeuronName = "1" targetNeuronName = "9" weight = "-0.1643275119945684" />
    <synapse sourceNeuronName = "1" targetNeuronName = "10" weight = "0.12675222067807024" />
    <synapse sourceNeuronName = "2" targetNeuronName = "5" weight = "0.7531237368466541" />
    <synapse sourceNeuronName = "2" targetNeuronName = "6" weight = "0.35516968045581887" />
    <synapse sourceNeuronName = "2" targetNeuronName = "7" weight = "0.6846660922069425" />
    <synapse sourceNeuronName = "2" targetNeuronName = "8" weight = "0.8523225738498399" />
    <synapse sourceNeuronName = "2" targetNeuronName = "9" weight = "0.8822317472672445" />
    <synapse sourceNeuronName = "2" targetNeuronName = "10" weight = "0.632038303848788" />
    <synapse sourceNeuronName = "3" targetNeuronName = "5" weight = "-0.7372107890411124" />
    <synapse sourceNeuronName = "3" targetNeuronName = "6" weight = "-0.30673997001947195" />
    <synapse sourceNeuronName = "3" targetNeuronName = "7" weight = "-0.582995010948955" />
    <synapse sourceNeuronName = "3" targetNeuronName = "8" weight = "0.7347630743130469" />
    <synapse sourceNeuronName = "3" targetNeuronName = "9" weight = "0.5846604386125158" />
    <synapse sourceNeuronName = "3" targetNeuronName = "10" weight = "-0.30199671863228117" />
    <synapse sourceNeuronName = "4" targetNeuronName = "5" weight = "0.13828106411127083" />
    <synapse sourceNeuronName = "4" targetNeuronName = "6" weight = "0.6102630805114031" />
    <synapse sourceNeuronName = "4" targetNeuronName = "7" weight = "0.6663224894679525" />
    <synapse sourceNeuronName = "4" targetNeuronName = "8" weight = "-0.588412646099856" />
    <synapse sourceNeuronName = "4" targetNeuronName = "9" weight = "0.4613604010522312" />
    <synapse sourceNeuronName = "4" targetNeuronName = "10" weight = "0.606828328318898" />
</neuralNetwork>