<neuralNetwork>
    <neuron name = "0" type = "sensor" linkName = "rootLink" />
    <neuron name = "1" type = "sensor" linkName = "link1NPP" />
    <neuron name = "2" type = "sensor" linkName = "link1NNP" />
    <neuron name = "3" type = "motor"  jointName = "rootLink_link1NPP" />
    <neuron name = "4" type = "motor"  jointName = "rootLink_link1NNP" />
    <neuron name = "5" type = "motor"  jointName = "link1NPP_link2NPP" />
    <neuron name = "6" type = "motor"  jointName = "link2NPP_link3NPP" />
    <neuron name = "7" type = "motor"  jointName = "link1NNP_link2NNP" />
    <neuron name = "8" type = "motor"  jointName = "link2NNP_link3NNP" />
    <neuron name = "9" type = "hidden" />
    <neuron name = "10" type = "hidden" />
    <neuron name = "11" type = "hidden" />
    <neuron name = "12" type = "hidden" />
    <neuron name = "13" type = "hidden" />
    <neuron name = "14" type = "hidden" />
    <synapse sourceNeuronName = "0" targetNeuronName = "9" weight = "0.5110301585454864" />
    <synapse sourceNeuronName = "0" targetNeuronName = "10" weight = "-0.5077590346294583" />
    <synapse sourceNeuronName = "0" targetNeuronName = "11" weight = "-0.704903224498594" />
    <synapse sourceNeuronName = "1" targetNeuronName = "9" weight = "0.07267548233115906" />
    <synapse sourceNeuronName = "1" targetNeuronName = "10" weight = "-0.0491734453417334" />
    <synapse sourceNeuronName = "1" targetNeuronName = "11" weight = "-0.639019330406152" />
    <synapse sourceNeuronName = "2" targetNeuronName = "9" weight = "-0.21384843818292798" />
    <synapse sourceNeuronName = "2" targetNeuronName = "10" weight = "0.46211775624386453" />
    <synapse sourceNeuronName = "2" targetNeuronName = "11" weight = "-0.3345420934076979" />
    <synapse sourceNeuronName = "9" targetNeuronName = "12" weight = "-0.07783033055188904" />
    <synapse sourceNeuronName = "9" targetNeuronName = "13" weight = "0.6442923456791159" />
    <synapse sourceNeuronName = "9" targetNeuronName = "14" weight = "-0.804102504963571" />
    <synapse sourceNeuronName = "10" targetNeuronName = "12" weight = "0.07417203328340083" />
    <synapse sourceNeuronName = "10" targetNeuronName = "13" weight = "0.8130559504810908" />
    <synapse sourceNeuronName = "10" targetNeuronName = "14" weight = "0.07270426494255555" />
    <synapse sourceNeuronName = "11" targetNeuronName = "12" weight = "0.6114566869729594" />
    <synapse sourceNeuronName = "11" targetNeuronName = "13" weight = "0.08464861356183984" />
    <synapse sourceNeuronName = "11" targetNeuronName = "14" weight = "-0.04466529858129564" />
    <synapse sourceNeuronName = "12" targetNeuronName = "3" weight = "0.6651768900294448" />
    <synapse sourceNeuronName = "12" targetNeuronName = "4" weight = "0.5579677559628295" />
    <synapse sourceNeuronName = "12" targetNeuronName = "5" weight = "0.14507827763076464" />
    <synapse sourceNeuronName = "12" targetNeuronName = "6" weight = "0.696185327237536" />
    <synapse sourceNeuronName = "12" targetNeuronName = "7" weight = "0.3635832049889858" />
    <synapse sourceNeuronName = "12" targetNeuronName = "8" weight = "-0.9551238283095578" />
    <synapse sourceNeuronName = "13" targetNeuronName = "3" weight = "-0.3919923792921651" />
    <synapse sourceNeuronName = "13" targetNeuronName = "4" weight = "0.7805167161072202" />
    <synapse sourceNeuronName = "13" targetNeuronName = "5" weight = "-0.48620412434578775" />
    <synapse sourceNeuronName = "13" targetNeuronName = "6" weight = "-0.7106123760808958" />
    <synapse sourceNeuronName = "13" targetNeuronName = "7" weight = "0.4520218943915475" />
    <synapse sourceNeuronName = "13" targetNeuronName = "8" weight = "-0.8775672229449469" />
    <synapse sourceNeuronName = "14" targetNeuronName = "3" weight = "-0.5916923657726034" />
    <synapse sourceNeuronName = "14" targetNeuronName = "4" weight = "0.11779810556876069" />
    <synapse sourceNeuronName = "14" targetNeuronName = "5" weight = "0.24522308542375781" />
    <synapse sourceNeuronName = "14" targetNeuronName = "6" weight = "0.6758737360442844" />
    <synapse sourceNeuronName = "14" targetNeuronName = "7" weight = "-0.684882485581624" />
    <synapse sourceNeuronName = "14" targetNeuronName = "8" weight = "-0.08339091414779509" />
</neuralNetwork>