<neuralNetwork>
    <neuron name = "0" type = "sensor" linkName = "rootLink" />
    <neuron name = "1" type = "sensor" linkName = "link3NPP" />
    <neuron name = "2" type = "sensor" linkName = "link4NPP" />
    <neuron name = "3" type = "sensor" linkName = "link5NPP" />
    <neuron name = "4" type = "sensor" linkName = "link6NPP" />
    <neuron name = "5" type = "sensor" linkName = "link3NNP" />
    <neuron name = "6" type = "sensor" linkName = "link4NNP" />
    <neuron name = "7" type = "sensor" linkName = "link5NNP" />
    <neuron name = "8" type = "sensor" linkName = "link6NNP" />
    <neuron name = "9" type = "motor"  jointName = "rootLink_link1NPP" />
    <neuron name = "10" type = "motor"  jointName = "rootLink_link1NNP" />
    <neuron name = "11" type = "motor"  jointName = "link1NPP_link2NPP" />
    <neuron name = "12" type = "motor"  jointName = "link2NPP_link3NPP" />
    <neuron name = "13" type = "motor"  jointName = "link3NPP_link4NPP" />
    <neuron name = "14" type = "motor"  jointName = "link4NPP_link5NPP" />
    <neuron name = "15" type = "motor"  jointName = "link5NPP_link6NPP" />
    <neuron name = "16" type = "motor"  jointName = "link6NPP_link7NPP" />
    <neuron name = "17" type = "motor"  jointName = "link7NPP_link8NPP" />
    <neuron name = "18" type = "motor"  jointName = "link1NNP_link2NNP" />
    <neuron name = "19" type = "motor"  jointName = "link2NNP_link3NNP" />
    <neuron name = "20" type = "motor"  jointName = "link3NNP_link4NNP" />
    <neuron name = "21" type = "motor"  jointName = "link4NNP_link5NNP" />
    <neuron name = "22" type = "motor"  jointName = "link5NNP_link6NNP" />
    <neuron name = "23" type = "motor"  jointName = "link6NNP_link7NNP" />
    <neuron name = "24" type = "motor"  jointName = "link7NNP_link8NNP" />
    <neuron name = "25" type = "hidden" />
    <neuron name = "26" type = "hidden" />
    <neuron name = "27" type = "hidden" />
    <neuron name = "28" type = "hidden" />
    <neuron name = "29" type = "hidden" />
    <neuron name = "30" type = "hidden" />
    <neuron name = "31" type = "hidden" />
    <neuron name = "32" type = "hidden" />
    <neuron name = "33" type = "hidden" />
    <neuron name = "34" type = "hidden" />
    <neuron name = "35" type = "hidden" />
    <neuron name = "36" type = "hidden" />
    <neuron name = "37" type = "hidden" />
    <neuron name = "38" type = "hidden" />
    <neuron name = "39" type = "hidden" />
    <neuron name = "40" type = "hidden" />
    <neuron name = "41" type = "hidden" />
    <neuron name = "42" type = "hidden" />
    <synapse sourceNeuronName = "0" targetNeuronName = "25" weight = "0.4813644031138635" />
    <synapse sourceNeuronName = "0" targetNeuronName = "26" weight = "-0.7831378153316382" />
    <synapse sourceNeuronName = "0" targetNeuronName = "27" weight = "-0.7103726812092466" />
    <synapse sourceNeuronName = "0" targetNeuronName = "28" weight = "0.2506793814016022" />
    <synapse sourceNeuronName = "0" targetNeuronName = "29" weight = "-0.7991561463986845" />
    <synapse sourceNeuronName = "0" targetNeuronName = "30" weight = "-0.5326494229447205" />
    <synapse sourceNeuronName = "0" targetNeuronName = "31" weight = "-0.7988418736098495" />
    <synapse sourceNeuronName = "0" targetNeuronName = "32" weight = "-0.6915802910836011" />
    <synapse sourceNeuronName = "0" targetNeuronName = "33" weight = "0.2044185887952965" />
    <synapse sourceNeuronName = "1" targetNeuronName = "25" weight = "-0.9930026885018606" />
    <synapse sourceNeuronName = "1" targetNeuronName = "26" weight = "0.516208332831156" />
    <synapse sourceNeuronName = "1" targetNeuronName = "27" weight = "-0.5571090858291681" />
    <synapse sourceNeuronName = "1" targetNeuronName = "28" weight = "0.016051423562564615" />
    <synapse sourceNeuronName = "1" targetNeuronName = "29" weight = "-0.3629390544382911" />
    <synapse sourceNeuronName = "1" targetNeuronName = "30" weight = "0.7510402023019562" />
    <synapse sourceNeuronName = "1" targetNeuronName = "31" weight = "0.7416980621433888" />
    <synapse sourceNeuronName = "1" targetNeuronName = "32" weight = "0.76663885042828" />
    <synapse sourceNeuronName = "1" targetNeuronName = "33" weight = "0.5767717903975642" />
    <synapse sourceNeuronName = "2" targetNeuronName = "25" weight = "-0.7123153033513814" />
    <synapse sourceNeuronName = "2" targetNeuronName = "26" weight = "0.9800403211849944" />
    <synapse sourceNeuronName = "2" targetNeuronName = "27" weight = "0.7146028018282291" />
    <synapse sourceNeuronName = "2" targetNeuronName = "28" weight = "-0.8452646523540361" />
    <synapse sourceNeuronName = "2" targetNeuronName = "29" weight = "-0.7976497853276272" />
    <synapse sourceNeuronName = "2" targetNeuronName = "30" weight = "0.11603116776016087" />
    <synapse sourceNeuronName = "2" targetNeuronName = "31" weight = "0.27568756042613307" />
    <synapse sourceNeuronName = "2" targetNeuronName = "32" weight = "-0.3694829578699177" />
    <synapse sourceNeuronName = "2" targetNeuronName = "33" weight = "-0.5204849895628021" />
    <synapse sourceNeuronName = "3" targetNeuronName = "25" weight = "0.5417187342111711" />
    <synapse sourceNeuronName = "3" targetNeuronName = "26" weight = "-0.591764286409824" />
    <synapse sourceNeuronName = "3" targetNeuronName = "27" weight = "-0.7924926575709652" />
    <synapse sourceNeuronName = "3" targetNeuronName = "28" weight = "0.4039001443051804" />
    <synapse sourceNeuronName = "3" targetNeuronName = "29" weight = "0.7601380395757393" />
    <synapse sourceNeuronName = "3" targetNeuronName = "30" weight = "0.43735210210221775" />
    <synapse sourceNeuronName = "3" targetNeuronName = "31" weight = "-0.3390291447858864" />
    <synapse sourceNeuronName = "3" targetNeuronName = "32" weight = "0.7791507414177108" />
    <synapse sourceNeuronName = "3" targetNeuronName = "33" weight = "-0.5664721274584397" />
    <synapse sourceNeuronName = "4" targetNeuronName = "25" weight = "-0.2396821511734244" />
    <synapse sourceNeuronName = "4" targetNeuronName = "26" weight = "0.5903245559786434" />
    <synapse sourceNeuronName = "4" targetNeuronName = "27" weight = "-0.620965356176753" />
    <synapse sourceNeuronName = "4" targetNeuronName = "28" weight = "-0.32780083946779204" />
    <synapse sourceNeuronName = "4" targetNeuronName = "29" weight = "0.04409102804332177" />
    <synapse sourceNeuronName = "4" targetNeuronName = "30" weight = "-0.23052009295154585" />
    <synapse sourceNeuronName = "4" targetNeuronName = "31" weight = "0.030979336353402553" />
    <synapse sourceNeuronName = "4" targetNeuronName = "32" weight = "0.45832542199795867" />
    <synapse sourceNeuronName = "4" targetNeuronName = "33" weight = "-0.8015298833708289" />
    <synapse sourceNeuronName = "5" targetNeuronName = "25" weight = "0.6600320557736727" />
    <synapse sourceNeuronName = "5" targetNeuronName = "26" weight = "0.9506613468028204" />
    <synapse sourceNeuronName = "5" targetNeuronName = "27" weight = "-0.40445214390681206" />
    <synapse sourceNeuronName = "5" targetNeuronName = "28" weight = "-0.9110373420386324" />
    <synapse sourceNeuronName = "5" targetNeuronName = "29" weight = "0.1640258357880795" />
    <synapse sourceNeuronName = "5" targetNeuronName = "30" weight = "0.7684481236982559" />
    <synapse sourceNeuronName = "5" targetNeuronName = "31" weight = "-0.5774049914435837" />
    <synapse sourceNeuronName = "5" targetNeuronName = "32" weight = "-0.4860910224129391" />
    <synapse sourceNeuronName = "5" targetNeuronName = "33" weight = "-0.8403898264044456" />
    <synapse sourceNeuronName = "6" targetNeuronName = "25" weight = "-0.057960530229643537" />
    <synapse sourceNeuronName = "6" targetNeuronName = "26" weight = "-0.9181050456234068" />
    <synapse sourceNeuronName = "6" targetNeuronName = "27" weight = "-0.8094382850508863" />
    <synapse sourceNeuronName = "6" targetNeuronName = "28" weight = "-0.8548994658142803" />
    <synapse sourceNeuronName = "6" targetNeuronName = "29" weight = "-0.6880420031470429" />
    <synapse sourceNeuronName = "6" targetNeuronName = "30" weight = "0.24714581025572602" />
    <synapse sourceNeuronName = "6" targetNeuronName = "31" weight = "-0.7517977477970343" />
    <synapse sourceNeuronName = "6" targetNeuronName = "32" weight = "0.4523111740783783" />
    <synapse sourceNeuronName = "6" targetNeuronName = "33" weight = "0.8442539945684759" />
    <synapse sourceNeuronName = "7" targetNeuronName = "25" weight = "0.26502577459454413" />
    <synapse sourceNeuronName = "7" targetNeuronName = "26" weight = "0.17963513958917265" />
    <synapse sourceNeuronName = "7" targetNeuronName = "27" weight = "0.5506245220975867" />
    <synapse sourceNeuronName = "7" targetNeuronName = "28" weight = "0.8044260466289899" />
    <synapse sourceNeuronName = "7" targetNeuronName = "29" weight = "0.409801914224615" />
    <synapse sourceNeuronName = "7" targetNeuronName = "30" weight = "-0.6718465551101793" />
    <synapse sourceNeuronName = "7" targetNeuronName = "31" weight = "-0.31948330083208143" />
    <synapse sourceNeuronName = "7" targetNeuronName = "32" weight = "-0.44641970399914976" />
    <synapse sourceNeuronName = "7" targetNeuronName = "33" weight = "-0.9852280709077477" />
    <synapse sourceNeuronName = "8" targetNeuronName = "25" weight = "0.0020705607326920727" />
    <synapse sourceNeuronName = "8" targetNeuronName = "26" weight = "0.4639475752607529" />
    <synapse sourceNeuronName = "8" targetNeuronName = "27" weight = "0.5338588335354939" />
    <synapse sourceNeuronName = "8" targetNeuronName = "28" weight = "0.9651603075737498" />
    <synapse sourceNeuronName = "8" targetNeuronName = "29" weight = "-0.02531774912710616" />
    <synapse sourceNeuronName = "8" targetNeuronName = "30" weight = "0.3855691296249173" />
    <synapse sourceNeuronName = "8" targetNeuronName = "31" weight = "0.9231560175404605" />
    <synapse sourceNeuronName = "8" targetNeuronName = "32" weight = "-0.5352133795655554" />
    <synapse sourceNeuronName = "8" targetNeuronName = "33" weight = "0.3197049863058765" />
    <synapse sourceNeuronName = "25" targetNeuronName = "34" weight = "-0.6795190158529483" />
    <synapse sourceNeuronName = "25" targetNeuronName = "35" weight = "-0.9390085786893416" />
    <synapse sourceNeuronName = "25" targetNeuronName = "36" weight = "0.19467582692711805" />
    <synapse sourceNeuronName = "25" targetNeuronName = "37" weight = "-0.3994998150691864" />
    <synapse sourceNeuronName = "25" targetNeuronName = "38" weight = "0.965803678685007" />
    <synapse sourceNeuronName = "25" targetNeuronName = "39" weight = "0.32852070708857317" />
    <synapse sourceNeuronName = "25" targetNeuronName = "40" weight = "-0.7979323604611055" />
    <synapse sourceNeuronName = "25" targetNeuronName = "41" weight = "0.18462285709954185" />
    <synapse sourceNeuronName = "25" targetNeuronName = "42" weight = "0.5010177905617268" />
    <synapse sourceNeuronName = "26" targetNeuronName = "34" weight = "-0.42550644252815784" />
    <synapse sourceNeuronName = "26" targetNeuronName = "35" weight = "0.2711458178417976" />
    <synapse sourceNeuronName = "26" targetNeuronName = "36" weight = "0.6394941228342055" />
    <synapse sourceNeuronName = "26" targetNeuronName = "37" weight = "0.4658991811340307" />
    <synapse sourceNeuronName = "26" targetNeuronName = "38" weight = "-0.6480310020822937" />
    <synapse sourceNeuronName = "26" targetNeuronName = "39" weight = "0.774774556268208" />
    <synapse sourceNeuronName = "26" targetNeuronName = "40" weight = "0.5326282507192992" />
    <synapse sourceNeuronName = "26" targetNeuronName = "41" weight = "-0.732861945101025" />
    <synapse sourceNeuronName = "26" targetNeuronName = "42" weight = "-0.6570323315258169" />
    <synapse sourceNeuronName = "27" targetNeuronName = "34" weight = "0.07153320948871911" />
    <synapse sourceNeuronName = "27" targetNeuronName = "35" weight = "-0.8578268448454927" />
    <synapse sourceNeuronName = "27" targetNeuronName = "36" weight = "0.15819030752098295" />
    <synapse sourceNeuronName = "27" targetNeuronName = "37" weight = "0.685927065764997" />
    <synapse sourceNeuronName = "27" targetNeuronName = "38" weight = "-0.36118501712753837" />
    <synapse sourceNeuronName = "27" targetNeuronName = "39" weight = "-0.07469466879337783" />
    <synapse sourceNeuronName = "27" targetNeuronName = "40" weight = "0.9567314736480099" />
    <synapse sourceNeuronName = "27" targetNeuronName = "41" weight = "-0.9081709895417878" />
    <synapse sourceNeuronName = "27" targetNeuronName = "42" weight = "0.45157557822684913" />
    <synapse sourceNeuronName = "28" targetNeuronName = "34" weight = "-0.23533106560352213" />
    <synapse sourceNeuronName = "28" targetNeuronName = "35" weight = "0.6627849401326156" />
    <synapse sourceNeuronName = "28" targetNeuronName = "36" weight = "0.08297775012943487" />
    <synapse sourceNeuronName = "28" targetNeuronName = "37" weight = "-0.9426660106169003" />
    <synapse sourceNeuronName = "28" targetNeuronName = "38" weight = "-0.09647605125269032" />
    <synapse sourceNeuronName = "28" targetNeuronName = "39" weight = "-0.9592191251642441" />
    <synapse sourceNeuronName = "28" targetNeuronName = "40" weight = "0.5454087192267716" />
    <synapse sourceNeuronName = "28" targetNeuronName = "41" weight = "-0.31000109174999024" />
    <synapse sourceNeuronName = "28" targetNeuronName = "42" weight = "-0.7880165802234727" />
    <synapse sourceNeuronName = "29" targetNeuronName = "34" weight = "-0.7384470999613639" />
    <synapse sourceNeuronName = "29" targetNeuronName = "35" weight = "0.013722489051074538" />
    <synapse sourceNeuronName = "29" targetNeuronName = "36" weight = "0.28043346099870137" />
    <synapse sourceNeuronName = "29" targetNeuronName = "37" weight = "0.4719272525929714" />
    <synapse sourceNeuronName = "29" targetNeuronName = "38" weight = "-0.702462895726943" />
    <synapse sourceNeuronName = "29" targetNeuronName = "39" weight = "-0.15361829462675392" />
    <synapse sourceNeuronName = "29" targetNeuronName = "40" weight = "0.9121080027390027" />
    <synapse sourceNeuronName = "29" targetNeuronName = "41" weight = "-0.2857098222479064" />
    <synapse sourceNeuronName = "29" targetNeuronName = "42" weight = "0.5483695716530403" />
    <synapse sourceNeuronName = "30" targetNeuronName = "34" weight = "-0.3423044886865567" />
    <synapse sourceNeuronName = "30" targetNeuronName = "35" weight = "-0.7940016082892349" />
    <synapse sourceNeuronName = "30" targetNeuronName = "36" weight = "-0.718023605186688" />
    <synapse sourceNeuronName = "30" targetNeuronName = "37" weight = "0.6697469145860033" />
    <synapse sourceNeuronName = "30" targetNeuronName = "38" weight = "0.40751738815917293" />
    <synapse sourceNeuronName = "30" targetNeuronName = "39" weight = "0.0998362204717167" />
    <synapse sourceNeuronName = "30" targetNeuronName = "40" weight = "-0.2609930378035863" />
    <synapse sourceNeuronName = "30" targetNeuronName = "41" weight = "0.16169378195109396" />
    <synapse sourceNeuronName = "30" targetNeuronName = "42" weight = "0.7944778748641699" />
    <synapse sourceNeuronName = "31" targetNeuronName = "34" weight = "0.902403930317456" />
    <synapse sourceNeuronName = "31" targetNeuronName = "35" weight = "-0.17427929612452275" />
    <synapse sourceNeuronName = "31" targetNeuronName = "36" weight = "0.21485709078024118" />
    <synapse sourceNeuronName = "31" targetNeuronName = "37" weight = "0.45681891737490066" />
    <synapse sourceNeuronName = "31" targetNeuronName = "38" weight = "0.20477735611542158" />
    <synapse sourceNeuronName = "31" targetNeuronName = "39" weight = "0.3110910970005394" />
    <synapse sourceNeuronName = "31" targetNeuronName = "40" weight = "0.008311230177598494" />
    <synapse sourceNeuronName = "31" targetNeuronName = "41" weight = "-0.8237240400395613" />
    <synapse sourceNeuronName = "31" targetNeuronName = "42" weight = "-0.03523649637479842" />
    <synapse sourceNeuronName = "32" targetNeuronName = "34" weight = "0.22063991459185917" />
    <synapse sourceNeuronName = "32" targetNeuronName = "35" weight = "-0.9043844448201148" />
    <synapse sourceNeuronName = "32" targetNeuronName = "36" weight = "-0.5071885882165401" />
    <synapse sourceNeuronName = "32" targetNeuronName = "37" weight = "-0.8776502748091284" />
    <synapse sourceNeuronName = "32" targetNeuronName = "38" weight = "-0.7217313228548428" />
    <synapse sourceNeuronName = "32" targetNeuronName = "39" weight = "-0.1587100609515868" />
    <synapse sourceNeuronName = "32" targetNeuronName = "40" weight = "-0.8493450198857986" />
    <synapse sourceNeuronName = "32" targetNeuronName = "41" weight = "0.7605952779764968" />
    <synapse sourceNeuronName = "32" targetNeuronName = "42" weight = "-0.28772894775593594" />
    <synapse sourceNeuronName = "33" targetNeuronName = "34" weight = "-0.7234127963338264" />
    <synapse sourceNeuronName = "33" targetNeuronName = "35" weight = "-0.8394750282994441" />
    <synapse sourceNeuronName = "33" targetNeuronName = "36" weight = "-0.4691718078640761" />
    <synapse sourceNeuronName = "33" targetNeuronName = "37" weight = "0.4471892485536899" />
    <synapse sourceNeuronName = "33" targetNeuronName = "38" weight = "0.22434014748219" />
    <synapse sourceNeuronName = "33" targetNeuronName = "39" weight = "-0.9832648314961903" />
    <synapse sourceNeuronName = "33" targetNeuronName = "40" weight = "0.6709580707785034" />
    <synapse sourceNeuronName = "33" targetNeuronName = "41" weight = "0.30503000431657634" />
    <synapse sourceNeuronName = "33" targetNeuronName = "42" weight = "0.9366240765328762" />
    <synapse sourceNeuronName = "34" targetNeuronName = "9" weight = "-0.998413589900917" />
    <synapse sourceNeuronName = "34" targetNeuronName = "10" weight = "-0.24375336272681092" />
    <synapse sourceNeuronName = "34" targetNeuronName = "11" weight = "-0.14036199189514842" />
    <synapse sourceNeuronName = "34" targetNeuronName = "12" weight = "-0.9894051194788707" />
    <synapse sourceNeuronName = "34" targetNeuronName = "13" weight = "0.46018989052109993" />
    <synapse sourceNeuronName = "34" targetNeuronName = "14" weight = "0.5526673643367981" />
    <synapse sourceNeuronName = "34" targetNeuronName = "15" weight = "0.004173189294750079" />
    <synapse sourceNeuronName = "34" targetNeuronName = "16" weight = "0.8179005735631513" />
    <synapse sourceNeuronName = "34" targetNeuronName = "17" weight = "-0.9255578692948889" />
    <synapse sourceNeuronName = "34" targetNeuronName = "18" weight = "0.3644862771507875" />
    <synapse sourceNeuronName = "34" targetNeuronName = "19" weight = "0.7171460059399168" />
    <synapse sourceNeuronName = "34" targetNeuronName = "20" weight = "-0.6133037764250548" />
    <synapse sourceNeuronName = "34" targetNeuronName = "21" weight = "0.40992026113723945" />
    <synapse sourceNeuronName = "34" targetNeuronName = "22" weight = "0.6956569968570345" />
    <synapse sourceNeuronName = "34" targetNeuronName = "23" weight = "-0.4701740777862391" />
    <synapse sourceNeuronName = "34" targetNeuronName = "24" weight = "0.41055290794951893" />
    <synapse sourceNeuronName = "35" targetNeuronName = "9" weight = "-0.7858000584676645" />
    <synapse sourceNeuronName = "35" targetNeuronName = "10" weight = "0.32590012499039966" />
    <synapse sourceNeuronName = "35" targetNeuronName = "11" weight = "-0.12107676799640621" />
    <synapse sourceNeuronName = "35" targetNeuronName = "12" weight = "-0.1300119276034375" />
    <synapse sourceNeuronName = "35" targetNeuronName = "13" weight = "0.7584135950195094" />
    <synapse sourceNeuronName = "35" targetNeuronName = "14" weight = "-0.36128270610155333" />
    <synapse sourceNeuronName = "35" targetNeuronName = "15" weight = "0.9272964152275802" />
    <synapse sourceNeuronName = "35" targetNeuronName = "16" weight = "-0.09416479392586319" />
    <synapse sourceNeuronName = "35" targetNeuronName = "17" weight = "0.7155538132993677" />
    <synapse sourceNeuronName = "35" targetNeuronName = "18" weight = "-0.5747604960746577" />
    <synapse sourceNeuronName = "35" targetNeuronName = "19" weight = "0.11526796164874109" />
    <synapse sourceNeuronName = "35" targetNeuronName = "20" weight = "-0.13772023971965464" />
    <synapse sourceNeuronName = "35" targetNeuronName = "21" weight = "0.6956080452694509" />
    <synapse sourceNeuronName = "35" targetNeuronName = "22" weight = "-0.1633977778900968" />
    <synapse sourceNeuronName = "35" targetNeuronName = "23" weight = "0.6334830315980762" />
    <synapse sourceNeuronName = "35" targetNeuronName = "24" weight = "0.09243324582016132" />
    <synapse sourceNeuronName = "36" targetNeuronName = "9" weight = "-0.17029228834051868" />
    <synapse sourceNeuronName = "36" targetNeuronName = "10" weight = "-0.2834060844797577" />
    <synapse sourceNeuronName = "36" targetNeuronName = "11" weight = "-0.2264172734608667" />
    <synapse sourceNeuronName = "36" targetNeuronName = "12" weight = "0.598800170882944" />
    <synapse sourceNeuronName = "36" targetNeuronName = "13" weight = "-0.7762326752440907" />
    <synapse sourceNeuronName = "36" targetNeuronName = "14" weight = "-0.21500693139096594" />
    <synapse sourceNeuronName = "36" targetNeuronName = "15" weight = "-0.10064925497990274" />
    <synapse sourceNeuronName = "36" targetNeuronName = "16" weight = "0.938667673727851" />
    <synapse sourceNeuronName = "36" targetNeuronName = "17" weight = "-0.44087686960023187" />
    <synapse sourceNeuronName = "36" targetNeuronName = "18" weight = "0.8389051718394336" />
    <synapse sourceNeuronName = "36" targetNeuronName = "19" weight = "0.7639214919256043" />
    <synapse sourceNeuronName = "36" targetNeuronName = "20" weight = "0.45419728965544537" />
    <synapse sourceNeuronName = "36" targetNeuronName = "21" weight = "-0.5951971212472926" />
    <synapse sourceNeuronName = "36" targetNeuronName = "22" weight = "0.6521867614998325" />
    <synapse sourceNeuronName = "36" targetNeuronName = "23" weight = "0.10202296191417215" />
    <synapse sourceNeuronName = "36" targetNeuronName = "24" weight = "0.4177784955031951" />
    <synapse sourceNeuronName = "37" targetNeuronName = "9" weight = "0.22679913223680548" />
    <synapse sourceNeuronName = "37" targetNeuronName = "10" weight = "-0.5147517892046354" />
    <synapse sourceNeuronName = "37" targetNeuronName = "11" weight = "-0.6852510531589042" />
    <synapse sourceNeuronName = "37" targetNeuronName = "12" weight = "0.2909292218551802" />
    <synapse sourceNeuronName = "37" targetNeuronName = "13" weight = "0.32966510157702866" />
    <synapse sourceNeuronName = "37" targetNeuronName = "14" weight = "0.27965673020428317" />
    <synapse sourceNeuronName = "37" targetNeuronName = "15" weight = "0.3923510577398255" />
    <synapse sourceNeuronName = "37" targetNeuronName = "16" weight = "0.4045272897454246" />
    <synapse sourceNeuronName = "37" targetNeuronName = "17" weight = "0.1491390017176073" />
    <synapse sourceNeuronName = "37" targetNeuronName = "18" weight = "-0.4245862533807503" />
    <synapse sourceNeuronName = "37" targetNeuronName = "19" weight = "-0.48792340420668023" />
    <synapse sourceNeuronName = "37" targetNeuronName = "20" weight = "-0.5426036002420684" />
    <synapse sourceNeuronName = "37" targetNeuronName = "21" weight = "0.34842858891361494" />
    <synapse sourceNeuronName = "37" targetNeuronName = "22" weight = "-0.8443122463275294" />
    <synapse sourceNeuronName = "37" targetNeuronName = "23" weight = "0.9666495410319684" />
    <synapse sourceNeuronName = "37" targetNeuronName = "24" weight = "-0.4358509932096415" />
    <synapse sourceNeuronName = "38" targetNeuronName = "9" weight = "-0.8950683352473334" />
    <synapse sourceNeuronName = "38" targetNeuronName = "10" weight = "0.6628527819781951" />
    <synapse sourceNeuronName = "38" targetNeuronName = "11" weight = "0.9016826489187995" />
    <synapse sourceNeuronName = "38" targetNeuronName = "12" weight = "0.5559653522386259" />
    <synapse sourceNeuronName = "38" targetNeuronName = "13" weight = "0.9925797085123376" />
    <synapse sourceNeuronName = "38" targetNeuronName = "14" weight = "0.3522000389446027" />
    <synapse sourceNeuronName = "38" targetNeuronName = "15" weight = "0.5893364227921434" />
    <synapse sourceNeuronName = "38" targetNeuronName = "16" weight = "0.12930443408282866" />
    <synapse sourceNeuronName = "38" targetNeuronName = "17" weight = "-0.5213513920464483" />
    <synapse sourceNeuronName = "38" targetNeuronName = "18" weight = "0.6986428331341379" />
    <synapse sourceNeuronName = "38" targetNeuronName = "19" weight = "-0.8714867828731114" />
    <synapse sourceNeuronName = "38" targetNeuronName = "20" weight = "0.699787328500723" />
    <synapse sourceNeuronName = "38" targetNeuronName = "21" weight = "-0.29414532798505966" />
    <synapse sourceNeuronName = "38" targetNeuronName = "22" weight = "0.1384491187071979" />
    <synapse sourceNeuronName = "38" targetNeuronName = "23" weight = "0.9002168446768295" />
    <synapse sourceNeuronName = "38" targetNeuronName = "24" weight = "-0.7105844800579564" />
    <synapse sourceNeuronName = "39" targetNeuronName = "9" weight = "0.9489549002972677" />
    <synapse sourceNeuronName = "39" targetNeuronName = "10" weight = "0.1350291622068951" />
    <synapse sourceNeuronName = "39" targetNeuronName = "11" weight = "0.2249727398081196" />
    <synapse sourceNeuronName = "39" targetNeuronName = "12" weight = "0.14682608250143359" />
    <synapse sourceNeuronName = "39" targetNeuronName = "13" weight = "-0.19671148278273698" />
    <synapse sourceNeuronName = "39" targetNeuronName = "14" weight = "0.5355592504508095" />
    <synapse sourceNeuronName = "39" targetNeuronName = "15" weight = "0.6503348723146372" />
    <synapse sourceNeuronName = "39" targetNeuronName = "16" weight = "0.8257752270452863" />
    <synapse sourceNeuronName = "39" targetNeuronName = "17" weight = "-0.8547362093501423" />
    <synapse sourceNeuronName = "39" targetNeuronName = "18" weight = "-0.8888610723031296" />
    <synapse sourceNeuronName = "39" targetNeuronName = "19" weight = "-0.22129253602899546" />
    <synapse sourceNeuronName = "39" targetNeuronName = "20" weight = "-0.12098326596776521" />
    <synapse sourceNeuronName = "39" targetNeuronName = "21" weight = "0.7871461980935051" />
    <synapse sourceNeuronName = "39" targetNeuronName = "22" weight = "0.06343405981812245" />
    <synapse sourceNeuronName = "39" targetNeuronName = "23" weight = "0.36082000171020456" />
    <synapse sourceNeuronName = "39" targetNeuronName = "24" weight = "0.14474970648520147" />
    <synapse sourceNeuronName = "40" targetNeuronName = "9" weight = "0.6120610986747788" />
    <synapse sourceNeuronName = "40" targetNeuronName = "10" weight = "0.673838936915047" />
    <synapse sourceNeuronName = "40" targetNeuronName = "11" weight = "-0.00871252407507872" />
    <synapse sourceNeuronName = "40" targetNeuronName = "12" weight = "-0.4154595648424044" />
    <synapse sourceNeuronName = "40" targetNeuronName = "13" weight = "-0.5342959082267504" />
    <synapse sourceNeuronName = "40" targetNeuronName = "14" weight = "0.629253918644828" />
    <synapse sourceNeuronName = "40" targetNeuronName = "15" weight = "0.585869928531954" />
    <synapse sourceNeuronName = "40" targetNeuronName = "16" weight = "0.3065729424636565" />
    <synapse sourceNeuronName = "40" targetNeuronName = "17" weight = "0.6832239366894504" />
    <synapse sourceNeuronName = "40" targetNeuronName = "18" weight = "-0.2886612280860925" />
    <synapse sourceNeuronName = "40" targetNeuronName = "19" weight = "-0.3227241792332902" />
    <synapse sourceNeuronName = "40" targetNeuronName = "20" weight = "0.02276772706816188" />
    <synapse sourceNeuronName = "40" targetNeuronName = "21" weight = "-0.11035553947192889" />
    <synapse sourceNeuronName = "40" targetNeuronName = "22" weight = "0.9892073762351448" />
    <synapse sourceNeuronName = "40" targetNeuronName = "23" weight = "0.8707783610819373" />
    <synapse sourceNeuronName = "40" targetNeuronName = "24" weight = "-0.735138461399728" />
    <synapse sourceNeuronName = "41" targetNeuronName = "9" weight = "-0.25275981810868653" />
    <synapse sourceNeuronName = "41" targetNeuronName = "10" weight = "0.9342120302510433" />
    <synapse sourceNeuronName = "41" targetNeuronName = "11" weight = "-0.3712831549079616" />
    <synapse sourceNeuronName = "41" targetNeuronName = "12" weight = "-0.58255334356147" />
    <synapse sourceNeuronName = "41" targetNeuronName = "13" weight = "-0.5888575870687984" />
    <synapse sourceNeuronName = "41" targetNeuronName = "14" weight = "-0.31309822592689796" />
    <synapse sourceNeuronName = "41" targetNeuronName = "15" weight = "-0.6554207902583646" />
    <synapse sourceNeuronName = "41" targetNeuronName = "16" weight = "-0.5176355318100396" />
    <synapse sourceNeuronName = "41" targetNeuronName = "17" weight = "0.056342110784371346" />
    <synapse sourceNeuronName = "41" targetNeuronName = "18" weight = "-0.11964340594280198" />
    <synapse sourceNeuronName = "41" targetNeuronName = "19" weight = "0.5949019295905442" />
    <synapse sourceNeuronName = "41" targetNeuronName = "20" weight = "0.9125357850769751" />
    <synapse sourceNeuronName = "41" targetNeuronName = "21" weight = "-0.9091659574034683" />
    <synapse sourceNeuronName = "41" targetNeuronName = "22" weight = "-0.7356648260312963" />
    <synapse sourceNeuronName = "41" targetNeuronName = "23" weight = "-0.33896337384822117" />
    <synapse sourceNeuronName = "41" targetNeuronName = "24" weight = "-0.5596732475144102" />
    <synapse sourceNeuronName = "42" targetNeuronName = "9" weight = "0.093233791631677" />
    <synapse sourceNeuronName = "42" targetNeuronName = "10" weight = "-0.6844812842382193" />
    <synapse sourceNeuronName = "42" targetNeuronName = "11" weight = "-0.7701565248318318" />
    <synapse sourceNeuronName = "42" targetNeuronName = "12" weight = "-0.11768716736892326" />
    <synapse sourceNeuronName = "42" targetNeuronName = "13" weight = "-0.3992590519117101" />
    <synapse sourceNeuronName = "42" targetNeuronName = "14" weight = "0.5630770577050574" />
    <synapse sourceNeuronName = "42" targetNeuronName = "15" weight = "-0.5512254358096789" />
    <synapse sourceNeuronName = "42" targetNeuronName = "16" weight = "0.8232644140065142" />
    <synapse sourceNeuronName = "42" targetNeuronName = "17" weight = "0.5359198118911808" />
    <synapse sourceNeuronName = "42" targetNeuronName = "18" weight = "0.26635768372649604" />
    <synapse sourceNeuronName = "42" targetNeuronName = "19" weight = "0.7944858802885391" />
    <synapse sourceNeuronName = "42" targetNeuronName = "20" weight = "0.4262584578677604" />
    <synapse sourceNeuronName = "42" targetNeuronName = "21" weight = "0.7594394171796199" />
    <synapse sourceNeuronName = "42" targetNeuronName = "22" weight = "0.2802561295816568" />
    <synapse sourceNeuronName = "42" targetNeuronName = "23" weight = "-0.07694337646138982" />
    <synapse sourceNeuronName = "42" targetNeuronName = "24" weight = "0.6376527995602141" />
</neuralNetwork>