<neuralNetwork>
    <neuron name = "0" type = "sensor" linkName = "rootLink" />
    <neuron name = "1" type = "sensor" linkName = "link3NPP" />
    <neuron name = "2" type = "sensor" linkName = "link4NPP" />
    <neuron name = "3" type = "sensor" linkName = "link6NPP" />
    <neuron name = "4" type = "sensor" linkName = "link3NNP" />
    <neuron name = "5" type = "sensor" linkName = "link4NNP" />
    <neuron name = "6" type = "sensor" linkName = "link6NNP" />
    <neuron name = "7" type = "motor"  jointName = "rootLink_link1NPP" />
    <neuron name = "8" type = "motor"  jointName = "rootLink_link1NNP" />
    <neuron name = "9" type = "motor"  jointName = "link1NPP_link2NPP" />
    <neuron name = "10" type = "motor"  jointName = "link2NPP_link3NPP" />
    <neuron name = "11" type = "motor"  jointName = "link3NPP_link4NPP" />
    <neuron name = "12" type = "motor"  jointName = "link4NPP_link5NPP" />
    <neuron name = "13" type = "motor"  jointName = "link5NPP_link6NPP" />
    <neuron name = "14" type = "motor"  jointName = "link1NNP_link2NNP" />
    <neuron name = "15" type = "motor"  jointName = "link2NNP_link3NNP" />
    <neuron name = "16" type = "motor"  jointName = "link3NNP_link4NNP" />
    <neuron name = "17" type = "motor"  jointName = "link4NNP_link5NNP" />
    <neuron name = "18" type = "motor"  jointName = "link5NNP_link6NNP" />
    <neuron name = "19" type = "hidden" />
    <neuron name = "20" type = "hidden" />
    <neuron name = "21" type = "hidden" />
    <neuron name = "22" type = "hidden" />
    <neuron name = "23" type = "hidden" />
    <neuron name = "24" type = "hidden" />
    <neuron name = "25" type = "hidden" />
    <neuron name = "26" type = "hidden" />
    <neuron name = "27" type = "hidden" />
    <neuron name = "28" type = "hidden" />
    <neuron name = "29" type = "hidden" />
    <neuron name = "30" type = "hidden" />
    <neuron name = "31" type = "hidden" />
    <neuron name = "32" type = "hidden" />
    <synapse sourceNeuronName = "0" targetNeuronName = "19" weight = "-0.3441829794653797" />
    <synapse sourceNeuronName = "0" targetNeuronName = "20" weight = "0.17678708180709668" />
    <synapse sourceNeuronName = "0" targetNeuronName = "21" weight = "0.9089144778634934" />
    <synapse sourceNeuronName = "0" targetNeuronName = "22" weight = "-0.7086893424249419" />
    <synapse sourceNeuronName = "0" targetNeuronName = "23" weight = "0.89382609102219" />
    <synapse sourceNeuronName = "0" targetNeuronName = "24" weight = "0.8310621335559849" />
    <synapse sourceNeuronName = "0" targetNeuronName = "25" weight = "-0.5545640708696291" />
    <synapse sourceNeuronName = "1" targetNeuronName = "19" weight = "0.32917537935268637" />
    <synapse sourceNeuronName = "1" targetNeuronName = "20" weight = "0.8834364440750881" />
    <synapse sourceNeuronName = "1" targetNeuronName = "21" weight = "0.9071415284439868" />
    <synapse sourceNeuronName = "1" targetNeuronName = "22" weight = "-0.28960923892031665" />
    <synapse sourceNeuronName = "1" targetNeuronName = "23" weight = "0.48674615231640583" />
    <synapse sourceNeuronName = "1" targetNeuronName = "24" weight = "0.24929009033199256" />
    <synapse sourceNeuronName = "1" targetNeuronName = "25" weight = "0.2725217458813154" />
    <synapse sourceNeuronName = "2" targetNeuronName = "19" weight = "-0.5739559008885136" />
    <synapse sourceNeuronName = "2" targetNeuronName = "20" weight = "0.5459058287638769" />
    <synapse sourceNeuronName = "2" targetNeuronName = "21" weight = "0.3849515494970355" />
    <synapse sourceNeuronName = "2" targetNeuronName = "22" weight = "-0.2560268022236667" />
    <synapse sourceNeuronName = "2" targetNeuronName = "23" weight = "0.4370472516535011" />
    <synapse sourceNeuronName = "2" targetNeuronName = "24" weight = "-0.18443044342478143" />
    <synapse sourceNeuronName = "2" targetNeuronName = "25" weight = "-0.1781344234379374" />
    <synapse sourceNeuronName = "3" targetNeuronName = "19" weight = "0.20905160402992173" />
    <synapse sourceNeuronName = "3" targetNeuronName = "20" weight = "0.6189824637019807" />
    <synapse sourceNeuronName = "3" targetNeuronName = "21" weight = "0.4162914743450459" />
    <synapse sourceNeuronName = "3" targetNeuronName = "22" weight = "0.3755455522875024" />
    <synapse sourceNeuronName = "3" targetNeuronName = "23" weight = "0.29984971246995173" />
    <synapse sourceNeuronName = "3" targetNeuronName = "24" weight = "-0.6188331396148234" />
    <synapse sourceNeuronName = "3" targetNeuronName = "25" weight = "-0.03489307439564815" />
    <synapse sourceNeuronName = "4" targetNeuronName = "19" weight = "-0.3917293082691493" />
    <synapse sourceNeuronName = "4" targetNeuronName = "20" weight = "0.8636691071543905" />
    <synapse sourceNeuronName = "4" targetNeuronName = "21" weight = "-0.8423436630430208" />
    <synapse sourceNeuronName = "4" targetNeuronName = "22" weight = "0.3051454662087767" />
    <synapse sourceNeuronName = "4" targetNeuronName = "23" weight = "-0.9834272679780482" />
    <synapse sourceNeuronName = "4" targetNeuronName = "24" weight = "0.7147043777873074" />
    <synapse sourceNeuronName = "4" targetNeuronName = "25" weight = "-0.7917685452450558" />
    <synapse sourceNeuronName = "5" targetNeuronName = "19" weight = "-0.3847878736276591" />
    <synapse sourceNeuronName = "5" targetNeuronName = "20" weight = "0.8236041259701581" />
    <synapse sourceNeuronName = "5" targetNeuronName = "21" weight = "0.7285087924981128" />
    <synapse sourceNeuronName = "5" targetNeuronName = "22" weight = "0.4403884427062479" />
    <synapse sourceNeuronName = "5" targetNeuronName = "23" weight = "-0.8520698413055459" />
    <synapse sourceNeuronName = "5" targetNeuronName = "24" weight = "-0.5125163971514537" />
    <synapse sourceNeuronName = "5" targetNeuronName = "25" weight = "0.08430219938616546" />
    <synapse sourceNeuronName = "6" targetNeuronName = "19" weight = "0.9568372657959747" />
    <synapse sourceNeuronName = "6" targetNeuronName = "20" weight = "0.8599088593532209" />
    <synapse sourceNeuronName = "6" targetNeuronName = "21" weight = "0.18353515499660733" />
    <synapse sourceNeuronName = "6" targetNeuronName = "22" weight = "0.5930783186236985" />
    <synapse sourceNeuronName = "6" targetNeuronName = "23" weight = "0.37407630226950794" />
    <synapse sourceNeuronName = "6" targetNeuronName = "24" weight = "-0.3814561405678747" />
    <synapse sourceNeuronName = "6" targetNeuronName = "25" weight = "0.04538633147068949" />
    <synapse sourceNeuronName = "19" targetNeuronName = "26" weight = "0.14897949498396512" />
    <synapse sourceNeuronName = "19" targetNeuronName = "27" weight = "-0.8020881676014919" />
    <synapse sourceNeuronName = "19" targetNeuronName = "28" weight = "0.9512017518639522" />
    <synapse sourceNeuronName = "19" targetNeuronName = "29" weight = "0.15557940934127723" />
    <synapse sourceNeuronName = "19" targetNeuronName = "30" weight = "-0.14502249278197987" />
    <synapse sourceNeuronName = "19" targetNeuronName = "31" weight = "-0.9346486116017318" />
    <synapse sourceNeuronName = "19" targetNeuronName = "32" weight = "0.239014143434241" />
    <synapse sourceNeuronName = "20" targetNeuronName = "26" weight = "0.2998361859163561" />
    <synapse sourceNeuronName = "20" targetNeuronName = "27" weight = "0.6370490849980235" />
    <synapse sourceNeuronName = "20" targetNeuronName = "28" weight = "0.8910455491546361" />
    <synapse sourceNeuronName = "20" targetNeuronName = "29" weight = "-0.9343729258613735" />
    <synapse sourceNeuronName = "20" targetNeuronName = "30" weight = "0.045308730736488334" />
    <synapse sourceNeuronName = "20" targetNeuronName = "31" weight = "0.9907116659016331" />
    <synapse sourceNeuronName = "20" targetNeuronName = "32" weight = "-0.026140734120679854" />
    <synapse sourceNeuronName = "21" targetNeuronName = "26" weight = "0.3455112547319521" />
    <synapse sourceNeuronName = "21" targetNeuronName = "27" weight = "-0.24658802525882795" />
    <synapse sourceNeuronName = "21" targetNeuronName = "28" weight = "0.8732830393545783" />
    <synapse sourceNeuronName = "21" targetNeuronName = "29" weight = "-0.36578972009152566" />
    <synapse sourceNeuronName = "21" targetNeuronName = "30" weight = "-0.9712686312059953" />
    <synapse sourceNeuronName = "21" targetNeuronName = "31" weight = "0.8541241024766697" />
    <synapse sourceNeuronName = "21" targetNeuronName = "32" weight = "-0.17027171769008032" />
    <synapse sourceNeuronName = "22" targetNeuronName = "26" weight = "-0.23170448176296987" />
    <synapse sourceNeuronName = "22" targetNeuronName = "27" weight = "0.18667222347056645" />
    <synapse sourceNeuronName = "22" targetNeuronName = "28" weight = "0.3990516285789736" />
    <synapse sourceNeuronName = "22" targetNeuronName = "29" weight = "-0.16003695401460316" />
    <synapse sourceNeuronName = "22" targetNeuronName = "30" weight = "-0.040602064115801584" />
    <synapse sourceNeuronName = "22" targetNeuronName = "31" weight = "0.07696226153679397" />
    <synapse sourceNeuronName = "22" targetNeuronName = "32" weight = "-0.06775310982745286" />
    <synapse sourceNeuronName = "23" targetNeuronName = "26" weight = "-0.7291504990426307" />
    <synapse sourceNeuronName = "23" targetNeuronName = "27" weight = "0.29685601363086955" />
    <synapse sourceNeuronName = "23" targetNeuronName = "28" weight = "-0.5420120593396287" />
    <synapse sourceNeuronName = "23" targetNeuronName = "29" weight = "0.17257440303410698" />
    <synapse sourceNeuronName = "23" targetNeuronName = "30" weight = "0.37117969303342235" />
    <synapse sourceNeuronName = "23" targetNeuronName = "31" weight = "0.9524831541464844" />
    <synapse sourceNeuronName = "23" targetNeuronName = "32" weight = "0.35993007093988516" />
    <synapse sourceNeuronName = "24" targetNeuronName = "26" weight = "-0.505684087192946" />
    <synapse sourceNeuronName = "24" targetNeuronName = "27" weight = "-0.5211351754790798" />
    <synapse sourceNeuronName = "24" targetNeuronName = "28" weight = "-0.974055748716574" />
    <synapse sourceNeuronName = "24" targetNeuronName = "29" weight = "-0.3827173295189328" />
    <synapse sourceNeuronName = "24" targetNeuronName = "30" weight = "-0.24682456518511664" />
    <synapse sourceNeuronName = "24" targetNeuronName = "31" weight = "0.22181778899301285" />
    <synapse sourceNeuronName = "24" targetNeuronName = "32" weight = "-0.12166443238515101" />
    <synapse sourceNeuronName = "25" targetNeuronName = "26" weight = "0.7949264928525586" />
    <synapse sourceNeuronName = "25" targetNeuronName = "27" weight = "-0.28782424386568106" />
    <synapse sourceNeuronName = "25" targetNeuronName = "28" weight = "-0.13854123950696096" />
    <synapse sourceNeuronName = "25" targetNeuronName = "29" weight = "0.4317349077534536" />
    <synapse sourceNeuronName = "25" targetNeuronName = "30" weight = "0.990777444889261" />
    <synapse sourceNeuronName = "25" targetNeuronName = "31" weight = "0.05089710022872462" />
    <synapse sourceNeuronName = "25" targetNeuronName = "32" weight = "0.49223268108183493" />
    <synapse sourceNeuronName = "26" targetNeuronName = "7" weight = "0.7223494716579784" />
    <synapse sourceNeuronName = "26" targetNeuronName = "8" weight = "0.5008937074135078" />
    <synapse sourceNeuronName = "26" targetNeuronName = "9" weight = "-0.9907852414131071" />
    <synapse sourceNeuronName = "26" targetNeuronName = "10" weight = "-0.30686756356620437" />
    <synapse sourceNeuronName = "26" targetNeuronName = "11" weight = "-0.5050395841811728" />
    <synapse sourceNeuronName = "26" targetNeuronName = "12" weight = "0.7052333303493306" />
    <synapse sourceNeuronName = "26" targetNeuronName = "13" weight = "0.3467289212675142" />
    <synapse sourceNeuronName = "26" targetNeuronName = "14" weight = "-0.12658091076751" />
    <synapse sourceNeuronName = "26" targetNeuronName = "15" weight = "0.06178138361020902" />
    <synapse sourceNeuronName = "26" targetNeuronName = "16" weight = "-0.7183278075323762" />
    <synapse sourceNeuronName = "26" targetNeuronName = "17" weight = "0.2002738555167629" />
    <synapse sourceNeuronName = "26" targetNeuronName = "18" weight = "-0.9553872766832667" />
    <synapse sourceNeuronName = "27" targetNeuronName = "7" weight = "0.4127977512841041" />
    <synapse sourceNeuronName = "27" targetNeuronName = "8" weight = "0.8863260416078143" />
    <synapse sourceNeuronName = "27" targetNeuronName = "9" weight = "0.9680537650403338" />
    <synapse sourceNeuronName = "27" targetNeuronName = "10" weight = "0.9838935775598452" />
    <synapse sourceNeuronName = "27" targetNeuronName = "11" weight = "-0.30163125838378724" />
    <synapse sourceNeuronName = "27" targetNeuronName = "12" weight = "0.2896759522089667" />
    <synapse sourceNeuronName = "27" targetNeuronName = "13" weight = "0.4428933789310483" />
    <synapse sourceNeuronName = "27" targetNeuronName = "14" weight = "0.2706082200347546" />
    <synapse sourceNeuronName = "27" targetNeuronName = "15" weight = "0.7592419420750962" />
    <synapse sourceNeuronName = "27" targetNeuronName = "16" weight = "-0.23967952205807963" />
    <synapse sourceNeuronName = "27" targetNeuronName = "17" weight = "-0.3320780553501148" />
    <synapse sourceNeuronName = "27" targetNeuronName = "18" weight = "-0.8545525239717247" />
    <synapse sourceNeuronName = "28" targetNeuronName = "7" weight = "0.9184469528848529" />
    <synapse sourceNeuronName = "28" targetNeuronName = "8" weight = "0.9465461039077163" />
    <synapse sourceNeuronName = "28" targetNeuronName = "9" weight = "-0.0818853750227242" />
    <synapse sourceNeuronName = "28" targetNeuronName = "10" weight = "-0.5147310176054947" />
    <synapse sourceNeuronName = "28" targetNeuronName = "11" weight = "-0.6352699360451781" />
    <synapse sourceNeuronName = "28" targetNeuronName = "12" weight = "-0.22272494696826617" />
    <synapse sourceNeuronName = "28" targetNeuronName = "13" weight = "-0.03714965534272707" />
    <synapse sourceNeuronName = "28" targetNeuronName = "14" weight = "-0.2538721670623296" />
    <synapse sourceNeuronName = "28" targetNeuronName = "15" weight = "-0.1797899188954808" />
    <synapse sourceNeuronName = "28" targetNeuronName = "16" weight = "-0.3655284901206677" />
    <synapse sourceNeuronName = "28" targetNeuronName = "17" weight = "0.18789613209056943" />
    <synapse sourceNeuronName = "28" targetNeuronName = "18" weight = "-0.813583082305229" />
    <synapse sourceNeuronName = "29" targetNeuronName = "7" weight = "-0.2980982029646697" />
    <synapse sourceNeuronName = "29" targetNeuronName = "8" weight = "0.72870928473487" />
    <synapse sourceNeuronName = "29" targetNeuronName = "9" weight = "0.5581147541443832" />
    <synapse sourceNeuronName = "29" targetNeuronName = "10" weight = "-0.2987919766312377" />
    <synapse sourceNeuronName = "29" targetNeuronName = "11" weight = "0.37368732429581764" />
    <synapse sourceNeuronName = "29" targetNeuronName = "12" weight = "-0.9779122243725318" />
    <synapse sourceNeuronName = "29" targetNeuronName = "13" weight = "0.8921898522867922" />
    <synapse sourceNeuronName = "29" targetNeuronName = "14" weight = "0.5087517439987217" />
    <synapse sourceNeuronName = "29" targetNeuronName = "15" weight = "-0.009484308027848831" />
    <synapse sourceNeuronName = "29" targetNeuronName = "16" weight = "0.46511135518035496" />
    <synapse sourceNeuronName = "29" targetNeuronName = "17" weight = "-0.532745154635512" />
    <synapse sourceNeuronName = "29" targetNeuronName = "18" weight = "0.9404384183512358" />
    <synapse sourceNeuronName = "30" targetNeuronName = "7" weight = "0.07133735745739656" />
    <synapse sourceNeuronName = "30" targetNeuronName = "8" weight = "-0.255175102957484" />
    <synapse sourceNeuronName = "30" targetNeuronName = "9" weight = "-0.9333202570506816" />
    <synapse sourceNeuronName = "30" targetNeuronName = "10" weight = "-0.49421614429477745" />
    <synapse sourceNeuronName = "30" targetNeuronName = "11" weight = "-0.014141388717580528" />
    <synapse sourceNeuronName = "30" targetNeuronName = "12" weight = "0.4362310197541439" />
    <synapse sourceNeuronName = "30" targetNeuronName = "13" weight = "-0.38008339816287284" />
    <synapse sourceNeuronName = "30" targetNeuronName = "14" weight = "0.05485769960722697" />
    <synapse sourceNeuronName = "30" targetNeuronName = "15" weight = "-0.7746197287064363" />
    <synapse sourceNeuronName = "30" targetNeuronName = "16" weight = "-0.11191593267418076" />
    <synapse sourceNeuronName = "30" targetNeuronName = "17" weight = "-0.8589850903532372" />
    <synapse sourceNeuronName = "30" targetNeuronName = "18" weight = "0.2699876728667643" />
    <synapse sourceNeuronName = "31" targetNeuronName = "7" weight = "-0.023907508919601916" />
    <synapse sourceNeuronName = "31" targetNeuronName = "8" weight = "-0.24342272639422902" />
    <synapse sourceNeuronName = "31" targetNeuronName = "9" weight = "-0.08129743616912277" />
    <synapse sourceNeuronName = "31" targetNeuronName = "10" weight = "0.9691924307981918" />
    <synapse sourceNeuronName = "31" targetNeuronName = "11" weight = "0.5525832442118468" />
    <synapse sourceNeuronName = "31" targetNeuronName = "12" weight = "0.13736827039224542" />
    <synapse sourceNeuronName = "31" targetNeuronName = "13" weight = "-0.4604518552783241" />
    <synapse sourceNeuronName = "31" targetNeuronName = "14" weight = "0.13262279945098032" />
    <synapse sourceNeuronName = "31" targetNeuronName = "15" weight = "0.19927239988957424" />
    <synapse sourceNeuronName = "31" targetNeuronName = "16" weight = "-0.4986270979190788" />
    <synapse sourceNeuronName = "31" targetNeuronName = "17" weight = "0.6010225295860314" />
    <synapse sourceNeuronName = "31" targetNeuronName = "18" weight = "0.6144007914052751" />
    <synapse sourceNeuronName = "32" targetNeuronName = "7" weight = "-0.5880685867359059" />
    <synapse sourceNeuronName = "32" targetNeuronName = "8" weight = "-0.4472808473616383" />
    <synapse sourceNeuronName = "32" targetNeuronName = "9" weight = "-0.5842104907953414" />
    <synapse sourceNeuronName = "32" targetNeuronName = "10" weight = "0.48237864734410296" />
    <synapse sourceNeuronName = "32" targetNeuronName = "11" weight = "0.05545599044717231" />
    <synapse sourceNeuronName = "32" targetNeuronName = "12" weight = "0.07332117475356825" />
    <synapse sourceNeuronName = "32" targetNeuronName = "13" weight = "0.5974213891373188" />
    <synapse sourceNeuronName = "32" targetNeuronName = "14" weight = "0.9501966533255557" />
    <synapse sourceNeuronName = "32" targetNeuronName = "15" weight = "-0.19611308798033278" />
    <synapse sourceNeuronName = "32" targetNeuronName = "16" weight = "-0.7086922547201859" />
    <synapse sourceNeuronName = "32" targetNeuronName = "17" weight = "-0.36003485946659075" />
    <synapse sourceNeuronName = "32" targetNeuronName = "18" weight = "-0.23918252433992504" />
</neuralNetwork>