<neuralNetwork>
    <neuron name = "0" type = "sensor" linkName = "rootLink" />
    <neuron name = "1" type = "sensor" linkName = "link4NPP" />
    <neuron name = "2" type = "sensor" linkName = "link5NPP" />
    <neuron name = "3" type = "sensor" linkName = "link4NNP" />
    <neuron name = "4" type = "sensor" linkName = "link5NNP" />
    <neuron name = "5" type = "motor"  jointName = "rootLink_link1NPP" />
    <neuron name = "6" type = "motor"  jointName = "rootLink_link1NNP" />
    <neuron name = "7" type = "motor"  jointName = "link1NPP_link2NPP" />
    <neuron name = "8" type = "motor"  jointName = "link2NPP_link3NPP" />
    <neuron name = "9" type = "motor"  jointName = "link3NPP_link4NPP" />
    <neuron name = "10" type = "motor"  jointName = "link4NPP_link5NPP" />
    <neuron name = "11" type = "motor"  jointName = "link1NNP_link2NNP" />
    <neuron name = "12" type = "motor"  jointName = "link2NNP_link3NNP" />
    <neuron name = "13" type = "motor"  jointName = "link3NNP_link4NNP" />
    <neuron name = "14" type = "motor"  jointName = "link4NNP_link5NNP" />
    <synapse sourceNeuronName = "0" targetNeuronName = "5" weight = "-0.030507530772610147" />
    <synapse sourceNeuronName = "0" targetNeuronName = "6" weight = "-0.4313434262209357" />
    <synapse sourceNeuronName = "0" targetNeuronName = "7" weight = "0.07172604661723714" />
    <synapse sourceNeuronName = "0" targetNeuronName = "8" weight = "0.6915043167548844" />
    <synapse sourceNeuronName = "0" targetNeuronName = "9" weight = "0.2634001430219306" />
    <synapse sourceNeuronName = "0" targetNeuronName = "10" weight = "0.06705840983924105" />
    <synapse sourceNeuronName = "0" targetNeuronName = "11" weight = "-0.6995933135249977" />
    <synapse sourceNeuronName = "0" targetNeuronName = "12" weight = "0.4065925583221637" />
    <synapse sourceNeuronName = "0" targetNeuronName = "13" weight = "0.9880389610921587" />
    <synapse sourceNeuronName = "0" targetNeuronName = "14" weight = "-0.08918119193639207" />
    <synapse sourceNeuronName = "1" targetNeuronName = "5" weight = "-0.8232796309953041" />
    <synapse sourceNeuronName = "1" targetNeuronName = "6" weight = "-0.849280272558917" />
    <synapse sourceNeuronName = "1" targetNeuronName = "7" weight = "-0.00785668393965322" />
    <synapse sourceNeuronName = "1" targetNeuronName = "8" weight = "-0.6369730104804152" />
    <synapse sourceNeuronName = "1" targetNeuronName = "9" weight = "0.05777104444431491" />
    <synapse sourceNeuronName = "1" targetNeuronName = "10" weight = "-0.29573138956890155" />
    <synapse sourceNeuronName = "1" targetNeuronName = "11" weight = "-0.6870664671991886" />
    <synapse sourceNeuronName = "1" targetNeuronName = "12" weight = "-0.1848965004646932" />
    <synapse sourceNeuronName = "1" targetNeuronName = "13" weight = "-0.578061653400052" />
    <synapse sourceNeuronName = "1" targetNeuronName = "14" weight = "-0.8288599925194606" />
    <synapse sourceNeuronName = "2" targetNeuronName = "5" weight = "-0.02665444454644872" />
    <synapse sourceNeuronName = "2" targetNeuronName = "6" weight = "0.5843189963288553" />
    <synapse sourceNeuronName = "2" targetNeuronName = "7" weight = "-0.9493000653112083" />
    <synapse sourceNeuronName = "2" targetNeuronName = "8" weight = "-0.40646181035595497" />
    <synapse sourceNeuronName = "2" targetNeuronName = "9" weight = "0.816066391890568" />
    <synapse sourceNeuronName = "2" targetNeuronName = "10" weight = "-0.17980992034704424" />
    <synapse sourceNeuronName = "2" targetNeuronName = "11" weight = "-0.22104928739787866" />
    <synapse sourceNeuronName = "2" targetNeuronName = "12" weight = "0.9594210263632772" />
    <synapse sourceNeuronName = "2" targetNeuronName = "13" weight = "-0.07957524924818138" />
    <synapse sourceNeuronName = "2" targetNeuronName = "14" weight = "0.6578113674666963" />
    <synapse sourceNeuronName = "3" targetNeuronName = "5" weight = "0.6270454251132196" />
    <synapse sourceNeuronName = "3" targetNeuronName = "6" weight = "0.42130335640931516" />
    <synapse sourceNeuronName = "3" targetNeuronName = "7" weight = "0.09854743997139348" />
    <synapse sourceNeuronName = "3" targetNeuronName = "8" weight = "-0.9584892748254956" />
    <synapse sourceNeuronName = "3" targetNeuronName = "9" weight = "-0.3833725230216518" />
    <synapse sourceNeuronName = "3" targetNeuronName = "10" weight = "-0.836212764855196" />
    <synapse sourceNeuronName = "3" targetNeuronName = "11" weight = "-0.4757527743793364" />
    <synapse sourceNeuronName = "3" targetNeuronName = "12" weight = "0.6092724395495366" />
    <synapse sourceNeuronName = "3" targetNeuronName = "13" weight = "0.4559755755957775" />
    <synapse sourceNeuronName = "3" targetNeuronName = "14" weight = "0.5716151420719382" />
    <synapse sourceNeuronName = "4" targetNeuronName = "5" weight = "0.1674094160072912" />
    <synapse sourceNeuronName = "4" targetNeuronName = "6" weight = "0.2600973311370338" />
    <synapse sourceNeuronName = "4" targetNeuronName = "7" weight = "-0.6079917950818081" />
    <synapse sourceNeuronName = "4" targetNeuronName = "8" weight = "-0.26007275420860587" />
    <synapse sourceNeuronName = "4" targetNeuronName = "9" weight = "-0.7827714851551169" />
    <synapse sourceNeuronName = "4" targetNeuronName = "10" weight = "-0.125300886062651" />
    <synapse sourceNeuronName = "4" targetNeuronName = "11" weight = "0.7531784418969072" />
    <synapse sourceNeuronName = "4" targetNeuronName = "12" weight = "0.30486266485877467" />
    <synapse sourceNeuronName = "4" targetNeuronName = "13" weight = "0.18176608263975713" />
    <synapse sourceNeuronName = "4" targetNeuronName = "14" weight = "-0.6697931736665184" />
</neuralNetwork>