<neuralNetwork>
    <neuron name = "0" type = "sensor" linkName = "rootLink" />
    <neuron name = "1" type = "sensor" linkName = "link2NPP" />
    <neuron name = "2" type = "sensor" linkName = "link2NNP" />
    <neuron name = "3" type = "motor"  jointName = "rootLink_link1NPP" />
    <neuron name = "4" type = "motor"  jointName = "rootLink_link1NNP" />
    <neuron name = "5" type = "motor"  jointName = "link1NPP_link2NPP" />
    <neuron name = "6" type = "motor"  jointName = "link2NPP_link3NPP" />
    <neuron name = "7" type = "motor"  jointName = "link3NPP_link4NPP" />
    <neuron name = "8" type = "motor"  jointName = "link1NNP_link2NNP" />
    <neuron name = "9" type = "motor"  jointName = "link2NNP_link3NNP" />
    <neuron name = "10" type = "motor"  jointName = "link3NNP_link4NNP" />
    <neuron name = "11" type = "hidden" />
    <neuron name = "12" type = "hidden" />
    <neuron name = "13" type = "hidden" />
    <neuron name = "14" type = "hidden" />
    <neuron name = "15" type = "hidden" />
    <neuron name = "16" type = "hidden" />
    <neuron name = "17" type = "hidden" />
    <neuron name = "18" type = "hidden" />
    <neuron name = "19" type = "hidden" />
    <synapse sourceNeuronName = "0" targetNeuronName = "11" weight = "0.7268760647050223" />
    <synapse sourceNeuronName = "0" targetNeuronName = "12" weight = "0.09361897506221029" />
    <synapse sourceNeuronName = "0" targetNeuronName = "13" weight = "-0.765425706161061" />
    <synapse sourceNeuronName = "1" targetNeuronName = "11" weight = "-0.3015582456457915" />
    <synapse sourceNeuronName = "1" targetNeuronName = "12" weight = "-0.387283622380469" />
    <synapse sourceNeuronName = "1" targetNeuronName = "13" weight = "0.9829805982844109" />
    <synapse sourceNeuronName = "2" targetNeuronName = "11" weight = "-0.1623828916144483" />
    <synapse sourceNeuronName = "2" targetNeuronName = "12" weight = "0.2642311025259998" />
    <synapse sourceNeuronName = "2" targetNeuronName = "13" weight = "-0.3034126926315053" />
    <synapse sourceNeuronName = "11" targetNeuronName = "14" weight = "0.6858388486913121" />
    <synapse sourceNeuronName = "11" targetNeuronName = "15" weight = "-0.020584661489902567" />
    <synapse sourceNeuronName = "11" targetNeuronName = "16" weight = "0.03999963625805858" />
    <synapse sourceNeuronName = "12" targetNeuronName = "14" weight = "0.7383967086586973" />
    <synapse sourceNeuronName = "12" targetNeuronName = "15" weight = "-0.5697109052850722" />
    <synapse sourceNeuronName = "12" targetNeuronName = "16" weight = "-0.16133650567042834" />
    <synapse sourceNeuronName = "13" targetNeuronName = "14" weight = "0.3651203506141001" />
    <synapse sourceNeuronName = "13" targetNeuronName = "15" weight = "0.2369718109622896" />
    <synapse sourceNeuronName = "13" targetNeuronName = "16" weight = "0.35184611994266857" />
    <synapse sourceNeuronName = "14" targetNeuronName = "17" weight = "0.9273051761329654" />
    <synapse sourceNeuronName = "14" targetNeuronName = "18" weight = "-0.47990912826711307" />
    <synapse sourceNeuronName = "14" targetNeuronName = "19" weight = "-0.4267286685803735" />
    <synapse sourceNeuronName = "15" targetNeuronName = "17" weight = "0.689631164416991" />
    <synapse sourceNeuronName = "15" targetNeuronName = "18" weight = "-0.05656573861984038" />
    <synapse sourceNeuronName = "15" targetNeuronName = "19" weight = "-0.9876914339948131" />
    <synapse sourceNeuronName = "16" targetNeuronName = "17" weight = "0.791895530577347" />
    <synapse sourceNeuronName = "16" targetNeuronName = "18" weight = "0.7774937523287455" />
    <synapse sourceNeuronName = "16" targetNeuronName = "19" weight = "-0.23248403994953648" />
    <synapse sourceNeuronName = "17" targetNeuronName = "3" weight = "-0.22516682760500162" />
    <synapse sourceNeuronName = "17" targetNeuronName = "4" weight = "0.9310301917020121" />
    <synapse sourceNeuronName = "17" targetNeuronName = "5" weight = "-0.32909102475734975" />
    <synapse sourceNeuronName = "17" targetNeuronName = "6" weight = "-0.7531064724898697" />
    <synapse sourceNeuronName = "17" targetNeuronName = "7" weight = "0.3490555490777101" />
    <synapse sourceNeuronName = "17" targetNeuronName = "8" weight = "-0.47735692938823604" />
    <synapse sourceNeuronName = "17" targetNeuronName = "9" weight = "-0.6590950587129585" />
    <synapse sourceNeuronName = "17" targetNeuronName = "10" weight = "0.35747635007817036" />
    <synapse sourceNeuronName = "18" targetNeuronName = "3" weight = "-0.8490464943717273" />
    <synapse sourceNeuronName = "18" targetNeuronName = "4" weight = "0.9836079892376273" />
    <synapse sourceNeuronName = "18" targetNeuronName = "5" weight = "-0.532793506863394" />
    <synapse sourceNeuronName = "18" targetNeuronName = "6" weight = "-0.2711083761267312" />
    <synapse sourceNeuronName = "18" targetNeuronName = "7" weight = "0.8709427171858977" />
    <synapse sourceNeuronName = "18" targetNeuronName = "8" weight = "0.24157304144349379" />
    <synapse sourceNeuronName = "18" targetNeuronName = "9" weight = "-0.9807857159584386" />
    <synapse sourceNeuronName = "18" targetNeuronName = "10" weight = "0.8487756617434701" />
    <synapse sourceNeuronName = "19" targetNeuronName = "3" weight = "-0.34297516614293344" />
    <synapse sourceNeuronName = "19" targetNeuronName = "4" weight = "-0.7193256579609657" />
    <synapse sourceNeuronName = "19" targetNeuronName = "5" weight = "-0.489265916803473" />
    <synapse sourceNeuronName = "19" targetNeuronName = "6" weight = "0.1202259737981155" />
    <synapse sourceNeuronName = "19" targetNeuronName = "7" weight = "0.5228955106394746" />
    <synapse sourceNeuronName = "19" targetNeuronName = "8" weight = "0.0849635250594325" />
    <synapse sourceNeuronName = "19" targetNeuronName = "9" weight = "-0.03207366168494841" />
    <synapse sourceNeuronName = "19" targetNeuronName = "10" weight = "0.5116299744573136" />
</neuralNetwork>