<neuralNetwork>
    <neuron name = "0" type = "sensor" linkName = "rootLink" />
    <neuron name = "1" type = "sensor" linkName = "link1NPP" />
    <neuron name = "2" type = "sensor" linkName = "link3NPP" />
    <neuron name = "3" type = "sensor" linkName = "link4NPP" />
    <neuron name = "4" type = "sensor" linkName = "link5NPP" />
    <neuron name = "5" type = "sensor" linkName = "link1NNP" />
    <neuron name = "6" type = "sensor" linkName = "link3NNP" />
    <neuron name = "7" type = "sensor" linkName = "link4NNP" />
    <neuron name = "8" type = "sensor" linkName = "link5NNP" />
    <neuron name = "9" type = "motor"  jointName = "rootLink_link1NPP" />
    <neuron name = "10" type = "motor"  jointName = "rootLink_link1NNP" />
    <neuron name = "11" type = "motor"  jointName = "link1NPP_link2NPP" />
    <neuron name = "12" type = "motor"  jointName = "link2NPP_link3NPP" />
    <neuron name = "13" type = "motor"  jointName = "link3NPP_link4NPP" />
    <neuron name = "14" type = "motor"  jointName = "link4NPP_link5NPP" />
    <neuron name = "15" type = "motor"  jointName = "link1NNP_link2NNP" />
    <neuron name = "16" type = "motor"  jointName = "link2NNP_link3NNP" />
    <neuron name = "17" type = "motor"  jointName = "link3NNP_link4NNP" />
    <neuron name = "18" type = "motor"  jointName = "link4NNP_link5NNP" />
    <neuron name = "19" type = "hidden" />
    <neuron name = "20" type = "hidden" />
    <neuron name = "21" type = "hidden" />
    <neuron name = "22" type = "hidden" />
    <neuron name = "23" type = "hidden" />
    <neuron name = "24" type = "hidden" />
    <neuron name = "25" type = "hidden" />
    <neuron name = "26" type = "hidden" />
    <neuron name = "27" type = "hidden" />
    <neuron name = "28" type = "hidden" />
    <neuron name = "29" type = "hidden" />
    <neuron name = "30" type = "hidden" />
    <neuron name = "31" type = "hidden" />
    <neuron name = "32" type = "hidden" />
    <neuron name = "33" type = "hidden" />
    <neuron name = "34" type = "hidden" />
    <neuron name = "35" type = "hidden" />
    <neuron name = "36" type = "hidden" />
    <neuron name = "37" type = "hidden" />
    <neuron name = "38" type = "hidden" />
    <neuron name = "39" type = "hidden" />
    <neuron name = "40" type = "hidden" />
    <neuron name = "41" type = "hidden" />
    <neuron name = "42" type = "hidden" />
    <neuron name = "43" type = "hidden" />
    <neuron name = "44" type = "hidden" />
    <neuron name = "45" type = "hidden" />
    <synapse sourceNeuronName = "0" targetNeuronName = "19" weight = "0.4406444202470885" />
    <synapse sourceNeuronName = "0" targetNeuronName = "20" weight = "0.05263623208942114" />
    <synapse sourceNeuronName = "0" targetNeuronName = "21" weight = "-0.11416833732748977" />
    <synapse sourceNeuronName = "0" targetNeuronName = "22" weight = "0.5563611355091411" />
    <synapse sourceNeuronName = "0" targetNeuronName = "23" weight = "-0.28251329440348516" />
    <synapse sourceNeuronName = "0" targetNeuronName = "24" weight = "0.7066991970278131" />
    <synapse sourceNeuronName = "0" targetNeuronName = "25" weight = "0.9243449943136572" />
    <synapse sourceNeuronName = "0" targetNeuronName = "26" weight = "0.9582509871489799" />
    <synapse sourceNeuronName = "0" targetNeuronName = "27" weight = "-0.4447439954394854" />
    <synapse sourceNeuronName = "1" targetNeuronName = "19" weight = "-0.16998592723040984" />
    <synapse sourceNeuronName = "1" targetNeuronName = "20" weight = "0.45001976863471027" />
    <synapse sourceNeuronName = "1" targetNeuronName = "21" weight = "0.7897318680259089" />
    <synapse sourceNeuronName = "1" targetNeuronName = "22" weight = "0.42262222020932905" />
    <synapse sourceNeuronName = "1" targetNeuronName = "23" weight = "0.5162645655581006" />
    <synapse sourceNeuronName = "1" targetNeuronName = "24" weight = "0.7668073039355434" />
    <synapse sourceNeuronName = "1" targetNeuronName = "25" weight = "-0.2661035236997664" />
    <synapse sourceNeuronName = "1" targetNeuronName = "26" weight = "0.08508988329431455" />
    <synapse sourceNeuronName = "1" targetNeuronName = "27" weight = "0.0695399511654915" />
    <synapse sourceNeuronName = "2" targetNeuronName = "19" weight = "0.2951651604085903" />
    <synapse sourceNeuronName = "2" targetNeuronName = "20" weight = "0.7903677594482554" />
    <synapse sourceNeuronName = "2" targetNeuronName = "21" weight = "0.20165495225226704" />
    <synapse sourceNeuronName = "2" targetNeuronName = "22" weight = "0.9398770754320076" />
    <synapse sourceNeuronName = "2" targetNeuronName = "23" weight = "0.46427110953049633" />
    <synapse sourceNeuronName = "2" targetNeuronName = "24" weight = "-0.1694170168908351" />
    <synapse sourceNeuronName = "2" targetNeuronName = "25" weight = "0.16227692032817864" />
    <synapse sourceNeuronName = "2" targetNeuronName = "26" weight = "0.8446415648340877" />
    <synapse sourceNeuronName = "2" targetNeuronName = "27" weight = "0.23700076785394653" />
    <synapse sourceNeuronName = "3" targetNeuronName = "19" weight = "0.4198572068367239" />
    <synapse sourceNeuronName = "3" targetNeuronName = "20" weight = "0.32258406418896013" />
    <synapse sourceNeuronName = "3" targetNeuronName = "21" weight = "-0.3277071222008747" />
    <synapse sourceNeuronName = "3" targetNeuronName = "22" weight = "-0.5933302897546036" />
    <synapse sourceNeuronName = "3" targetNeuronName = "23" weight = "-0.18437407479915935" />
    <synapse sourceNeuronName = "3" targetNeuronName = "24" weight = "-0.6984603877365325" />
    <synapse sourceNeuronName = "3" targetNeuronName = "25" weight = "0.6526670954420308" />
    <synapse sourceNeuronName = "3" targetNeuronName = "26" weight = "0.42092122700162826" />
    <synapse sourceNeuronName = "3" targetNeuronName = "27" weight = "-0.1978876211789682" />
    <synapse sourceNeuronName = "4" targetNeuronName = "19" weight = "-0.6572346078233584" />
    <synapse sourceNeuronName = "4" targetNeuronName = "20" weight = "0.751598679772099" />
    <synapse sourceNeuronName = "4" targetNeuronName = "21" weight = "0.27812781207605464" />
    <synapse sourceNeuronName = "4" targetNeuronName = "22" weight = "0.9932056399630929" />
    <synapse sourceNeuronName = "4" targetNeuronName = "23" weight = "-0.7978042208045095" />
    <synapse sourceNeuronName = "4" targetNeuronName = "24" weight = "-0.5103032817354751" />
    <synapse sourceNeuronName = "4" targetNeuronName = "25" weight = "-0.8326901316738764" />
    <synapse sourceNeuronName = "4" targetNeuronName = "26" weight = "0.4894835515193894" />
    <synapse sourceNeuronName = "4" targetNeuronName = "27" weight = "-0.6808493810859153" />
    <synapse sourceNeuronName = "5" targetNeuronName = "19" weight = "0.7633190678700312" />
    <synapse sourceNeuronName = "5" targetNeuronName = "20" weight = "-0.017040946922205036" />
    <synapse sourceNeuronName = "5" targetNeuronName = "21" weight = "0.0523385253370261" />
    <synapse sourceNeuronName = "5" targetNeuronName = "22" weight = "-0.9149594224179916" />
    <synapse sourceNeuronName = "5" targetNeuronName = "23" weight = "0.22810727146325394" />
    <synapse sourceNeuronName = "5" targetNeuronName = "24" weight = "-0.5447704218098655" />
    <synapse sourceNeuronName = "5" targetNeuronName = "25" weight = "-0.5729918213059688" />
    <synapse sourceNeuronName = "5" targetNeuronName = "26" weight = "0.7906371378483832" />
    <synapse sourceNeuronName = "5" targetNeuronName = "27" weight = "0.7760266979939834" />
    <synapse sourceNeuronName = "6" targetNeuronName = "19" weight = "-0.989469631347361" />
    <synapse sourceNeuronName = "6" targetNeuronName = "20" weight = "0.6646079191722041" />
    <synapse sourceNeuronName = "6" targetNeuronName = "21" weight = "0.8045976800391119" />
    <synapse sourceNeuronName = "6" targetNeuronName = "22" weight = "0.023895316184947335" />
    <synapse sourceNeuronName = "6" targetNeuronName = "23" weight = "0.31234763610277416" />
    <synapse sourceNeuronName = "6" targetNeuronName = "24" weight = "0.5355713678668945" />
    <synapse sourceNeuronName = "6" targetNeuronName = "25" weight = "0.3708799495051367" />
    <synapse sourceNeuronName = "6" targetNeuronName = "26" weight = "-0.08176716071464152" />
    <synapse sourceNeuronName = "6" targetNeuronName = "27" weight = "0.14690446396541645" />
    <synapse sourceNeuronName = "7" targetNeuronName = "19" weight = "0.14811886346087788" />
    <synapse sourceNeuronName = "7" targetNeuronName = "20" weight = "0.6842610400485094" />
    <synapse sourceNeuronName = "7" targetNeuronName = "21" weight = "-0.5191165847617123" />
    <synapse sourceNeuronName = "7" targetNeuronName = "22" weight = "0.5144529325314078" />
    <synapse sourceNeuronName = "7" targetNeuronName = "23" weight = "0.6246742194366677" />
    <synapse sourceNeuronName = "7" targetNeuronName = "24" weight = "0.5940647222899496" />
    <synapse sourceNeuronName = "7" targetNeuronName = "25" weight = "0.6154156379839686" />
    <synapse sourceNeuronName = "7" targetNeuronName = "26" weight = "0.6585600447731088" />
    <synapse sourceNeuronName = "7" targetNeuronName = "27" weight = "-0.16496849739552122" />
    <synapse sourceNeuronName = "8" targetNeuronName = "19" weight = "0.23577347120108527" />
    <synapse sourceNeuronName = "8" targetNeuronName = "20" weight = "0.5104910322937171" />
    <synapse sourceNeuronName = "8" targetNeuronName = "21" weight = "0.5395311386833668" />
    <synapse sourceNeuronName = "8" targetNeuronName = "22" weight = "0.9172092458510717" />
    <synapse sourceNeuronName = "8" targetNeuronName = "23" weight = "0.95015055118401" />
    <synapse sourceNeuronName = "8" targetNeuronName = "24" weight = "0.12946918381808148" />
    <synapse sourceNeuronName = "8" targetNeuronName = "25" weight = "-0.06852186251618897" />
    <synapse sourceNeuronName = "8" targetNeuronName = "26" weight = "0.6710506533728431" />
    <synapse sourceNeuronName = "8" targetNeuronName = "27" weight = "-0.560078152086686" />
    <synapse sourceNeuronName = "19" targetNeuronName = "28" weight = "0.5327961789217879" />
    <synapse sourceNeuronName = "19" targetNeuronName = "29" weight = "-0.6159768017464524" />
    <synapse sourceNeuronName = "19" targetNeuronName = "30" weight = "0.18325513190613485" />
    <synapse sourceNeuronName = "19" targetNeuronName = "31" weight = "0.2136629132511343" />
    <synapse sourceNeuronName = "19" targetNeuronName = "32" weight = "-0.11631239439564633" />
    <synapse sourceNeuronName = "19" targetNeuronName = "33" weight = "0.7291013056159952" />
    <synapse sourceNeuronName = "19" targetNeuronName = "34" weight = "0.08696437228353915" />
    <synapse sourceNeuronName = "19" targetNeuronName = "35" weight = "-0.014540578150846972" />
    <synapse sourceNeuronName = "19" targetNeuronName = "36" weight = "-0.16374872865988555" />
    <synapse sourceNeuronName = "20" targetNeuronName = "28" weight = "-0.8755496332272956" />
    <synapse sourceNeuronName = "20" targetNeuronName = "29" weight = "-0.2757010801462114" />
    <synapse sourceNeuronName = "20" targetNeuronName = "30" weight = "-0.8143692836117222" />
    <synapse sourceNeuronName = "20" targetNeuronName = "31" weight = "0.13127699935210968" />
    <synapse sourceNeuronName = "20" targetNeuronName = "32" weight = "0.2810032631151813" />
    <synapse sourceNeuronName = "20" targetNeuronName = "33" weight = "0.5355645252363195" />
    <synapse sourceNeuronName = "20" targetNeuronName = "34" weight = "0.2650705126882855" />
    <synapse sourceNeuronName = "20" targetNeuronName = "35" weight = "-0.6258784896490748" />
    <synapse sourceNeuronName = "20" targetNeuronName = "36" weight = "0.5004879015582326" />
    <synapse sourceNeuronName = "21" targetNeuronName = "28" weight = "0.09771880086157281" />
    <synapse sourceNeuronName = "21" targetNeuronName = "29" weight = "-0.7956592813312202" />
    <synapse sourceNeuronName = "21" targetNeuronName = "30" weight = "-0.950345941624184" />
    <synapse sourceNeuronName = "21" targetNeuronName = "31" weight = "-0.40250761523331047" />
    <synapse sourceNeuronName = "21" targetNeuronName = "32" weight = "0.38003005852985017" />
    <synapse sourceNeuronName = "21" targetNeuronName = "33" weight = "0.8655767008882713" />
    <synapse sourceNeuronName = "21" targetNeuronName = "34" weight = "0.932994401360439" />
    <synapse sourceNeuronName = "21" targetNeuronName = "35" weight = "0.5290961786692934" />
    <synapse sourceNeuronName = "21" targetNeuronName = "36" weight = "-0.413501628586211" />
    <synapse sourceNeuronName = "22" targetNeuronName = "28" weight = "0.24413825054593374" />
    <synapse sourceNeuronName = "22" targetNeuronName = "29" weight = "-0.5378077449263488" />
    <synapse sourceNeuronName = "22" targetNeuronName = "30" weight = "0.5013807433033435" />
    <synapse sourceNeuronName = "22" targetNeuronName = "31" weight = "-0.6682659410409442" />
    <synapse sourceNeuronName = "22" targetNeuronName = "32" weight = "0.5129407710482052" />
    <synapse sourceNeuronName = "22" targetNeuronName = "33" weight = "0.7371779978609629" />
    <synapse sourceNeuronName = "22" targetNeuronName = "34" weight = "0.03901270717291405" />
    <synapse sourceNeuronName = "22" targetNeuronName = "35" weight = "-0.8687303234829915" />
    <synapse sourceNeuronName = "22" targetNeuronName = "36" weight = "-0.10221595850840859" />
    <synapse sourceNeuronName = "23" targetNeuronName = "28" weight = "0.6756572227596349" />
    <synapse sourceNeuronName = "23" targetNeuronName = "29" weight = "-0.640494693139892" />
    <synapse sourceNeuronName = "23" targetNeuronName = "30" weight = "-0.9228818774744101" />
    <synapse sourceNeuronName = "23" targetNeuronName = "31" weight = "0.46538714895836475" />
    <synapse sourceNeuronName = "23" targetNeuronName = "32" weight = "0.12608144714679015" />
    <synapse sourceNeuronName = "23" targetNeuronName = "33" weight = "-0.9158787471015346" />
    <synapse sourceNeuronName = "23" targetNeuronName = "34" weight = "0.9697705281166031" />
    <synapse sourceNeuronName = "23" targetNeuronName = "35" weight = "0.13866477496745433" />
    <synapse sourceNeuronName = "23" targetNeuronName = "36" weight = "0.1703133459253079" />
    <synapse sourceNeuronName = "24" targetNeuronName = "28" weight = "0.5798132837328882" />
    <synapse sourceNeuronName = "24" targetNeuronName = "29" weight = "0.8052693413726175" />
    <synapse sourceNeuronName = "24" targetNeuronName = "30" weight = "-0.8784985273406118" />
    <synapse sourceNeuronName = "24" targetNeuronName = "31" weight = "-0.30297358122236906" />
    <synapse sourceNeuronName = "24" targetNeuronName = "32" weight = "-0.5998162738632147" />
    <synapse sourceNeuronName = "24" targetNeuronName = "33" weight = "-0.06969693669008281" />
    <synapse sourceNeuronName = "24" targetNeuronName = "34" weight = "-0.8170641160687702" />
    <synapse sourceNeuronName = "24" targetNeuronName = "35" weight = "-0.8638284515205528" />
    <synapse sourceNeuronName = "24" targetNeuronName = "36" weight = "-0.39822113373943235" />
    <synapse sourceNeuronName = "25" targetNeuronName = "28" weight = "0.8086905155437025" />
    <synapse sourceNeuronName = "25" targetNeuronName = "29" weight = "0.9510839557749924" />
    <synapse sourceNeuronName = "25" targetNeuronName = "30" weight = "0.5274400635667893" />
    <synapse sourceNeuronName = "25" targetNeuronName = "31" weight = "-0.9985181740789022" />
    <synapse sourceNeuronName = "25" targetNeuronName = "32" weight = "0.47043110847246794" />
    <synapse sourceNeuronName = "25" targetNeuronName = "33" weight = "-0.9560149800299504" />
    <synapse sourceNeuronName = "25" targetNeuronName = "34" weight = "-0.6628686354898781" />
    <synapse sourceNeuronName = "25" targetNeuronName = "35" weight = "-0.9789719834309396" />
    <synapse sourceNeuronName = "25" targetNeuronName = "36" weight = "-0.7017460024654758" />
    <synapse sourceNeuronName = "26" targetNeuronName = "28" weight = "0.37501105032204607" />
    <synapse sourceNeuronName = "26" targetNeuronName = "29" weight = "0.4040337506827132" />
    <synapse sourceNeuronName = "26" targetNeuronName = "30" weight = "-0.2578451867562863" />
    <synapse sourceNeuronName = "26" targetNeuronName = "31" weight = "0.46238164840072926" />
    <synapse sourceNeuronName = "26" targetNeuronName = "32" weight = "0.6946084108492772" />
    <synapse sourceNeuronName = "26" targetNeuronName = "33" weight = "-0.7392849711168998" />
    <synapse sourceNeuronName = "26" targetNeuronName = "34" weight = "-0.825185367676512" />
    <synapse sourceNeuronName = "26" targetNeuronName = "35" weight = "-0.2561570869721945" />
    <synapse sourceNeuronName = "26" targetNeuronName = "36" weight = "-0.19223272489765209" />
    <synapse sourceNeuronName = "27" targetNeuronName = "28" weight = "-0.4471915602792593" />
    <synapse sourceNeuronName = "27" targetNeuronName = "29" weight = "0.5083363718888936" />
    <synapse sourceNeuronName = "27" targetNeuronName = "30" weight = "-0.3564275988952157" />
    <synapse sourceNeuronName = "27" targetNeuronName = "31" weight = "0.6002886238349991" />
    <synapse sourceNeuronName = "27" targetNeuronName = "32" weight = "0.8226167085472922" />
    <synapse sourceNeuronName = "27" targetNeuronName = "33" weight = "0.02629801508243168" />
    <synapse sourceNeuronName = "27" targetNeuronName = "34" weight = "-0.14115594063869574" />
    <synapse sourceNeuronName = "27" targetNeuronName = "35" weight = "-0.8168103956569095" />
    <synapse sourceNeuronName = "27" targetNeuronName = "36" weight = "-0.45264539239006707" />
    <synapse sourceNeuronName = "28" targetNeuronName = "37" weight = "0.773295629091709" />
    <synapse sourceNeuronName = "28" targetNeuronName = "38" weight = "-0.5081113174528942" />
    <synapse sourceNeuronName = "28" targetNeuronName = "39" weight = "0.24237877374174954" />
    <synapse sourceNeuronName = "28" targetNeuronName = "40" weight = "-0.00998520831439853" />
    <synapse sourceNeuronName = "28" targetNeuronName = "41" weight = "-0.8112549281315713" />
    <synapse sourceNeuronName = "28" targetNeuronName = "42" weight = "0.7987370627857522" />
    <synapse sourceNeuronName = "28" targetNeuronName = "43" weight = "-0.8644583350837725" />
    <synapse sourceNeuronName = "28" targetNeuronName = "44" weight = "0.3614046509331621" />
    <synapse sourceNeuronName = "28" targetNeuronName = "45" weight = "0.9439962799687687" />
    <synapse sourceNeuronName = "29" targetNeuronName = "37" weight = "0.41874758164148806" />
    <synapse sourceNeuronName = "29" targetNeuronName = "38" weight = "-0.3481825590832488" />
    <synapse sourceNeuronName = "29" targetNeuronName = "39" weight = "-0.8531196672640027" />
    <synapse sourceNeuronName = "29" targetNeuronName = "40" weight = "0.15947409409468682" />
    <synapse sourceNeuronName = "29" targetNeuronName = "41" weight = "0.4670340365061867" />
    <synapse sourceNeuronName = "29" targetNeuronName = "42" weight = "-0.2823079326929183" />
    <synapse sourceNeuronName = "29" targetNeuronName = "43" weight = "0.30750294502060616" />
    <synapse sourceNeuronName = "29" targetNeuronName = "44" weight = "0.1331828163969171" />
    <synapse sourceNeuronName = "29" targetNeuronName = "45" weight = "-0.9317871652033403" />
    <synapse sourceNeuronName = "30" targetNeuronName = "37" weight = "0.841388906097533" />
    <synapse sourceNeuronName = "30" targetNeuronName = "38" weight = "-0.2399883930950415" />
    <synapse sourceNeuronName = "30" targetNeuronName = "39" weight = "-0.2411961120062298" />
    <synapse sourceNeuronName = "30" targetNeuronName = "40" weight = "0.692711751595342" />
    <synapse sourceNeuronName = "30" targetNeuronName = "41" weight = "-0.03144419600637205" />
    <synapse sourceNeuronName = "30" targetNeuronName = "42" weight = "-0.0978624114733937" />
    <synapse sourceNeuronName = "30" targetNeuronName = "43" weight = "0.2797134306886937" />
    <synapse sourceNeuronName = "30" targetNeuronName = "44" weight = "-0.5764574184223299" />
    <synapse sourceNeuronName = "30" targetNeuronName = "45" weight = "0.056601385394508874" />
    <synapse sourceNeuronName = "31" targetNeuronName = "37" weight = "0.3371370488314689" />
    <synapse sourceNeuronName = "31" targetNeuronName = "38" weight = "0.07755339996580979" />
    <synapse sourceNeuronName = "31" targetNeuronName = "39" weight = "0.4175222750161329" />
    <synapse sourceNeuronName = "31" targetNeuronName = "40" weight = "0.1970729839262757" />
    <synapse sourceNeuronName = "31" targetNeuronName = "41" weight = "0.6828110673995162" />
    <synapse sourceNeuronName = "31" targetNeuronName = "42" weight = "0.7583415256028834" />
    <synapse sourceNeuronName = "31" targetNeuronName = "43" weight = "-0.8043215939345825" />
    <synapse sourceNeuronName = "31" targetNeuronName = "44" weight = "-0.482812010955846" />
    <synapse sourceNeuronName = "31" targetNeuronName = "45" weight = "-0.8906876891613553" />
    <synapse sourceNeuronName = "32" targetNeuronName = "37" weight = "-0.5422162644623376" />
    <synapse sourceNeuronName = "32" targetNeuronName = "38" weight = "0.4418334142242206" />
    <synapse sourceNeuronName = "32" targetNeuronName = "39" weight = "-0.842909521014755" />
    <synapse sourceNeuronName = "32" targetNeuronName = "40" weight = "-0.6897609738999271" />
    <synapse sourceNeuronName = "32" targetNeuronName = "41" weight = "0.5415366548515272" />
    <synapse sourceNeuronName = "32" targetNeuronName = "42" weight = "-0.11134964525444269" />
    <synapse sourceNeuronName = "32" targetNeuronName = "43" weight = "-0.41975852461535745" />
    <synapse sourceNeuronName = "32" targetNeuronName = "44" weight = "0.2879693925459319" />
    <synapse sourceNeuronName = "32" targetNeuronName = "45" weight = "0.7738768090967529" />
    <synapse sourceNeuronName = "33" targetNeuronName = "37" weight = "-0.9247891192484554" />
    <synapse sourceNeuronName = "33" targetNeuronName = "38" weight = "0.38618868900275927" />
    <synapse sourceNeuronName = "33" targetNeuronName = "39" weight = "0.337101448045781" />
    <synapse sourceNeuronName = "33" targetNeuronName = "40" weight = "0.7360241971951611" />
    <synapse sourceNeuronName = "33" targetNeuronName = "41" weight = "-0.6072559199529981" />
    <synapse sourceNeuronName = "33" targetNeuronName = "42" weight = "0.4255852590679412" />
    <synapse sourceNeuronName = "33" targetNeuronName = "43" weight = "-0.7921977834894254" />
    <synapse sourceNeuronName = "33" targetNeuronName = "44" weight = "-0.8867472864119843" />
    <synapse sourceNeuronName = "33" targetNeuronName = "45" weight = "0.3615920685157381" />
    <synapse sourceNeuronName = "34" targetNeuronName = "37" weight = "-0.9547305717327141" />
    <synapse sourceNeuronName = "34" targetNeuronName = "38" weight = "-0.9114018223957525" />
    <synapse sourceNeuronName = "34" targetNeuronName = "39" weight = "-0.926093954453328" />
    <synapse sourceNeuronName = "34" targetNeuronName = "40" weight = "-0.06917898253332755" />
    <synapse sourceNeuronName = "34" targetNeuronName = "41" weight = "0.5157388884893421" />
    <synapse sourceNeuronName = "34" targetNeuronName = "42" weight = "0.984398447379875" />
    <synapse sourceNeuronName = "34" targetNeuronName = "43" weight = "-0.5467846068918754" />
    <synapse sourceNeuronName = "34" targetNeuronName = "44" weight = "0.5847604505410546" />
    <synapse sourceNeuronName = "34" targetNeuronName = "45" weight = "0.5904917283593791" />
    <synapse sourceNeuronName = "35" targetNeuronName = "37" weight = "0.7444854186843366" />
    <synapse sourceNeuronName = "35" targetNeuronName = "38" weight = "-0.3714880194092238" />
    <synapse sourceNeuronName = "35" targetNeuronName = "39" weight = "-0.7341498897255785" />
    <synapse sourceNeuronName = "35" targetNeuronName = "40" weight = "0.5934031599682863" />
    <synapse sourceNeuronName = "35" targetNeuronName = "41" weight = "0.13492667533581248" />
    <synapse sourceNeuronName = "35" targetNeuronName = "42" weight = "-0.17069214639825803" />
    <synapse sourceNeuronName = "35" targetNeuronName = "43" weight = "-0.8827166456280584" />
    <synapse sourceNeuronName = "35" targetNeuronName = "44" weight = "-0.9868862492281314" />
    <synapse sourceNeuronName = "35" targetNeuronName = "45" weight = "-0.36795307339083205" />
    <synapse sourceNeuronName = "36" targetNeuronName = "37" weight = "-0.45708242933423726" />
    <synapse sourceNeuronName = "36" targetNeuronName = "38" weight = "-0.04855274537926113" />
    <synapse sourceNeuronName = "36" targetNeuronName = "39" weight = "0.8472237294043967" />
    <synapse sourceNeuronName = "36" targetNeuronName = "40" weight = "-0.16663102787867623" />
    <synapse sourceNeuronName = "36" targetNeuronName = "41" weight = "-0.4242322582411766" />
    <synapse sourceNeuronName = "36" targetNeuronName = "42" weight = "0.6904930664931126" />
    <synapse sourceNeuronName = "36" targetNeuronName = "43" weight = "-0.3861002652589698" />
    <synapse sourceNeuronName = "36" targetNeuronName = "44" weight = "0.8311680448999703" />
    <synapse sourceNeuronName = "36" targetNeuronName = "45" weight = "0.726823686568445" />
    <synapse sourceNeuronName = "37" targetNeuronName = "9" weight = "0.27763837633621313" />
    <synapse sourceNeuronName = "37" targetNeuronName = "10" weight = "0.4953503871474916" />
    <synapse sourceNeuronName = "37" targetNeuronName = "11" weight = "-0.6853544089397365" />
    <synapse sourceNeuronName = "37" targetNeuronName = "12" weight = "0.20574854022291267" />
    <synapse sourceNeuronName = "37" targetNeuronName = "13" weight = "-0.34592543226750827" />
    <synapse sourceNeuronName = "37" targetNeuronName = "14" weight = "-0.022643892876146765" />
    <synapse sourceNeuronName = "37" targetNeuronName = "15" weight = "-0.5492290838041878" />
    <synapse sourceNeuronName = "37" targetNeuronName = "16" weight = "0.8039153553364462" />
    <synapse sourceNeuronName = "37" targetNeuronName = "17" weight = "-0.17693244563074662" />
    <synapse sourceNeuronName = "37" targetNeuronName = "18" weight = "-0.046531893606304386" />
    <synapse sourceNeuronName = "38" targetNeuronName = "9" weight = "0.4428055058685296" />
    <synapse sourceNeuronName = "38" targetNeuronName = "10" weight = "-0.7556063741545902" />
    <synapse sourceNeuronName = "38" targetNeuronName = "11" weight = "0.006130097102199583" />
    <synapse sourceNeuronName = "38" targetNeuronName = "12" weight = "0.626295326572857" />
    <synapse sourceNeuronName = "38" targetNeuronName = "13" weight = "0.354683719841111" />
    <synapse sourceNeuronName = "38" targetNeuronName = "14" weight = "-0.35669854795073075" />
    <synapse sourceNeuronName = "38" targetNeuronName = "15" weight = "0.4213307933323944" />
    <synapse sourceNeuronName = "38" targetNeuronName = "16" weight = "0.8688791973589629" />
    <synapse sourceNeuronName = "38" targetNeuronName = "17" weight = "0.7895524767026827" />
    <synapse sourceNeuronName = "38" targetNeuronName = "18" weight = "0.48446957635025334" />
    <synapse sourceNeuronName = "39" targetNeuronName = "9" weight = "-0.4677976622996749" />
    <synapse sourceNeuronName = "39" targetNeuronName = "10" weight = "-0.255025186126111" />
    <synapse sourceNeuronName = "39" targetNeuronName = "11" weight = "0.11683584224706012" />
    <synapse sourceNeuronName = "39" targetNeuronName = "12" weight = "-0.23790220628717074" />
    <synapse sourceNeuronName = "39" targetNeuronName = "13" weight = "-0.08850627587502902" />
    <synapse sourceNeuronName = "39" targetNeuronName = "14" weight = "0.5870518882353848" />
    <synapse sourceNeuronName = "39" targetNeuronName = "15" weight = "-0.7921197357797696" />
    <synapse sourceNeuronName = "39" targetNeuronName = "16" weight = "0.9459931564543456" />
    <synapse sourceNeuronName = "39" targetNeuronName = "17" weight = "0.4092381324220773" />
    <synapse sourceNeuronName = "39" targetNeuronName = "18" weight = "0.7294557367526509" />
    <synapse sourceNeuronName = "40" targetNeuronName = "9" weight = "0.5633601078857469" />
    <synapse sourceNeuronName = "40" targetNeuronName = "10" weight = "-0.13563257298223808" />
    <synapse sourceNeuronName = "40" targetNeuronName = "11" weight = "0.8850222867664295" />
    <synapse sourceNeuronName = "40" targetNeuronName = "12" weight = "-0.4938275657829363" />
    <synapse sourceNeuronName = "40" targetNeuronName = "13" weight = "-0.9075031536208953" />
    <synapse sourceNeuronName = "40" targetNeuronName = "14" weight = "-0.8062435394703935" />
    <synapse sourceNeuronName = "40" targetNeuronName = "15" weight = "-0.5985267561558438" />
    <synapse sourceNeuronName = "40" targetNeuronName = "16" weight = "0.07816107269488293" />
    <synapse sourceNeuronName = "40" targetNeuronName = "17" weight = "-0.5527948948681258" />
    <synapse sourceNeuronName = "40" targetNeuronName = "18" weight = "0.6706416397028092" />
    <synapse sourceNeuronName = "41" targetNeuronName = "9" weight = "-0.9813226255143888" />
    <synapse sourceNeuronName = "41" targetNeuronName = "10" weight = "0.49180185758934813" />
    <synapse sourceNeuronName = "41" targetNeuronName = "11" weight = "0.9380156444840704" />
    <synapse sourceNeuronName = "41" targetNeuronName = "12" weight = "-0.4656335778300149" />
    <synapse sourceNeuronName = "41" targetNeuronName = "13" weight = "0.24763101285682976" />
    <synapse sourceNeuronName = "41" targetNeuronName = "14" weight = "0.4295592698912103" />
    <synapse sourceNeuronName = "41" targetNeuronName = "15" weight = "-0.34608516414073187" />
    <synapse sourceNeuronName = "41" targetNeuronName = "16" weight = "-0.1337468561743247" />
    <synapse sourceNeuronName = "41" targetNeuronName = "17" weight = "0.46881769222957637" />
    <synapse sourceNeuronName = "41" targetNeuronName = "18" weight = "-0.7376996256238875" />
    <synapse sourceNeuronName = "42" targetNeuronName = "9" weight = "-0.7126280540023566" />
    <synapse sourceNeuronName = "42" targetNeuronName = "10" weight = "-0.2491873545028962" />
    <synapse sourceNeuronName = "42" targetNeuronName = "11" weight = "-0.5431818963767163" />
    <synapse sourceNeuronName = "42" targetNeuronName = "12" weight = "-0.38602721244000127" />
    <synapse sourceNeuronName = "42" targetNeuronName = "13" weight = "-0.6998686302281902" />
    <synapse sourceNeuronName = "42" targetNeuronName = "14" weight = "-0.8067278803220281" />
    <synapse sourceNeuronName = "42" targetNeuronName = "15" weight = "0.8319680622326779" />
    <synapse sourceNeuronName = "42" targetNeuronName = "16" weight = "-0.30821318305660617" />
    <synapse sourceNeuronName = "42" targetNeuronName = "17" weight = "0.13193251347017987" />
    <synapse sourceNeuronName = "42" targetNeuronName = "18" weight = "0.0943975301447979" />
    <synapse sourceNeuronName = "43" targetNeuronName = "9" weight = "-0.09928490369537801" />
    <synapse sourceNeuronName = "43" targetNeuronName = "10" weight = "0.49564116068488007" />
    <synapse sourceNeuronName = "43" targetNeuronName = "11" weight = "-0.33684708530705265" />
    <synapse sourceNeuronName = "43" targetNeuronName = "12" weight = "0.7849549137146847" />
    <synapse sourceNeuronName = "43" targetNeuronName = "13" weight = "-0.8639335553858252" />
    <synapse sourceNeuronName = "43" targetNeuronName = "14" weight = "0.14977918545016178" />
    <synapse sourceNeuronName = "43" targetNeuronName = "15" weight = "-0.3218948460965192" />
    <synapse sourceNeuronName = "43" targetNeuronName = "16" weight = "-0.27219931022441224" />
    <synapse sourceNeuronName = "43" targetNeuronName = "17" weight = "-0.3898042115047833" />
    <synapse sourceNeuronName = "43" targetNeuronName = "18" weight = "0.20717259902106844" />
    <synapse sourceNeuronName = "44" targetNeuronName = "9" weight = "-0.5311841409323033" />
    <synapse sourceNeuronName = "44" targetNeuronName = "10" weight = "-0.41138760061916146" />
    <synapse sourceNeuronName = "44" targetNeuronName = "11" weight = "-0.4290108189100945" />
    <synapse sourceNeuronName = "44" targetNeuronName = "12" weight = "-0.9864091093176652" />
    <synapse sourceNeuronName = "44" targetNeuronName = "13" weight = "-0.25676298109217544" />
    <synapse sourceNeuronName = "44" targetNeuronName = "14" weight = "-0.9022052976550772" />
    <synapse sourceNeuronName = "44" targetNeuronName = "15" weight = "0.7487524250408124" />
    <synapse sourceNeuronName = "44" targetNeuronName = "16" weight = "0.4436452628068548" />
    <synapse sourceNeuronName = "44" targetNeuronName = "17" weight = "0.19061420905467874" />
    <synapse sourceNeuronName = "44" targetNeuronName = "18" weight = "0.4877566699772047" />
    <synapse sourceNeuronName = "45" targetNeuronName = "9" weight = "0.8021881675830269" />
    <synapse sourceNeuronName = "45" targetNeuronName = "10" weight = "0.38818112674090943" />
    <synapse sourceNeuronName = "45" targetNeuronName = "11" weight = "0.18151263425705544" />
    <synapse sourceNeuronName = "45" targetNeuronName = "12" weight = "-0.7514815127490979" />
    <synapse sourceNeuronName = "45" targetNeuronName = "13" weight = "-0.1908346969556245" />
    <synapse sourceNeuronName = "45" targetNeuronName = "14" weight = "0.15790249652181432" />
    <synapse sourceNeuronName = "45" targetNeuronName = "15" weight = "0.20568873163826518" />
    <synapse sourceNeuronName = "45" targetNeuronName = "16" weight = "0.9215556735677133" />
    <synapse sourceNeuronName = "45" targetNeuronName = "17" weight = "-0.5889993578489496" />
    <synapse sourceNeuronName = "45" targetNeuronName = "18" weight = "0.3263026551260011" />
</neuralNetwork>