<neuralNetwork>
    <neuron name = "0" type = "sensor" linkName = "rootLink" />
    <neuron name = "1" type = "sensor" linkName = "link2NPP" />
    <neuron name = "2" type = "sensor" linkName = "link4NPP" />
    <neuron name = "3" type = "sensor" linkName = "link2NNP" />
    <neuron name = "4" type = "sensor" linkName = "link4NNP" />
    <neuron name = "5" type = "motor"  jointName = "rootLink_link1NPP" />
    <neuron name = "6" type = "motor"  jointName = "rootLink_link1NNP" />
    <neuron name = "7" type = "motor"  jointName = "link1NPP_link2NPP" />
    <neuron name = "8" type = "motor"  jointName = "link2NPP_link3NPP" />
    <neuron name = "9" type = "motor"  jointName = "link3NPP_link4NPP" />
    <neuron name = "10" type = "motor"  jointName = "link1NNP_link2NNP" />
    <neuron name = "11" type = "motor"  jointName = "link2NNP_link3NNP" />
    <neuron name = "12" type = "motor"  jointName = "link3NNP_link4NNP" />
    <synapse sourceNeuronName = "0" targetNeuronName = "5" weight = "0.020945679169024345" />
    <synapse sourceNeuronName = "0" targetNeuronName = "6" weight = "-0.40914745804173513" />
    <synapse sourceNeuronName = "0" targetNeuronName = "7" weight = "-0.3168432914492927" />
    <synapse sourceNeuronName = "0" targetNeuronName = "8" weight = "-0.3563218995559698" />
    <synapse sourceNeuronName = "0" targetNeuronName = "9" weight = "0.6690743672293613" />
    <synapse sourceNeuronName = "0" targetNeuronName = "10" weight = "-0.6489987752447974" />
    <synapse sourceNeuronName = "0" targetNeuronName = "11" weight = "-0.5271048635706357" />
    <synapse sourceNeuronName = "0" targetNeuronName = "12" weight = "-0.6710501562977718" />
    <synapse sourceNeuronName = "1" targetNeuronName = "5" weight = "-0.9697984535253519" />
    <synapse sourceNeuronName = "1" targetNeuronName = "6" weight = "-0.14879054029273653" />
    <synapse sourceNeuronName = "1" targetNeuronName = "7" weight = "0.6878949842132016" />
    <synapse sourceNeuronName = "1" targetNeuronName = "8" weight = "0.8054985148074021" />
    <synapse sourceNeuronName = "1" targetNeuronName = "9" weight = "-0.025268676209249108" />
    <synapse sourceNeuronName = "1" targetNeuronName = "10" weight = "-0.15724728267643706" />
    <synapse sourceNeuronName = "1" targetNeuronName = "11" weight = "0.7363344620015737" />
    <synapse sourceNeuronName = "1" targetNeuronName = "12" weight = "0.05698955438234132" />
    <synapse sourceNeuronName = "2" targetNeuronName = "5" weight = "0.09733434981407929" />
    <synapse sourceNeuronName = "2" targetNeuronName = "6" weight = "0.29862383612030174" />
    <synapse sourceNeuronName = "2" targetNeuronName = "7" weight = "-0.8407745386110914" />
    <synapse sourceNeuronName = "2" targetNeuronName = "8" weight = "0.6770111536299868" />
    <synapse sourceNeuronName = "2" targetNeuronName = "9" weight = "-0.788513916179111" />
    <synapse sourceNeuronName = "2" targetNeuronName = "10" weight = "0.06464309307618676" />
    <synapse sourceNeuronName = "2" targetNeuronName = "11" weight = "0.8520190848336355" />
    <synapse sourceNeuronName = "2" targetNeuronName = "12" weight = "0.09741362594535397" />
    <synapse sourceNeuronName = "3" targetNeuronName = "5" weight = "-0.31558431272986076" />
    <synapse sourceNeuronName = "3" targetNeuronName = "6" weight = "0.4532617353291464" />
    <synapse sourceNeuronName = "3" targetNeuronName = "7" weight = "0.8020291006408835" />
    <synapse sourceNeuronName = "3" targetNeuronName = "8" weight = "0.2324707320237147" />
    <synapse sourceNeuronName = "3" targetNeuronName = "9" weight = "-0.8882277145496673" />
    <synapse sourceNeuronName = "3" targetNeuronName = "10" weight = "0.7576171968415168" />
    <synapse sourceNeuronName = "3" targetNeuronName = "11" weight = "-0.9640450972724968" />
    <synapse sourceNeuronName = "3" targetNeuronName = "12" weight = "0.3564784741183049" />
    <synapse sourceNeuronName = "4" targetNeuronName = "5" weight = "0.8000920461964101" />
    <synapse sourceNeuronName = "4" targetNeuronName = "6" weight = "-0.6851088723366563" />
    <synapse sourceNeuronName = "4" targetNeuronName = "7" weight = "0.05633025960014093" />
    <synapse sourceNeuronName = "4" targetNeuronName = "8" weight = "0.4101091794951981" />
    <synapse sourceNeuronName = "4" targetNeuronName = "9" weight = "-0.648976740505586" />
    <synapse sourceNeuronName = "4" targetNeuronName = "10" weight = "-0.5096048308969501" />
    <synapse sourceNeuronName = "4" targetNeuronName = "11" weight = "-0.8668600220974934" />
    <synapse sourceNeuronName = "4" targetNeuronName = "12" weight = "-0.6819949829871232" />
</neuralNetwork>