<neuralNetwork>
    <neuron name = "0" type = "sensor" linkName = "rootLink" />
    <neuron name = "1" type = "sensor" linkName = "link1NPP" />
    <neuron name = "2" type = "sensor" linkName = "link2NPP" />
    <neuron name = "3" type = "sensor" linkName = "link4NPP" />
    <neuron name = "4" type = "sensor" linkName = "link1NNP" />
    <neuron name = "5" type = "sensor" linkName = "link2NNP" />
    <neuron name = "6" type = "sensor" linkName = "link4NNP" />
    <neuron name = "7" type = "motor"  jointName = "rootLink_link1NPP" />
    <neuron name = "8" type = "motor"  jointName = "rootLink_link1NNP" />
    <neuron name = "9" type = "motor"  jointName = "link1NPP_link2NPP" />
    <neuron name = "10" type = "motor"  jointName = "link2NPP_link3NPP" />
    <neuron name = "11" type = "motor"  jointName = "link3NPP_link4NPP" />
    <neuron name = "12" type = "motor"  jointName = "link1NNP_link2NNP" />
    <neuron name = "13" type = "motor"  jointName = "link2NNP_link3NNP" />
    <neuron name = "14" type = "motor"  jointName = "link3NNP_link4NNP" />
    <synapse sourceNeuronName = "0" targetNeuronName = "7" weight = "0.7684828621754745" />
    <synapse sourceNeuronName = "0" targetNeuronName = "8" weight = "-0.10837964257408239" />
    <synapse sourceNeuronName = "0" targetNeuronName = "9" weight = "-0.8629001634763265" />
    <synapse sourceNeuronName = "0" targetNeuronName = "10" weight = "-0.8470074353680859" />
    <synapse sourceNeuronName = "0" targetNeuronName = "11" weight = "0.07758531600634" />
    <synapse sourceNeuronName = "0" targetNeuronName = "12" weight = "-0.8488671909895384" />
    <synapse sourceNeuronName = "0" targetNeuronName = "13" weight = "-0.6324553639751145" />
    <synapse sourceNeuronName = "0" targetNeuronName = "14" weight = "-0.12728583166697205" />
    <synapse sourceNeuronName = "1" targetNeuronName = "7" weight = "-0.004434337963085122" />
    <synapse sourceNeuronName = "1" targetNeuronName = "8" weight = "0.1666238304835148" />
    <synapse sourceNeuronName = "1" targetNeuronName = "9" weight = "0.24102536280981468" />
    <synapse sourceNeuronName = "1" targetNeuronName = "10" weight = "-0.25437700071466307" />
    <synapse sourceNeuronName = "1" targetNeuronName = "11" weight = "0.23747316596115975" />
    <synapse sourceNeuronName = "1" targetNeuronName = "12" weight = "-0.6855106832297275" />
    <synapse sourceNeuronName = "1" targetNeuronName = "13" weight = "-0.4489830491326128" />
    <synapse sourceNeuronName = "1" targetNeuronName = "14" weight = "0.597436541192621" />
    <synapse sourceNeuronName = "2" targetNeuronName = "7" weight = "-0.6938213985469677" />
    <synapse sourceNeuronName = "2" targetNeuronName = "8" weight = "-0.5533540542285265" />
    <synapse sourceNeuronName = "2" targetNeuronName = "9" weight = "-0.5140436406120898" />
    <synapse sourceNeuronName = "2" targetNeuronName = "10" weight = "-0.04098539035386617" />
    <synapse sourceNeuronName = "2" targetNeuronName = "11" weight = "-0.9985089559162041" />
    <synapse sourceNeuronName = "2" targetNeuronName = "12" weight = "-0.939377278955067" />
    <synapse sourceNeuronName = "2" targetNeuronName = "13" weight = "-0.07690369670438901" />
    <synapse sourceNeuronName = "2" targetNeuronName = "14" weight = "-0.6749586302669615" />
    <synapse sourceNeuronName = "3" targetNeuronName = "7" weight = "0.35900360754657035" />
    <synapse sourceNeuronName = "3" targetNeuronName = "8" weight = "0.5904091743532769" />
    <synapse sourceNeuronName = "3" targetNeuronName = "9" weight = "0.15632671747542037" />
    <synapse sourceNeuronName = "3" targetNeuronName = "10" weight = "0.38952995434641147" />
    <synapse sourceNeuronName = "3" targetNeuronName = "11" weight = "-0.21808396853224266" />
    <synapse sourceNeuronName = "3" targetNeuronName = "12" weight = "-0.9074075940141033" />
    <synapse sourceNeuronName = "3" targetNeuronName = "13" weight = "-0.12115693474070133" />
    <synapse sourceNeuronName = "3" targetNeuronName = "14" weight = "-0.25603937558112055" />
    <synapse sourceNeuronName = "4" targetNeuronName = "7" weight = "0.19400648440066015" />
    <synapse sourceNeuronName = "4" targetNeuronName = "8" weight = "-0.7315636606019338" />
    <synapse sourceNeuronName = "4" targetNeuronName = "9" weight = "-0.5445742065563282" />
    <synapse sourceNeuronName = "4" targetNeuronName = "10" weight = "0.6295648330545596" />
    <synapse sourceNeuronName = "4" targetNeuronName = "11" weight = "-0.4713489467195737" />
    <synapse sourceNeuronName = "4" targetNeuronName = "12" weight = "-0.1793595901856735" />
    <synapse sourceNeuronName = "4" targetNeuronName = "13" weight = "0.8719443529915631" />
    <synapse sourceNeuronName = "4" targetNeuronName = "14" weight = "-0.44889507395829087" />
    <synapse sourceNeuronName = "5" targetNeuronName = "7" weight = "-0.7094200822928722" />
    <synapse sourceNeuronName = "5" targetNeuronName = "8" weight = "0.4040402586629046" />
    <synapse sourceNeuronName = "5" targetNeuronName = "9" weight = "0.13413310088254926" />
    <synapse sourceNeuronName = "5" targetNeuronName = "10" weight = "0.22318767109319393" />
    <synapse sourceNeuronName = "5" targetNeuronName = "11" weight = "-0.9159382980128528" />
    <synapse sourceNeuronName = "5" targetNeuronName = "12" weight = "-0.16546621048554644" />
    <synapse sourceNeuronName = "5" targetNeuronName = "13" weight = "-0.9914671316656811" />
    <synapse sourceNeuronName = "5" targetNeuronName = "14" weight = "-0.506929062278221" />
    <synapse sourceNeuronName = "6" targetNeuronName = "7" weight = "0.4121123671680127" />
    <synapse sourceNeuronName = "6" targetNeuronName = "8" weight = "-0.8769185681586005" />
    <synapse sourceNeuronName = "6" targetNeuronName = "9" weight = "-0.41061300279344026" />
    <synapse sourceNeuronName = "6" targetNeuronName = "10" weight = "0.9762255056243563" />
    <synapse sourceNeuronName = "6" targetNeuronName = "11" weight = "0.942444460453951" />
    <synapse sourceNeuronName = "6" targetNeuronName = "12" weight = "-0.03630722264059005" />
    <synapse sourceNeuronName = "6" targetNeuronName = "13" weight = "0.4713867730564918" />
    <synapse sourceNeuronName = "6" targetNeuronName = "14" weight = "0.2653115483722779" />
</neuralNetwork>