<neuralNetwork>
    <neuron name = "0" type = "sensor" linkName = "rootLink" />
    <neuron name = "1" type = "sensor" linkName = "link1NPP" />
    <neuron name = "2" type = "sensor" linkName = "link2NPP" />
    <neuron name = "3" type = "sensor" linkName = "link3NPP" />
    <neuron name = "4" type = "sensor" linkName = "link4NPP" />
    <neuron name = "5" type = "sensor" linkName = "link1NNP" />
    <neuron name = "6" type = "sensor" linkName = "link2NNP" />
    <neuron name = "7" type = "sensor" linkName = "link3NNP" />
    <neuron name = "8" type = "sensor" linkName = "link4NNP" />
    <neuron name = "9" type = "motor"  jointName = "rootLink_link1NPP" />
    <neuron name = "10" type = "motor"  jointName = "rootLink_link1NNP" />
    <neuron name = "11" type = "motor"  jointName = "link1NPP_link2NPP" />
    <neuron name = "12" type = "motor"  jointName = "link2NPP_link3NPP" />
    <neuron name = "13" type = "motor"  jointName = "link3NPP_link4NPP" />
    <neuron name = "14" type = "motor"  jointName = "link1NNP_link2NNP" />
    <neuron name = "15" type = "motor"  jointName = "link2NNP_link3NNP" />
    <neuron name = "16" type = "motor"  jointName = "link3NNP_link4NNP" />
    <synapse sourceNeuronName = "0" targetNeuronName = "9" weight = "-0.18231364696259766" />
    <synapse sourceNeuronName = "0" targetNeuronName = "10" weight = "-0.569184934707019" />
    <synapse sourceNeuronName = "0" targetNeuronName = "11" weight = "-0.6670451546019571" />
    <synapse sourceNeuronName = "0" targetNeuronName = "12" weight = "0.24551410109929916" />
    <synapse sourceNeuronName = "0" targetNeuronName = "13" weight = "0.9494493607284165" />
    <synapse sourceNeuronName = "0" targetNeuronName = "14" weight = "-0.8038009407990023" />
    <synapse sourceNeuronName = "0" targetNeuronName = "15" weight = "0.31388376671304474" />
    <synapse sourceNeuronName = "0" targetNeuronName = "16" weight = "0.19938847830972706" />
    <synapse sourceNeuronName = "1" targetNeuronName = "9" weight = "0.49529311329752845" />
    <synapse sourceNeuronName = "1" targetNeuronName = "10" weight = "-0.3617189449187901" />
    <synapse sourceNeuronName = "1" targetNeuronName = "11" weight = "-0.4767530709446153" />
    <synapse sourceNeuronName = "1" targetNeuronName = "12" weight = "-0.42576616681372115" />
    <synapse sourceNeuronName = "1" targetNeuronName = "13" weight = "0.6756311571450835" />
    <synapse sourceNeuronName = "1" targetNeuronName = "14" weight = "0.697648733076369" />
    <synapse sourceNeuronName = "1" targetNeuronName = "15" weight = "0.6255315493609841" />
    <synapse sourceNeuronName = "1" targetNeuronName = "16" weight = "-0.4427888524938359" />
    <synapse sourceNeuronName = "2" targetNeuronName = "9" weight = "-0.24431859222319496" />
    <synapse sourceNeuronName = "2" targetNeuronName = "10" weight = "-0.4194959439336232" />
    <synapse sourceNeuronName = "2" targetNeuronName = "11" weight = "0.3727386385198288" />
    <synapse sourceNeuronName = "2" targetNeuronName = "12" weight = "-0.5297769203716662" />
    <synapse sourceNeuronName = "2" targetNeuronName = "13" weight = "0.48607115237491816" />
    <synapse sourceNeuronName = "2" targetNeuronName = "14" weight = "0.5858898998375306" />
    <synapse sourceNeuronName = "2" targetNeuronName = "15" weight = "0.06670998741605993" />
    <synapse sourceNeuronName = "2" targetNeuronName = "16" weight = "-0.6509806955851594" />
    <synapse sourceNeuronName = "3" targetNeuronName = "9" weight = "-0.4749492715524988" />
    <synapse sourceNeuronName = "3" targetNeuronName = "10" weight = "0.13442479550972153" />
    <synapse sourceNeuronName = "3" targetNeuronName = "11" weight = "0.47029307517693675" />
    <synapse sourceNeuronName = "3" targetNeuronName = "12" weight = "-0.5983265330913525" />
    <synapse sourceNeuronName = "3" targetNeuronName = "13" weight = "0.2964208035165703" />
    <synapse sourceNeuronName = "3" targetNeuronName = "14" weight = "0.8171994381890872" />
    <synapse sourceNeuronName = "3" targetNeuronName = "15" weight = "0.4644532094744567" />
    <synapse sourceNeuronName = "3" targetNeuronName = "16" weight = "0.7768338492263736" />
    <synapse sourceNeuronName = "4" targetNeuronName = "9" weight = "0.9175514657133035" />
    <synapse sourceNeuronName = "4" targetNeuronName = "10" weight = "-0.4510351249904705" />
    <synapse sourceNeuronName = "4" targetNeuronName = "11" weight = "-0.5839197101844054" />
    <synapse sourceNeuronName = "4" targetNeuronName = "12" weight = "0.8012356795672322" />
    <synapse sourceNeuronName = "4" targetNeuronName = "13" weight = "-0.22096126383309111" />
    <synapse sourceNeuronName = "4" targetNeuronName = "14" weight = "-0.7841746436666064" />
    <synapse sourceNeuronName = "4" targetNeuronName = "15" weight = "0.2469693954312837" />
    <synapse sourceNeuronName = "4" targetNeuronName = "16" weight = "-0.04293241269815251" />
    <synapse sourceNeuronName = "5" targetNeuronName = "9" weight = "-0.6159290680601881" />
    <synapse sourceNeuronName = "5" targetNeuronName = "10" weight = "0.832359451460547" />
    <synapse sourceNeuronName = "5" targetNeuronName = "11" weight = "-0.04037186971850759" />
    <synapse sourceNeuronName = "5" targetNeuronName = "12" weight = "0.9823538714523143" />
    <synapse sourceNeuronName = "5" targetNeuronName = "13" weight = "-0.4373938266086259" />
    <synapse sourceNeuronName = "5" targetNeuronName = "14" weight = "-0.8807383726801905" />
    <synapse sourceNeuronName = "5" targetNeuronName = "15" weight = "0.8152853273031848" />
    <synapse sourceNeuronName = "5" targetNeuronName = "16" weight = "-0.4075145540469898" />
    <synapse sourceNeuronName = "6" targetNeuronName = "9" weight = "0.8476072928003695" />
    <synapse sourceNeuronName = "6" targetNeuronName = "10" weight = "-0.030770895366174056" />
    <synapse sourceNeuronName = "6" targetNeuronName = "11" weight = "0.386685505077341" />
    <synapse sourceNeuronName = "6" targetNeuronName = "12" weight = "-0.7675270455647194" />
    <synapse sourceNeuronName = "6" targetNeuronName = "13" weight = "-0.47078775814917484" />
    <synapse sourceNeuronName = "6" targetNeuronName = "14" weight = "0.35776581152645837" />
    <synapse sourceNeuronName = "6" targetNeuronName = "15" weight = "0.9045534924749354" />
    <synapse sourceNeuronName = "6" targetNeuronName = "16" weight = "0.6400046757608415" />
    <synapse sourceNeuronName = "7" targetNeuronName = "9" weight = "0.809051308529146" />
    <synapse sourceNeuronName = "7" targetNeuronName = "10" weight = "0.5493825183665095" />
    <synapse sourceNeuronName = "7" targetNeuronName = "11" weight = "0.9440446376481484" />
    <synapse sourceNeuronName = "7" targetNeuronName = "12" weight = "-0.5238619774920861" />
    <synapse sourceNeuronName = "7" targetNeuronName = "13" weight = "-0.7552467877389852" />
    <synapse sourceNeuronName = "7" targetNeuronName = "14" weight = "-0.5189594689543764" />
    <synapse sourceNeuronName = "7" targetNeuronName = "15" weight = "0.16016376395032728" />
    <synapse sourceNeuronName = "7" targetNeuronName = "16" weight = "-0.2586036611436926" />
    <synapse sourceNeuronName = "8" targetNeuronName = "9" weight = "-0.9296692185302569" />
    <synapse sourceNeuronName = "8" targetNeuronName = "10" weight = "-0.7506124804387195" />
    <synapse sourceNeuronName = "8" targetNeuronName = "11" weight = "-0.43762875033644066" />
    <synapse sourceNeuronName = "8" targetNeuronName = "12" weight = "-0.32915508594553367" />
    <synapse sourceNeuronName = "8" targetNeuronName = "13" weight = "-0.36489135539246975" />
    <synapse sourceNeuronName = "8" targetNeuronName = "14" weight = "0.13102125998939163" />
    <synapse sourceNeuronName = "8" targetNeuronName = "15" weight = "0.310868040698004" />
    <synapse sourceNeuronName = "8" targetNeuronName = "16" weight = "0.6896292448298971" />
</neuralNetwork>